<?xml version="1.0"?>
<MethodSetup Method="BDT::BDT">
  <GeneralInfo>
    <Info name="TMVA Release" value="4.2.1 [262657]"/>
    <Info name="ROOT Release" value="6.18/00 [397824]"/>
    <Info name="Creator" value="singhr"/>
    <Info name="Date" value="Thu May 14 21:44:58 2020"/>
    <Info name="Host" value="Linux lcgapp-centos7-x86-64-34.cern.ch 3.10.0-957.10.1.el7.x86_64 #1 SMP Mon Mar 18 15:06:45 UTC 2019 x86_64 x86_64 x86_64 GNU/Linux"/>
    <Info name="Dir" value="/pool/condor/dir_21002/output"/>
    <Info name="Training events" value="295362"/>
    <Info name="TrainingTime" value="1.43056986e+03"/>
    <Info name="AnalysisType" value="Classification"/>
  </GeneralInfo>
  <Options>
    <Option name="V" modified="Yes">False</Option>
    <Option name="VerbosityLevel" modified="No">Default</Option>
    <Option name="VarTransform" modified="No">None</Option>
    <Option name="H" modified="Yes">False</Option>
    <Option name="CreateMVAPdfs" modified="No">False</Option>
    <Option name="IgnoreNegWeightsInTraining" modified="No">False</Option>
    <Option name="NTrees" modified="Yes">800</Option>
    <Option name="MaxDepth" modified="No">3</Option>
    <Option name="MinNodeSize" modified="No">5%</Option>
    <Option name="nCuts" modified="No">20</Option>
    <Option name="BoostType" modified="Yes">Grad</Option>
    <Option name="AdaBoostR2Loss" modified="No">quadratic</Option>
    <Option name="UseBaggedBoost" modified="No">False</Option>
    <Option name="Shrinkage" modified="Yes">1.000000e-01</Option>
    <Option name="AdaBoostBeta" modified="No">5.000000e-01</Option>
    <Option name="UseRandomisedTrees" modified="No">False</Option>
    <Option name="UseNvars" modified="No">4</Option>
    <Option name="UsePoissonNvars" modified="No">True</Option>
    <Option name="BaggedSampleFraction" modified="No">6.000000e-01</Option>
    <Option name="UseYesNoLeaf" modified="No">True</Option>
    <Option name="NegWeightTreatment" modified="No">pray</Option>
    <Option name="Css" modified="No">1.000000e+00</Option>
    <Option name="Cts_sb" modified="No">1.000000e+00</Option>
    <Option name="Ctb_ss" modified="No">1.000000e+00</Option>
    <Option name="Cbb" modified="No">1.000000e+00</Option>
    <Option name="NodePurityLimit" modified="No">5.000000e-01</Option>
    <Option name="SeparationType" modified="No">giniindex</Option>
    <Option name="RegressionLossFunctionBDTG" modified="No">huber</Option>
    <Option name="HuberQuantile" modified="No">7.000000e-01</Option>
    <Option name="DoBoostMonitor" modified="Yes">True</Option>
    <Option name="UseFisherCuts" modified="No">False</Option>
    <Option name="MinLinCorrForFisher" modified="No">8.000000e-01</Option>
    <Option name="UseExclusiveVars" modified="No">False</Option>
    <Option name="DoPreselection" modified="No">False</Option>
    <Option name="SigToBkgFraction" modified="No">1.000000e+00</Option>
    <Option name="PruneMethod" modified="No">nopruning</Option>
    <Option name="PruneStrength" modified="No">0.000000e+00</Option>
    <Option name="PruningValFraction" modified="No">5.000000e-01</Option>
    <Option name="SkipNormalization" modified="No">False</Option>
    <Option name="nEventsMin" modified="No">0</Option>
    <Option name="UseBaggedGrad" modified="No">False</Option>
    <Option name="GradBaggingFraction" modified="No">6.000000e-01</Option>
    <Option name="UseNTrainEvents" modified="No">0</Option>
    <Option name="NNodesMax" modified="No">0</Option>
  </Options>
  <Variables NVar="15">
    <Variable VarIndex="0" Expression="nvtx" Label="nvtx" Title="nvtx" Unit="" Internal="nvtx" Type="I" Min="1.00000000e+00" Max="8.40000000e+01"/>
    <Variable VarIndex="1" Expression="beta" Label="beta" Title="beta" Unit="" Internal="beta" Type="F" Min="0.00000000e+00" Max="1.00000000e+00"/>
    <Variable VarIndex="2" Expression="dR2Mean" Label="dR2Mean" Title="dR2Mean" Unit="" Internal="dR2Mean" Type="F" Min="4.81757797e-06" Max="9.85564068e-02"/>
    <Variable VarIndex="3" Expression="frac01" Label="frac01" Title="frac01" Unit="" Internal="frac01" Type="F" Min="0.00000000e+00" Max="1.00108564e+00"/>
    <Variable VarIndex="4" Expression="frac02" Label="frac02" Title="frac02" Unit="" Internal="frac02" Type="F" Min="0.00000000e+00" Max="1.01509869e+00"/>
    <Variable VarIndex="5" Expression="frac03" Label="frac03" Title="frac03" Unit="" Internal="frac03" Type="F" Min="0.00000000e+00" Max="1.02243555e+00"/>
    <Variable VarIndex="6" Expression="frac04" Label="frac04" Title="frac04" Unit="" Internal="frac04" Type="F" Min="0.00000000e+00" Max="7.07240283e-01"/>
    <Variable VarIndex="7" Expression="majW" Label="majW" Title="majW" Unit="" Internal="majW" Type="F" Min="2.07667728e-03" Max="2.96215147e-01"/>
    <Variable VarIndex="8" Expression="minW" Label="minW" Title="minW" Unit="" Internal="minW" Type="F" Min="6.43879612e-05" Max="1.98714554e-01"/>
    <Variable VarIndex="9" Expression="jetR" Label="jetR" Title="jetR" Unit="" Internal="jetR" Type="F" Min="7.17162490e-02" Max="9.89778876e-01"/>
    <Variable VarIndex="10" Expression="jetRchg" Label="jetRchg" Title="jetRchg" Unit="" Internal="jetRchg" Type="F" Min="7.87079684e-04" Max="8.84029448e-01"/>
    <Variable VarIndex="11" Expression="nParticles" Label="nParticles" Title="nParticles" Unit="" Internal="nParticles" Type="F" Min="3.00000000e+00" Max="3.70000000e+01"/>
    <Variable VarIndex="12" Expression="nCharged" Label="nCharged" Title="nCharged" Unit="" Internal="nCharged" Type="F" Min="0.00000000e+00" Max="3.20000000e+01"/>
    <Variable VarIndex="13" Expression="ptD" Label="ptD" Title="ptD" Unit="" Internal="ptD" Type="F" Min="2.17991680e-01" Max="9.89806771e-01"/>
    <Variable VarIndex="14" Expression="pull" Label="pull" Title="pull" Unit="" Internal="pull" Type="F" Min="1.27792305e-06" Max="2.62639131e-02"/>
  </Variables>
  <Spectators NSpec="2">
    <Spectator SpecIndex="0" Expression="jetPt" Label="jetPt" Title="F" Unit="" Internal="jetPt" Type="F" Min="1.00000143e+01" Max="9.99869080e+01"/>
    <Spectator SpecIndex="1" Expression="jetEta" Label="jetEta" Title="F" Unit="" Internal="jetEta" Type="F" Min="-3.00000000e+00" Max="2.99999928e+00"/>
  </Spectators>
  <Classes NClass="2">
    <Class Name="Signal" Index="0"/>
    <Class Name="Background" Index="1"/>
  </Classes>
  <Transformations NTransformations="0"/>
  <MVAPdfs/>
  <Weights NTrees="800" AnalysisType="1">
    <BinaryTree type="DecisionTree" boostWeight="1.0000000000000000e+00" itree="0">
      <Node pos="s" depth="0" NCoef="0" IVar="1" Cut="2.3809523880481720e-01" cType="1" res="3.1906608492136002e-02" rms="2.5704905390739441e-01" purity="5.0000000000000000e-01" nType="0">
        <Node pos="l" depth="1" NCoef="0" IVar="10" Cut="4.2288400232791901e-02" cType="1" res="-1.4512597583234310e-02" rms="2.4438421428203583e-01" purity="3.3307114243507385e-01" nType="0">
          <Node pos="l" depth="2" NCoef="0" IVar="2" Cut="1.4083616435527802e-02" cType="1" res="4.9606531858444214e-02" rms="2.5516512989997864e-01" purity="5.4015588760375977e-01" nType="0">
            <Node pos="l" depth="3" NCoef="0" IVar="-1" Cut="0.0000000000000000e+00" cType="1" res="3.7282191216945648e-02" rms="4.6395146846771240e-01" purity="6.8641096353530884e-01" nType="-99"/>
            <Node pos="r" depth="3" NCoef="0" IVar="-1" Cut="0.0000000000000000e+00" cType="1" res="-6.3939602114260197e-03" rms="4.9897688627243042e-01" purity="4.6803018450737000e-01" nType="-99"/>
          </Node>
          <Node pos="r" depth="2" NCoef="0" IVar="1" Cut="1.2471531331539154e-01" cType="1" res="-3.7520371377468109e-02" rms="2.3619174957275391e-01" purity="2.5876322388648987e-01" nType="0">
            <Node pos="l" depth="3" NCoef="0" IVar="-1" Cut="0.0000000000000000e+00" cType="1" res="-5.3585965186357498e-02" rms="4.2215353250503540e-01" purity="2.3207017779350281e-01" nType="-99"/>
            <Node pos="r" depth="3" NCoef="0" IVar="-1" Cut="0.0000000000000000e+00" cType="1" res="-4.2049933108501136e-04" rms="4.9999558925628662e-01" purity="4.9789750576019287e-01" nType="-99"/>
          </Node>
        </Node>
        <Node pos="r" depth="1" NCoef="0" IVar="1" Cut="3.8321995735168457e-01" cType="1" res="1.5755623579025269e-01" rms="2.6547098159790039e-01" purity="8.8455647230148315e-01" nType="0">
          <Node pos="l" depth="2" NCoef="0" IVar="-1" Cut="0.0000000000000000e+00" cType="1" res="4.6742089092731476e-02" rms="4.4201743602752686e-01" purity="7.3371046781539917e-01" nType="-99"/>
          <Node pos="r" depth="2" NCoef="0" IVar="10" Cut="8.6004093289375305e-02" cType="1" res="1.8120208382606506e-01" rms="2.6552423834800720e-01" purity="9.2551660537719727e-01" nType="0">
            <Node pos="l" depth="3" NCoef="0" IVar="-1" Cut="0.0000000000000000e+00" cType="1" res="6.9884322583675385e-02" rms="3.5763743519783020e-01" purity="8.4942162036895752e-01" nType="-99"/>
            <Node pos="r" depth="3" NCoef="0" IVar="-1" Cut="0.0000000000000000e+00" cType="1" res="9.1067820787429810e-02" rms="2.0655819773674011e-01" purity="9.5533913373947144e-01" nType="-99"/>
          </Node>
        </Node>
      </Node>
    </BinaryTree>
    <BinaryTree type="DecisionTree" boostWeight="1.0000000000000000e+00" itree="1">
      <Node pos="s" depth="0" NCoef="0" IVar="1" Cut="1.9047619402408600e-01" cType="1" res="3.0480079352855682e-02" rms="2.4835957586765289e-01" purity="5.0000000000000000e-01" nType="0">
        <Node pos="l" depth="1" NCoef="0" IVar="10" Cut="4.2288400232791901e-02" cType="1" res="-1.2097982689738274e-02" rms="2.4171009659767151e-01" purity="3.2379755377769470e-01" nType="0">
          <Node pos="l" depth="2" NCoef="0" IVar="0" Cut="2.7000000000000000e+01" cType="1" res="3.3798292279243469e-02" rms="4.9656116962432861e-01" purity="5.3777492046356201e-01" nType="0">
            <Node pos="l" depth="3" NCoef="0" IVar="-1" Cut="0.0000000000000000e+00" cType="1" res="2.7414120733737946e-02" rms="4.7732394933700562e-01" purity="6.4162927865982056e-01" nType="-99"/>
            <Node pos="r" depth="3" NCoef="0" IVar="-1" Cut="0.0000000000000000e+00" cType="1" res="-1.1083708144724369e-02" rms="4.9558541178703308e-01" purity="4.4801789522171021e-01" nType="-99"/>
          </Node>
          <Node pos="r" depth="2" NCoef="0" IVar="3" Cut="5.7204896211624146e-01" cType="1" res="-3.4279543906450272e-02" rms="2.3282989859580994e-01" purity="2.4538946151733398e-01" nType="0">
            <Node pos="l" depth="3" NCoef="0" IVar="-1" Cut="0.0000000000000000e+00" cType="1" res="-5.0715129822492599e-02" rms="4.1483610868453979e-01" purity="2.2204332053661346e-01" nType="-99"/>
            <Node pos="r" depth="3" NCoef="0" IVar="-1" Cut="0.0000000000000000e+00" cType="1" res="-1.6728751361370087e-02" rms="4.8753166198730469e-01" purity="3.9130216836929321e-01" nType="-99"/>
          </Node>
        </Node>
        <Node pos="r" depth="1" NCoef="0" IVar="1" Cut="3.4467118978500366e-01" cType="1" res="1.3414429128170013e-01" rms="2.5128480792045593e-01" purity="8.6312526464462280e-01" nType="0">
          <Node pos="l" depth="2" NCoef="0" IVar="-1" Cut="0.0000000000000000e+00" cType="1" res="3.1161349266767502e-02" rms="4.6843916177749634e-01" purity="6.7137891054153442e-01" nType="-99"/>
          <Node pos="r" depth="2" NCoef="0" IVar="10" Cut="8.6004093289375305e-02" cType="1" res="1.5857279300689697e-01" rms="2.4866616725921631e-01" purity="9.1741240024566650e-01" nType="0">
            <Node pos="l" depth="3" NCoef="0" IVar="-1" Cut="0.0000000000000000e+00" cType="1" res="6.1365932226181030e-02" rms="3.6725541949272156e-01" purity="8.3900427818298340e-01" nType="-99"/>
            <Node pos="r" depth="3" NCoef="0" IVar="-1" Cut="0.0000000000000000e+00" cType="1" res="8.1875577569007874e-02" rms="2.1641109883785248e-01" purity="9.5053809881210327e-01" nType="-99"/>
          </Node>
        </Node>
      </Node>
    </BinaryTree>
    <BinaryTree type="DecisionTree" boostWeight="1.0000000000000000e+00" itree="2">
      <Node pos="s" depth="0" NCoef="0" IVar="1" Cut="2.3809523880481720e-01" cType="1" res="2.8667835518717766e-02" rms="2.4099805951118469e-01" purity="5.0000000000000000e-01" nType="0">
        <Node pos="l" depth="1" NCoef="0" IVar="10" Cut="4.2288400232791901e-02" cType="1" res="-8.2154888659715652e-03" rms="2.3804278671741486e-01" purity="3.3307114243507385e-01" nType="0">
          <Node pos="l" depth="2" NCoef="0" IVar="14" Cut="4.5232023112475872e-03" cType="1" res="4.4534225016832352e-02" rms="2.5154843926429749e-01" purity="5.4015588760375977e-01" nType="0">
            <Node pos="l" depth="3" NCoef="0" IVar="-1" Cut="0.0000000000000000e+00" cType="1" res="3.0399657785892487e-02" rms="4.6762910485267639e-01" purity="6.6879892349243164e-01" nType="-99"/>
            <Node pos="r" depth="3" NCoef="0" IVar="-1" Cut="0.0000000000000000e+00" cType="1" res="-8.4296958521008492e-03" rms="4.9638465046882629e-01" purity="4.5956936478614807e-01" nType="-99"/>
          </Node>
          <Node pos="r" depth="2" NCoef="0" IVar="1" Cut="1.0203979909420013e-01" cType="1" res="-2.7143592014908791e-02" rms="2.3007602989673615e-01" purity="2.5876322388648987e-01" nType="0">
            <Node pos="l" depth="3" NCoef="0" IVar="-1" Cut="0.0000000000000000e+00" cType="1" res="-4.4741477817296982e-02" rms="4.1933897137641907e-01" purity="2.2891730070114136e-01" nType="-99"/>
            <Node pos="r" depth="3" NCoef="0" IVar="-1" Cut="0.0000000000000000e+00" cType="1" res="-3.1160586513578892e-03" rms="4.9511966109275818e-01" purity="4.6823254227638245e-01" nType="-99"/>
          </Node>
        </Node>
        <Node pos="r" depth="1" NCoef="0" IVar="1" Cut="4.1950112581253052e-01" cType="1" res="1.2889735400676727e-01" rms="2.3745988309383392e-01" purity="8.8455647230148315e-01" nType="0">
          <Node pos="l" depth="2" NCoef="0" IVar="-1" Cut="0.0000000000000000e+00" cType="1" res="4.1414301842451096e-02" rms="4.2820733785629272e-01" purity="7.5490981340408325e-01" nType="-99"/>
          <Node pos="r" depth="2" NCoef="0" IVar="10" Cut="8.6004093289375305e-02" cType="1" res="1.5271733701229095e-01" rms="2.3339833319187164e-01" purity="9.3126010894775391e-01" nType="0">
            <Node pos="l" depth="3" NCoef="0" IVar="-1" Cut="0.0000000000000000e+00" cType="1" res="5.9122044593095779e-02" rms="3.5126543045043945e-01" purity="8.5582667589187622e-01" nType="-99"/>
            <Node pos="r" depth="3" NCoef="0" IVar="-1" Cut="0.0000000000000000e+00" cType="1" res="7.6892815530300140e-02" rms="1.9872894883155823e-01" purity="9.5881021022796631e-01" nType="-99"/>
          </Node>
        </Node>
      </Node>
    </BinaryTree>
    <BinaryTree type="DecisionTree" boostWeight="1.0000000000000000e+00" itree="3">
      <Node pos="s" depth="0" NCoef="0" IVar="1" Cut="1.9047619402408600e-01" cType="1" res="2.7540577575564384e-02" rms="2.3503024876117706e-01" purity="5.0000000000000000e-01" nType="0">
        <Node pos="l" depth="1" NCoef="0" IVar="10" Cut="4.2288400232791901e-02" cType="1" res="-6.1984714120626450e-03" rms="2.3645819723606110e-01" purity="3.2379755377769470e-01" nType="0">
          <Node pos="l" depth="2" NCoef="0" IVar="2" Cut="1.8776549026370049e-02" cType="1" res="4.3571222573518753e-02" rms="2.5161460041999817e-01" purity="5.3777492046356201e-01" nType="0">
            <Node pos="l" depth="3" NCoef="0" IVar="-1" Cut="0.0000000000000000e+00" cType="1" res="2.5574069470167160e-02" rms="4.7169974446296692e-01" purity="6.5388244390487671e-01" nType="-99"/>
            <Node pos="r" depth="3" NCoef="0" IVar="-1" Cut="0.0000000000000000e+00" cType="1" res="-1.0114852339029312e-02" rms="4.9531847238540649e-01" purity="4.4761651754379272e-01" nType="-99"/>
          </Node>
          <Node pos="r" depth="2" NCoef="0" IVar="10" Cut="8.1813983619213104e-02" cType="1" res="-2.4435663595795631e-02" rms="2.2795081138610840e-01" purity="2.4538946151733398e-01" nType="0">
            <Node pos="l" depth="3" NCoef="0" IVar="-1" Cut="0.0000000000000000e+00" cType="1" res="-2.5983566418290138e-02" rms="4.5867541432380676e-01" purity="3.0496770143508911e-01" nType="-99"/>
            <Node pos="r" depth="3" NCoef="0" IVar="-1" Cut="0.0000000000000000e+00" cType="1" res="-4.9067080020904541e-02" rms="3.9051744341850281e-01" purity="1.9070711731910706e-01" nType="-99"/>
          </Node>
        </Node>
        <Node pos="r" depth="1" NCoef="0" IVar="1" Cut="3.8321995735168457e-01" cType="1" res="1.1008090525865555e-01" rms="2.2848625481128693e-01" purity="8.6312526464462280e-01" nType="0">
          <Node pos="l" depth="2" NCoef="0" IVar="-1" Cut="0.0000000000000000e+00" cType="1" res="2.9252897948026657e-02" rms="4.5693385601043701e-01" purity="6.9560068845748901e-01" nType="-99"/>
          <Node pos="r" depth="2" NCoef="0" IVar="10" Cut="8.6004093289375305e-02" cType="1" res="1.3382089138031006e-01" rms="2.2124819457530975e-01" purity="9.2551660537719727e-01" nType="0">
            <Node pos="l" depth="3" NCoef="0" IVar="-1" Cut="0.0000000000000000e+00" cType="1" res="5.3108043968677521e-02" rms="3.5751131176948547e-01" purity="8.4942162036895752e-01" nType="-99"/>
            <Node pos="r" depth="3" NCoef="0" IVar="-1" Cut="0.0000000000000000e+00" cType="1" res="7.0948667824268341e-02" rms="2.0631937682628632e-01" purity="9.5533913373947144e-01" nType="-99"/>
          </Node>
        </Node>
      </Node>
    </BinaryTree>
    <BinaryTree type="DecisionTree" boostWeight="1.0000000000000000e+00" itree="4">
      <Node pos="s" depth="0" NCoef="0" IVar="1" Cut="2.3809523880481720e-01" cType="1" res="2.6579156517982483e-02" rms="2.2991997003555298e-01" purity="5.0000000000000000e-01" nType="0">
        <Node pos="l" depth="1" NCoef="0" IVar="10" Cut="4.2288400232791901e-02" cType="1" res="-2.3939379025250673e-03" rms="2.3391807079315186e-01" purity="3.3307114243507385e-01" nType="0">
          <Node pos="l" depth="2" NCoef="0" IVar="0" Cut="2.8000000000000000e+01" cType="1" res="2.6342457160353661e-02" rms="4.9136769771575928e-01" purity="5.4015588760375977e-01" nType="0">
            <Node pos="l" depth="3" NCoef="0" IVar="-1" Cut="0.0000000000000000e+00" cType="1" res="2.2365799173712730e-02" rms="4.7530570626258850e-01" purity="6.3536769151687622e-01" nType="-99"/>
            <Node pos="r" depth="3" NCoef="0" IVar="-1" Cut="0.0000000000000000e+00" cType="1" res="-1.1529063805937767e-02" rms="4.9256724119186401e-01" purity="4.4616171717643738e-01" nType="-99"/>
          </Node>
          <Node pos="r" depth="2" NCoef="0" IVar="1" Cut="1.1337755620479584e-01" cType="1" res="-1.8476057797670364e-02" rms="2.2613555192947388e-01" purity="2.5876322388648987e-01" nType="0">
            <Node pos="l" depth="3" NCoef="0" IVar="-1" Cut="0.0000000000000000e+00" cType="1" res="-3.7141870707273483e-02" rms="4.1954001784324646e-01" purity="2.3048807680606842e-01" nType="-99"/>
            <Node pos="r" depth="3" NCoef="0" IVar="-1" Cut="0.0000000000000000e+00" cType="1" res="8.0776662798598409e-04" rms="4.9497631192207336e-01" purity="4.8316726088523865e-01" nType="-99"/>
          </Node>
        </Node>
        <Node pos="r" depth="1" NCoef="0" IVar="1" Cut="4.5578232407569885e-01" cType="1" res="1.0580743104219437e-01" rms="2.1703027188777924e-01" purity="8.8455647230148315e-01" nType="0">
          <Node pos="l" depth="2" NCoef="0" IVar="-1" Cut="0.0000000000000000e+00" cType="1" res="3.6647811532020569e-02" rms="4.1592991352081299e-01" purity="7.7203649282455444e-01" nType="-99"/>
          <Node pos="r" depth="2" NCoef="0" IVar="12" Cut="3.9523808956146240e+00" cType="1" res="1.2935104966163635e-01" rms="2.0848231017589569e-01" purity="9.3665415048599243e-01" nType="0">
            <Node pos="l" depth="3" NCoef="0" IVar="-1" Cut="0.0000000000000000e+00" cType="1" res="5.2791956812143326e-02" rms="3.1831252574920654e-01" purity="8.8283830881118774e-01" nType="-99"/>
            <Node pos="r" depth="3" NCoef="0" IVar="-1" Cut="0.0000000000000000e+00" cType="1" res="6.8464204668998718e-02" rms="1.9397333264350891e-01" purity="9.6054154634475708e-01" nType="-99"/>
          </Node>
        </Node>
      </Node>
    </BinaryTree>
    <BinaryTree type="DecisionTree" boostWeight="1.0000000000000000e+00" itree="5">
      <Node pos="s" depth="0" NCoef="0" IVar="1" Cut="1.9047619402408600e-01" cType="1" res="2.5352763012051582e-02" rms="2.2588086128234863e-01" purity="5.0000000000000000e-01" nType="0">
        <Node pos="l" depth="1" NCoef="0" IVar="3" Cut="6.6739040613174438e-01" cType="1" res="-1.2350396718829870e-03" rms="2.3289757966995239e-01" purity="3.2379755377769470e-01" nType="0">
          <Node pos="l" depth="2" NCoef="0" IVar="10" Cut="7.0327781140804291e-02" cType="1" res="-9.1390600427985191e-03" rms="2.2620508074760437e-01" purity="2.9316124320030212e-01" nType="0">
            <Node pos="l" depth="3" NCoef="0" IVar="-1" Cut="0.0000000000000000e+00" cType="1" res="-1.2418739497661591e-02" rms="4.7744661569595337e-01" purity="3.9169564843177795e-01" nType="-99"/>
            <Node pos="r" depth="3" NCoef="0" IVar="-1" Cut="0.0000000000000000e+00" cType="1" res="-4.1864678263664246e-02" rms="3.9201903343200684e-01" purity="1.9323164224624634e-01" nType="-99"/>
          </Node>
          <Node pos="r" depth="2" NCoef="0" IVar="-1" Cut="0.0000000000000000e+00" cType="1" res="2.8052598237991333e-02" rms="4.6656006574630737e-01" purity="6.2517708539962769e-01" nType="-99"/>
        </Node>
        <Node pos="r" depth="1" NCoef="0" IVar="1" Cut="3.4467118978500366e-01" cType="1" res="9.0799920260906219e-02" rms="2.1222802996635437e-01" purity="8.6312526464462280e-01" nType="0">
          <Node pos="l" depth="2" NCoef="0" IVar="-1" Cut="0.0000000000000000e+00" cType="1" res="2.0515063777565956e-02" rms="4.6689444780349731e-01" purity="6.7137891054153442e-01" nType="-99"/>
          <Node pos="r" depth="2" NCoef="0" IVar="10" Cut="8.6004093289375305e-02" cType="1" res="1.0694738477468491e-01" rms="2.0298565924167633e-01" purity="9.1741240024566650e-01" nType="0">
            <Node pos="l" depth="3" NCoef="0" IVar="-1" Cut="0.0000000000000000e+00" cType="1" res="4.3256040662527084e-02" rms="3.6605885624885559e-01" purity="8.3900427818298340e-01" nType="-99"/>
            <Node pos="r" depth="3" NCoef="0" IVar="-1" Cut="0.0000000000000000e+00" cType="1" res="6.2373332679271698e-02" rms="2.1526977419853210e-01" purity="9.5053809881210327e-01" nType="-99"/>
          </Node>
        </Node>
      </Node>
    </BinaryTree>
    <BinaryTree type="DecisionTree" boostWeight="1.0000000000000000e+00" itree="6">
      <Node pos="s" depth="0" NCoef="0" IVar="1" Cut="2.3809523880481720e-01" cType="1" res="2.4508442729711533e-02" rms="2.2233530879020691e-01" purity="5.0000000000000000e-01" nType="0">
        <Node pos="l" depth="1" NCoef="0" IVar="10" Cut="4.2288400232791901e-02" cType="1" res="1.6841409960761666e-03" rms="2.3099629580974579e-01" purity="3.3307114243507385e-01" nType="0">
          <Node pos="l" depth="2" NCoef="0" IVar="3" Cut="1.4212907850742340e-01" cType="1" res="3.9739217609167099e-02" rms="2.4714155495166779e-01" purity="5.4015588760375977e-01" nType="0">
            <Node pos="l" depth="3" NCoef="0" IVar="-1" Cut="0.0000000000000000e+00" cType="1" res="-1.1055125854909420e-02" rms="4.9227216839790344e-01" purity="4.3636223673820496e-01" nType="-99"/>
            <Node pos="r" depth="3" NCoef="0" IVar="-1" Cut="0.0000000000000000e+00" cType="1" res="2.0126402378082275e-02" rms="4.7358089685440063e-01" purity="6.3433283567428589e-01" nType="-99"/>
          </Node>
          <Node pos="r" depth="2" NCoef="0" IVar="1" Cut="1.0203979909420013e-01" cType="1" res="-1.1971106752753258e-02" rms="2.2334533929824829e-01" purity="2.5876322388648987e-01" nType="0">
            <Node pos="l" depth="3" NCoef="0" IVar="-1" Cut="0.0000000000000000e+00" cType="1" res="-3.1889654695987701e-02" rms="4.1704848408699036e-01" purity="2.2891730070114136e-01" nType="-99"/>
            <Node pos="r" depth="3" NCoef="0" IVar="-1" Cut="0.0000000000000000e+00" cType="1" res="4.5001294347457588e-04" rms="4.9203628301620483e-01" purity="4.6823254227638245e-01" nType="-99"/>
          </Node>
        </Node>
        <Node pos="r" depth="1" NCoef="0" IVar="1" Cut="4.9206349253654480e-01" cType="1" res="8.7318539619445801e-02" rms="2.0245671272277832e-01" purity="8.8455647230148315e-01" nType="0">
          <Node pos="l" depth="2" NCoef="0" IVar="12" Cut="6.9523811340332031e+00" cType="1" res="5.3896211087703705e-02" rms="2.3371705412864685e-01" purity="7.8659594058990479e-01" nType="0">
            <Node pos="l" depth="3" NCoef="0" IVar="-1" Cut="0.0000000000000000e+00" cType="1" res="1.8916551023721695e-02" rms="4.4222056865692139e-01" purity="7.2394078969955444e-01" nType="-99"/>
            <Node pos="r" depth="3" NCoef="0" IVar="-1" Cut="0.0000000000000000e+00" cType="1" res="4.5839656144380569e-02" rms="3.5043272376060486e-01" purity="8.5087990760803223e-01" nType="-99"/>
          </Node>
          <Node pos="r" depth="2" NCoef="0" IVar="12" Cut="3.9523808956146240e+00" cType="1" res="1.1048038303852081e-01" rms="1.8896558880805969e-01" purity="9.4135212898254395e-01" nType="0">
            <Node pos="l" depth="3" NCoef="0" IVar="-1" Cut="0.0000000000000000e+00" cType="1" res="4.7167073935270309e-02" rms="3.0919745564460754e-01" purity="8.9008116722106934e-01" nType="-99"/>
            <Node pos="r" depth="3" NCoef="0" IVar="-1" Cut="0.0000000000000000e+00" cType="1" res="6.2642782926559448e-02" rms="1.8260057270526886e-01" purity="9.6523857116699219e-01" nType="-99"/>
          </Node>
        </Node>
      </Node>
    </BinaryTree>
    <BinaryTree type="DecisionTree" boostWeight="1.0000000000000000e+00" itree="7">
      <Node pos="s" depth="0" NCoef="0" IVar="1" Cut="1.9047619402408600e-01" cType="1" res="2.3889556527137756e-02" rms="2.1963872015476227e-01" purity="5.0000000000000000e-01" nType="0">
        <Node pos="l" depth="1" NCoef="0" IVar="3" Cut="6.1971968412399292e-01" cType="1" res="3.1669305171817541e-03" rms="2.3057657480239868e-01" purity="3.2379755377769470e-01" nType="0">
          <Node pos="l" depth="2" NCoef="0" IVar="12" Cut="2.8571429252624512e+00" cType="1" res="-5.4109492339193821e-03" rms="2.2282955050468445e-01" purity="2.8687080740928650e-01" nType="0">
            <Node pos="l" depth="3" NCoef="0" IVar="-1" Cut="0.0000000000000000e+00" cType="1" res="-2.2769954521209002e-03" rms="4.8357579112052917e-01" purity="4.2983725666999817e-01" nType="-99"/>
            <Node pos="r" depth="3" NCoef="0" IVar="-1" Cut="0.0000000000000000e+00" cType="1" res="-3.1643789261579514e-02" rms="4.1405615210533142e-01" purity="2.3469468951225281e-01" nType="-99"/>
          </Node>
          <Node pos="r" depth="2" NCoef="0" IVar="-1" Cut="0.0000000000000000e+00" cType="1" res="1.8431512638926506e-02" rms="4.7270271182060242e-01" purity="5.7141196727752686e-01" nType="-99"/>
        </Node>
        <Node pos="r" depth="1" NCoef="0" IVar="1" Cut="3.0612245202064514e-01" cType="1" res="7.5356185436248779e-02" rms="2.0051154494285583e-01" purity="8.6312526464462280e-01" nType="0">
          <Node pos="l" depth="2" NCoef="0" IVar="-1" Cut="0.0000000000000000e+00" cType="1" res="1.2549834325909615e-02" rms="4.7557798027992249e-01" purity="6.4468997716903687e-01" nType="-99"/>
          <Node pos="r" depth="2" NCoef="0" IVar="10" Cut="1.2800543010234833e-01" cType="1" res="8.6042508482933044e-02" rms="1.9137929379940033e-01" purity="9.0748935937881470e-01" nType="0">
            <Node pos="l" depth="3" NCoef="0" IVar="-1" Cut="0.0000000000000000e+00" cType="1" res="4.0463235229253769e-02" rms="3.3896651864051819e-01" purity="8.6211395263671875e-01" nType="-99"/>
            <Node pos="r" depth="3" NCoef="0" IVar="-1" Cut="0.0000000000000000e+00" cType="1" res="5.9291176497936249e-02" rms="1.8935377895832062e-01" purity="9.6183246374130249e-01" nType="-99"/>
          </Node>
        </Node>
      </Node>
    </BinaryTree>
    <BinaryTree type="DecisionTree" boostWeight="1.0000000000000000e+00" itree="8">
      <Node pos="s" depth="0" NCoef="0" IVar="1" Cut="1.4285714924335480e-01" cType="1" res="2.2794470191001892e-02" rms="2.1730524301528931e-01" purity="5.0000000000000000e-01" nType="0">
        <Node pos="l" depth="1" NCoef="0" IVar="12" Cut="4.2857141494750977e+00" cType="1" res="3.7586304824799299e-03" rms="2.3030380904674530e-01" purity="3.1726717948913574e-01" nType="0">
          <Node pos="l" depth="2" NCoef="0" IVar="8" Cut="3.6865267902612686e-02" cType="1" res="1.9763460382819176e-02" rms="2.8232663869857788e-01" purity="4.1046234965324402e-01" nType="0">
            <Node pos="l" depth="3" NCoef="0" IVar="-1" Cut="0.0000000000000000e+00" cType="1" res="2.0403306931257248e-02" rms="4.7016456723213196e-01" purity="5.8836281299591064e-01" nType="-99"/>
            <Node pos="r" depth="3" NCoef="0" IVar="-1" Cut="0.0000000000000000e+00" cType="1" res="-1.0018188506364822e-02" rms="4.6720150113105774e-01" purity="3.6536228656768799e-01" nType="-99"/>
          </Node>
          <Node pos="r" depth="2" NCoef="0" IVar="10" Cut="7.9226553440093994e-02" cType="1" res="-2.7044100686907768e-02" rms="2.0178128778934479e-01" purity="2.1462044119834900e-01" nType="0">
            <Node pos="l" depth="3" NCoef="0" IVar="-1" Cut="0.0000000000000000e+00" cType="1" res="-2.1560981869697571e-02" rms="4.4162783026695251e-01" purity="2.9335236549377441e-01" nType="-99"/>
            <Node pos="r" depth="3" NCoef="0" IVar="-1" Cut="0.0000000000000000e+00" cType="1" res="-4.3557200580835342e-02" rms="3.5155344009399414e-01" purity="1.4716550707817078e-01" nType="-99"/>
          </Node>
        </Node>
        <Node pos="r" depth="1" NCoef="0" IVar="1" Cut="3.4693878889083862e-01" cType="1" res="6.5470762550830841e-02" rms="1.9911350309848785e-01" purity="8.3681643009185791e-01" nType="0">
          <Node pos="l" depth="2" NCoef="0" IVar="-1" Cut="0.0000000000000000e+00" cType="1" res="1.3794453814625740e-02" rms="4.7290813922882080e-01" purity="6.2683373689651489e-01" nType="-99"/>
          <Node pos="r" depth="2" NCoef="0" IVar="12" Cut="3.9523808956146240e+00" cType="1" res="8.0590598285198212e-02" rms="1.8328721821308136e-01" purity="9.1802382469177246e-01" nType="0">
            <Node pos="l" depth="3" NCoef="0" IVar="-1" Cut="0.0000000000000000e+00" cType="1" res="3.5319350659847260e-02" rms="3.3811190724372864e-01" purity="8.6267018318176270e-01" nType="-99"/>
            <Node pos="r" depth="3" NCoef="0" IVar="-1" Cut="0.0000000000000000e+00" cType="1" res="5.2420593798160553e-02" rms="2.3433522880077362e-01" purity="9.3949276208877563e-01" nType="-99"/>
          </Node>
        </Node>
      </Node>
    </BinaryTree>
    <BinaryTree type="DecisionTree" boostWeight="1.0000000000000000e+00" itree="9">
      <Node pos="s" depth="0" NCoef="0" IVar="1" Cut="1.4285714924335480e-01" cType="1" res="2.1894296631217003e-02" rms="2.1541093289852142e-01" purity="5.0000000000000000e-01" nType="0">
        <Node pos="l" depth="1" NCoef="0" IVar="10" Cut="8.3789721131324768e-02" cType="1" res="4.9684350378811359e-03" rms="2.2950302064418793e-01" purity="3.1726717948913574e-01" nType="0">
          <Node pos="l" depth="2" NCoef="0" IVar="0" Cut="2.5000000000000000e+01" cType="1" res="-2.7266100049018860e-02" rms="4.6860304474830627e-01" purity="3.9834445714950562e-01" nType="0">
            <Node pos="l" depth="3" NCoef="0" IVar="-1" Cut="0.0000000000000000e+00" cType="1" res="1.5083283185958862e-02" rms="4.7730916738510132e-01" purity="5.2190321683883667e-01" nType="-99"/>
            <Node pos="r" depth="3" NCoef="0" IVar="-1" Cut="0.0000000000000000e+00" cType="1" res="-1.7008354887366295e-02" rms="4.5501914620399475e-01" purity="3.3205938339233398e-01" nType="-99"/>
          </Node>
          <Node pos="r" depth="2" NCoef="0" IVar="12" Cut="4.2857141494750977e+00" cType="1" res="-2.6806395500898361e-02" rms="2.1767653524875641e-01" purity="1.7678289115428925e-01" nType="0">
            <Node pos="l" depth="3" NCoef="0" IVar="-1" Cut="0.0000000000000000e+00" cType="1" res="-2.4048192426562309e-02" rms="4.2264443635940552e-01" purity="2.3718646168708801e-01" nType="-99"/>
            <Node pos="r" depth="3" NCoef="0" IVar="-1" Cut="0.0000000000000000e+00" cType="1" res="-4.1122186928987503e-02" rms="3.4813156723976135e-01" purity="1.4361514151096344e-01" nType="-99"/>
          </Node>
        </Node>
        <Node pos="r" depth="1" NCoef="0" IVar="1" Cut="3.8775509595870972e-01" cType="1" res="5.9987977147102356e-02" rms="1.9571962952613831e-01" purity="8.3681643009185791e-01" nType="0">
          <Node pos="l" depth="2" NCoef="0" IVar="14" Cut="6.2079122290015221e-03" cType="1" res="3.6915682256221771e-02" rms="2.7700990438461304e-01" purity="6.5414762496948242e-01" nType="0">
            <Node pos="l" depth="3" NCoef="0" IVar="-1" Cut="0.0000000000000000e+00" cType="1" res="2.3288190364837646e-02" rms="4.4477018713951111e-01" purity="7.0005279779434204e-01" nType="-99"/>
            <Node pos="r" depth="3" NCoef="0" IVar="-1" Cut="0.0000000000000000e+00" cType="1" res="3.2815393060445786e-03" rms="4.7749608755111694e-01" purity="5.9712749719619751e-01" nType="-99"/>
          </Node>
          <Node pos="r" depth="2" NCoef="0" IVar="10" Cut="8.6004093289375305e-02" cType="1" res="7.6078459620475769e-02" rms="1.7653504014015198e-01" purity="9.2642229795455933e-01" nType="0">
            <Node pos="l" depth="3" NCoef="0" IVar="-1" Cut="0.0000000000000000e+00" cType="1" res="3.2418735325336456e-02" rms="3.5454463958740234e-01" purity="8.5038238763809204e-01" nType="-99"/>
            <Node pos="r" depth="3" NCoef="0" IVar="-1" Cut="0.0000000000000000e+00" cType="1" res="5.2671872079372406e-02" rms="2.0401167869567871e-01" purity="9.5592689514160156e-01" nType="-99"/>
          </Node>
        </Node>
      </Node>
    </BinaryTree>
    <BinaryTree type="DecisionTree" boostWeight="1.0000000000000000e+00" itree="10">
      <Node pos="s" depth="0" NCoef="0" IVar="1" Cut="2.8571429848670959e-01" cType="1" res="2.0409619435667992e-02" rms="2.1351450681686401e-01" purity="5.0000000000000000e-01" nType="0">
        <Node pos="l" depth="1" NCoef="0" IVar="3" Cut="6.6739040613174438e-01" cType="1" res="6.2586469575762749e-03" rms="2.2696742415428162e-01" purity="3.4353089332580566e-01" nType="0">
          <Node pos="l" depth="2" NCoef="0" IVar="10" Cut="3.5557433962821960e-02" cType="1" res="3.0820001848042011e-04" rms="2.2141912579536438e-01" purity="3.1412264704704285e-01" nType="0">
            <Node pos="l" depth="3" NCoef="0" IVar="-1" Cut="0.0000000000000000e+00" cType="1" res="6.0616484843194485e-03" rms="4.9078744649887085e-01" purity="5.2437311410903931e-01" nType="-99"/>
            <Node pos="r" depth="3" NCoef="0" IVar="-1" Cut="0.0000000000000000e+00" cType="1" res="-2.1330222487449646e-02" rms="4.2615342140197754e-01" purity="2.7005288004875183e-01" nType="-99"/>
          </Node>
          <Node pos="r" depth="2" NCoef="0" IVar="-1" Cut="0.0000000000000000e+00" cType="1" res="2.5143161416053772e-02" rms="4.5893412828445435e-01" purity="6.3600307703018188e-01" nType="-99"/>
        </Node>
        <Node pos="r" depth="1" NCoef="0" IVar="1" Cut="5.5782312154769897e-01" cType="1" res="6.4094670116901398e-02" rms="1.7996601760387421e-01" purity="9.0127927064895630e-01" nType="0">
          <Node pos="l" depth="2" NCoef="0" IVar="12" Cut="6.9523811340332031e+00" cType="1" res="4.3563198298215866e-02" rms="2.1291309595108032e-01" purity="8.3519488573074341e-01" nType="0">
            <Node pos="l" depth="3" NCoef="0" IVar="-1" Cut="0.0000000000000000e+00" cType="1" res="1.5497856773436069e-02" rms="4.0977829694747925e-01" purity="7.7698123455047607e-01" nType="-99"/>
            <Node pos="r" depth="3" NCoef="0" IVar="-1" Cut="0.0000000000000000e+00" cType="1" res="4.2419340461492538e-02" rms="2.9813829064369202e-01" purity="8.9708352088928223e-01" nType="-99"/>
          </Node>
          <Node pos="r" depth="2" NCoef="0" IVar="12" Cut="3.9523808956146240e+00" cType="1" res="8.2126215100288391e-02" rms="1.6280277073383331e-01" purity="9.4814354181289673e-01" nType="0">
            <Node pos="l" depth="3" NCoef="0" IVar="-1" Cut="0.0000000000000000e+00" cType="1" res="3.8891736418008804e-02" rms="2.9513755440711975e-01" purity="9.0066146850585938e-01" nType="-99"/>
            <Node pos="r" depth="3" NCoef="0" IVar="-1" Cut="0.0000000000000000e+00" cType="1" res="5.5405464023351669e-02" rms="1.6295233368873596e-01" purity="9.7259461879730225e-01" nType="-99"/>
          </Node>
        </Node>
      </Node>
    </BinaryTree>
    <BinaryTree type="DecisionTree" boostWeight="1.0000000000000000e+00" itree="11">
      <Node pos="s" depth="0" NCoef="0" IVar="1" Cut="1.4285714924335480e-01" cType="1" res="1.9854245707392693e-02" rms="2.1209847927093506e-01" purity="5.0000000000000000e-01" nType="0">
        <Node pos="l" depth="1" NCoef="0" IVar="8" Cut="5.6821577250957489e-02" cType="1" res="6.2205991707742214e-03" rms="2.2780641913414001e-01" purity="3.1726717948913574e-01" nType="0">
          <Node pos="l" depth="2" NCoef="0" IVar="0" Cut="2.5000000000000000e+01" cType="1" res="1.2217769399285316e-02" rms="4.6526485681533813e-01" purity="4.3640354275703430e-01" nType="0">
            <Node pos="l" depth="3" NCoef="0" IVar="-1" Cut="0.0000000000000000e+00" cType="1" res="1.8611362203955650e-02" rms="4.6527329087257385e-01" purity="5.3769505023956299e-01" nType="-99"/>
            <Node pos="r" depth="3" NCoef="0" IVar="-1" Cut="0.0000000000000000e+00" cType="1" res="-8.3597414195537567e-03" rms="4.5830622315406799e-01" purity="3.6744898557662964e-01" nType="-99"/>
          </Node>
          <Node pos="r" depth="2" NCoef="0" IVar="12" Cut="4.2857141494750977e+00" cType="1" res="-7.3762247338891029e-03" rms="2.1332095563411713e-01" purity="2.5182458758354187e-01" nType="0">
            <Node pos="l" depth="3" NCoef="0" IVar="-1" Cut="0.0000000000000000e+00" cType="1" res="-1.1384748853743076e-02" rms="4.5914489030838013e-01" purity="3.3766099810600281e-01" nType="-99"/>
            <Node pos="r" depth="3" NCoef="0" IVar="-1" Cut="0.0000000000000000e+00" cType="1" res="-3.3467337489128113e-02" rms="3.7381353974342346e-01" purity="1.7592352628707886e-01" nType="-99"/>
          </Node>
        </Node>
        <Node pos="r" depth="1" NCoef="0" IVar="1" Cut="4.6938776969909668e-01" cType="1" res="5.0770904868841171e-02" rms="1.8996672332286835e-01" purity="8.3681643009185791e-01" nType="0">
          <Node pos="l" depth="2" NCoef="0" IVar="11" Cut="1.4142857551574707e+01" cType="1" res="3.0367685481905937e-02" rms="2.3517385125160217e-01" purity="7.0088964700698853e-01" nType="0">
            <Node pos="l" depth="3" NCoef="0" IVar="-1" Cut="0.0000000000000000e+00" cType="1" res="6.5917968750000000e-03" rms="4.5348882675170898e-01" purity="6.6093778610229492e-01" nType="-99"/>
            <Node pos="r" depth="3" NCoef="0" IVar="-1" Cut="0.0000000000000000e+00" cType="1" res="3.0627708882093430e-02" rms="4.0091258287429810e-01" purity="7.6489156484603882e-01" nType="-99"/>
          </Node>
          <Node pos="r" depth="2" NCoef="0" IVar="3" Cut="9.4634346663951874e-02" cType="1" res="6.8632043898105621e-02" rms="1.6342988610267639e-01" purity="9.3872427940368652e-01" nType="0">
            <Node pos="l" depth="3" NCoef="0" IVar="-1" Cut="0.0000000000000000e+00" cType="1" res="3.3766798675060272e-02" rms="2.9304403066635132e-01" purity="9.0039247274398804e-01" nType="-99"/>
            <Node pos="r" depth="3" NCoef="0" IVar="-1" Cut="0.0000000000000000e+00" cType="1" res="4.8906732350587845e-02" rms="2.0872932672500610e-01" purity="9.5292949676513672e-01" nType="-99"/>
          </Node>
        </Node>
      </Node>
    </BinaryTree>
    <BinaryTree type="DecisionTree" boostWeight="1.0000000000000000e+00" itree="12">
      <Node pos="s" depth="0" NCoef="0" IVar="1" Cut="1.4285714924335480e-01" cType="1" res="1.8769454210996628e-02" rms="2.1082182228565216e-01" purity="5.0000000000000000e-01" nType="0">
        <Node pos="l" depth="1" NCoef="0" IVar="10" Cut="8.3789721131324768e-02" cType="1" res="6.4910263754427433e-03" rms="2.2711965441703796e-01" purity="3.1726717948913574e-01" nType="0">
          <Node pos="l" depth="2" NCoef="0" IVar="0" Cut="2.3000000000000000e+01" cType="1" res="-1.5848835930228233e-02" rms="4.6508121490478516e-01" purity="3.9834445714950562e-01" nType="0">
            <Node pos="l" depth="3" NCoef="0" IVar="-1" Cut="0.0000000000000000e+00" cType="1" res="1.7637342214584351e-02" rms="4.7368165850639343e-01" purity="5.4288488626480103e-01" nType="-99"/>
            <Node pos="r" depth="3" NCoef="0" IVar="-1" Cut="0.0000000000000000e+00" cType="1" res="-1.1417672969400883e-02" rms="4.5629906654357910e-01" purity="3.4445601701736450e-01" nType="-99"/>
          </Node>
          <Node pos="r" depth="2" NCoef="0" IVar="12" Cut="5.7142858505249023e+00" cType="1" res="-2.0139886066317558e-02" rms="2.1486060321331024e-01" purity="1.7678289115428925e-01" nType="0">
            <Node pos="l" depth="3" NCoef="0" IVar="-1" Cut="0.0000000000000000e+00" cType="1" res="-2.2108213976025581e-02" rms="4.1071429848670959e-01" purity="2.2061695158481598e-01" nType="-99"/>
            <Node pos="r" depth="3" NCoef="0" IVar="-1" Cut="0.0000000000000000e+00" cType="1" res="-3.6485075950622559e-02" rms="3.4097513556480408e-01" purity="1.3710027933120728e-01" nType="-99"/>
          </Node>
        </Node>
        <Node pos="r" depth="1" NCoef="0" IVar="1" Cut="5.1020407676696777e-01" cType="1" res="4.6691879630088806e-02" rms="1.8778264522552490e-01" purity="8.3681643009185791e-01" nType="0">
          <Node pos="l" depth="2" NCoef="0" IVar="12" Cut="7.1428570747375488e+00" cType="1" res="2.9840232804417610e-02" rms="2.3054701089859009e-01" purity="7.1961200237274170e-01" nType="0">
            <Node pos="l" depth="3" NCoef="0" IVar="-1" Cut="0.0000000000000000e+00" cType="1" res="6.6060391254723072e-03" rms="4.4703418016433716e-01" purity="6.7698162794113159e-01" nType="-99"/>
            <Node pos="r" depth="3" NCoef="0" IVar="-1" Cut="0.0000000000000000e+00" cType="1" res="2.9239345341920853e-02" rms="3.8482135534286499e-01" purity="7.8359526395797729e-01" nType="-99"/>
          </Node>
          <Node pos="r" depth="2" NCoef="0" IVar="12" Cut="3.9523808956146240e+00" cType="1" res="6.4947679638862610e-02" rms="1.5798418223857880e-01" purity="9.4343543052673340e-01" nType="0">
            <Node pos="l" depth="3" NCoef="0" IVar="-1" Cut="0.0000000000000000e+00" cType="1" res="3.1957063823938370e-02" rms="3.0453982949256897e-01" purity="8.9325743913650513e-01" nType="-99"/>
            <Node pos="r" depth="3" NCoef="0" IVar="-1" Cut="0.0000000000000000e+00" cType="1" res="5.0334841012954712e-02" rms="1.7671623826026917e-01" purity="9.6738451719284058e-01" nType="-99"/>
          </Node>
        </Node>
      </Node>
    </BinaryTree>
    <BinaryTree type="DecisionTree" boostWeight="1.0000000000000000e+00" itree="13">
      <Node pos="s" depth="0" NCoef="0" IVar="1" Cut="1.4285714924335480e-01" cType="1" res="1.7537128180265427e-02" rms="2.0960958302021027e-01" purity="5.0000000000000000e-01" nType="0">
        <Node pos="l" depth="1" NCoef="0" IVar="10" Cut="4.2288400232791901e-02" cType="1" res="6.2796403653919697e-03" rms="2.2628001868724823e-01" purity="3.1726717948913574e-01" nType="0">
          <Node pos="l" depth="2" NCoef="0" IVar="10" Cut="2.6477500796318054e-02" cType="1" res="3.3387478440999985e-02" rms="2.4537648260593414e-01" purity="5.3628510236740112e-01" nType="0">
            <Node pos="l" depth="3" NCoef="0" IVar="-1" Cut="0.0000000000000000e+00" cType="1" res="2.0297676324844360e-02" rms="4.6924990415573120e-01" purity="6.1881643533706665e-01" nType="-99"/>
            <Node pos="r" depth="3" NCoef="0" IVar="-1" Cut="0.0000000000000000e+00" cType="1" res="-6.8893302232027054e-03" rms="4.8438647389411926e-01" purity="4.5999044179916382e-01" nType="-99"/>
          </Node>
          <Node pos="r" depth="2" NCoef="0" IVar="12" Cut="2.8571429252624512e+00" cType="1" res="-3.9089540950953960e-03" rms="2.1780115365982056e-01" purity="2.3494836688041687e-01" nType="0">
            <Node pos="l" depth="3" NCoef="0" IVar="-1" Cut="0.0000000000000000e+00" cType="1" res="7.7021867036819458e-04" rms="4.7263389825820923e-01" purity="3.5773056745529175e-01" nType="-99"/>
            <Node pos="r" depth="3" NCoef="0" IVar="-1" Cut="0.0000000000000000e+00" cType="1" res="-2.3106770589947701e-02" rms="3.9896684885025024e-01" purity="2.0880758762359619e-01" nType="-99"/>
          </Node>
        </Node>
        <Node pos="r" depth="1" NCoef="0" IVar="1" Cut="3.0612245202064514e-01" cType="1" res="4.3126352131366730e-02" rms="1.8600724637508392e-01" purity="8.3681643009185791e-01" nType="0">
          <Node pos="l" depth="2" NCoef="0" IVar="-1" Cut="0.0000000000000000e+00" cType="1" res="6.4742458052933216e-03" rms="4.7948938608169556e-01" purity="5.9739822149276733e-01" nType="-99"/>
          <Node pos="r" depth="2" NCoef="0" IVar="10" Cut="8.6004093289375305e-02" cType="1" res="5.0511281937360764e-02" rms="1.6989341378211975e-01" purity="9.0748935937881470e-01" nType="0">
            <Node pos="l" depth="3" NCoef="0" IVar="-1" Cut="0.0000000000000000e+00" cType="1" res="2.0096214488148689e-02" rms="3.7237524986267090e-01" purity="8.2660311460494995e-01" nType="-99"/>
            <Node pos="r" depth="3" NCoef="0" IVar="-1" Cut="0.0000000000000000e+00" cType="1" res="4.3100006878376007e-02" rms="2.2371011972427368e-01" purity="9.4451308250427246e-01" nType="-99"/>
          </Node>
        </Node>
      </Node>
    </BinaryTree>
    <BinaryTree type="DecisionTree" boostWeight="1.0000000000000000e+00" itree="14">
      <Node pos="s" depth="0" NCoef="0" IVar="1" Cut="9.5238097012042999e-02" cType="1" res="1.6933122649788857e-02" rms="2.0868764817714691e-01" purity="5.0000000000000000e-01" nType="0">
        <Node pos="l" depth="1" NCoef="0" IVar="8" Cut="3.7902515381574631e-02" cType="1" res="6.8621141836047173e-03" rms="2.2725337743759155e-01" purity="3.1467625498771667e-01" nType="0">
          <Node pos="l" depth="2" NCoef="0" IVar="-1" Cut="0.0000000000000000e+00" cType="1" res="1.3458540663123131e-02" rms="4.6465474367141724e-01" purity="5.3445559740066528e-01" nType="-99"/>
          <Node pos="r" depth="2" NCoef="0" IVar="12" Cut="4.2857141494750977e+00" cType="1" res="-5.1312911091372371e-04" rms="2.1845127642154694e-01" purity="2.7299562096595764e-01" nType="0">
            <Node pos="l" depth="3" NCoef="0" IVar="-1" Cut="0.0000000000000000e+00" cType="1" res="-5.8371992781758308e-03" rms="4.6319741010665894e-01" purity="3.6352351307868958e-01" nType="-99"/>
            <Node pos="r" depth="3" NCoef="0" IVar="-1" Cut="0.0000000000000000e+00" cType="1" res="-2.7631215751171112e-02" rms="3.7485444545745850e-01" purity="1.7947971820831299e-01" nType="-99"/>
          </Node>
        </Node>
        <Node pos="r" depth="1" NCoef="0" IVar="1" Cut="3.5374805331230164e-01" cType="1" res="3.3328112214803696e-02" rms="1.7303408682346344e-01" purity="8.0169582366943359e-01" nType="0">
          <Node pos="l" depth="2" NCoef="0" IVar="14" Cut="6.2102708034217358e-03" cType="1" res="1.6289334744215012e-02" rms="2.0392771065235138e-01" purity="5.7393825054168701e-01" nType="0">
            <Node pos="l" depth="3" NCoef="0" IVar="-1" Cut="0.0000000000000000e+00" cType="1" res="1.5450219623744488e-02" rms="4.5953714847564697e-01" purity="6.2295943498611450e-01" nType="-99"/>
            <Node pos="r" depth="3" NCoef="0" IVar="-1" Cut="0.0000000000000000e+00" cType="1" res="-2.6982252020388842e-03" rms="4.7809252142906189e-01" purity="5.1477617025375366e-01" nType="-99"/>
          </Node>
          <Node pos="r" depth="2" NCoef="0" IVar="12" Cut="5.4285712242126465e+00" cType="1" res="4.7449879348278046e-02" rms="1.6397896409034729e-01" purity="9.1946977376937866e-01" nType="0">
            <Node pos="l" depth="3" NCoef="0" IVar="-1" Cut="0.0000000000000000e+00" cType="1" res="2.6326676830649376e-02" rms="3.0645290017127991e-01" purity="8.8844192028045654e-01" nType="-99"/>
            <Node pos="r" depth="3" NCoef="0" IVar="-1" Cut="0.0000000000000000e+00" cType="1" res="4.4820208102464676e-02" rms="2.0599158108234406e-01" purity="9.5401513576507568e-01" nType="-99"/>
          </Node>
        </Node>
      </Node>
    </BinaryTree>
    <BinaryTree type="DecisionTree" boostWeight="1.0000000000000000e+00" itree="15">
      <Node pos="s" depth="0" NCoef="0" IVar="1" Cut="9.5238097012042999e-02" cType="1" res="1.6399363055825233e-02" rms="2.0800337195396423e-01" purity="5.0000000000000000e-01" nType="0">
        <Node pos="l" depth="1" NCoef="0" IVar="10" Cut="8.3789721131324768e-02" cType="1" res="7.4709393084049225e-03" rms="2.2691057622432709e-01" purity="3.1467625498771667e-01" nType="0">
          <Node pos="l" depth="2" NCoef="0" IVar="0" Cut="3.0000000000000000e+01" cType="1" res="-8.9715803042054176e-03" rms="4.6181148290634155e-01" purity="3.9786812663078308e-01" nType="0">
            <Node pos="l" depth="3" NCoef="0" IVar="-1" Cut="0.0000000000000000e+00" cType="1" res="9.0574212372303009e-03" rms="4.7156378626823425e-01" purity="4.7743579745292664e-01" nType="-99"/>
            <Node pos="r" depth="3" NCoef="0" IVar="-1" Cut="0.0000000000000000e+00" cType="1" res="-1.5682283788919449e-02" rms="4.4189301133155823e-01" purity="3.0168178677558899e-01" nType="-99"/>
          </Node>
          <Node pos="r" depth="2" NCoef="0" IVar="0" Cut="2.2000000000000000e+01" cType="1" res="-1.0388600826263428e-01" rms="3.6841934919357300e-01" purity="1.6750408709049225e-01" nType="0">
            <Node pos="l" depth="3" NCoef="0" IVar="-1" Cut="0.0000000000000000e+00" cType="1" res="-1.4970942400395870e-02" rms="4.1234594583511353e-01" purity="2.2715920209884644e-01" nType="-99"/>
            <Node pos="r" depth="3" NCoef="0" IVar="-1" Cut="0.0000000000000000e+00" cType="1" res="-3.0685331672430038e-02" rms="3.5038048028945923e-01" purity="1.4648273587226868e-01" nType="-99"/>
          </Node>
        </Node>
        <Node pos="r" depth="1" NCoef="0" IVar="1" Cut="5.6916534900665283e-01" cType="1" res="3.0934298411011696e-02" rms="1.7186565697193146e-01" purity="8.0169582366943359e-01" nType="0">
          <Node pos="l" depth="2" NCoef="0" IVar="11" Cut="1.4142857551574707e+01" cType="1" res="1.7760714516043663e-02" rms="1.9099521636962891e-01" purity="6.9531869888305664e-01" nType="0">
            <Node pos="l" depth="3" NCoef="0" IVar="-1" Cut="0.0000000000000000e+00" cType="1" res="3.7461642641574144e-03" rms="4.3233418464660645e-01" purity="6.6804713010787964e-01" nType="-99"/>
            <Node pos="r" depth="3" NCoef="0" IVar="-1" Cut="0.0000000000000000e+00" cType="1" res="2.3531431332230568e-02" rms="3.9083418250083923e-01" purity="7.3930954933166504e-01" nType="-99"/>
          </Node>
          <Node pos="r" depth="2" NCoef="0" IVar="12" Cut="3.9523808956146240e+00" cType="1" res="5.4481063038110733e-02" rms="1.4746138453483582e-01" purity="9.4932973384857178e-01" nType="0">
            <Node pos="l" depth="3" NCoef="0" IVar="-1" Cut="0.0000000000000000e+00" cType="1" res="2.8532465919852257e-02" rms="2.9340782761573792e-01" purity="9.0184235572814941e-01" nType="-99"/>
            <Node pos="r" depth="3" NCoef="0" IVar="-1" Cut="0.0000000000000000e+00" cType="1" res="4.8342015594244003e-02" rms="1.5769372880458832e-01" purity="9.7431904077529907e-01" nType="-99"/>
          </Node>
        </Node>
      </Node>
    </BinaryTree>
    <BinaryTree type="DecisionTree" boostWeight="1.0000000000000000e+00" itree="16">
      <Node pos="s" depth="0" NCoef="0" IVar="1" Cut="2.8571429848670959e-01" cType="1" res="1.5560506843030453e-02" rms="2.0737607777118683e-01" purity="5.0000000000000000e-01" nType="0">
        <Node pos="l" depth="1" NCoef="0" IVar="5" Cut="1.4606222510337830e-01" cType="1" res="8.0911936238408089e-03" rms="2.2372016310691833e-01" purity="3.4353089332580566e-01" nType="0">
          <Node pos="l" depth="2" NCoef="0" IVar="6" Cut="1.3471242785453796e-01" cType="1" res="2.9968155547976494e-02" rms="2.4208536744117737e-01" purity="4.6165227890014648e-01" nType="0">
            <Node pos="l" depth="3" NCoef="0" IVar="-1" Cut="0.0000000000000000e+00" cType="1" res="2.4761317297816277e-02" rms="4.5296436548233032e-01" purity="5.8921098709106445e-01" nType="-99"/>
            <Node pos="r" depth="3" NCoef="0" IVar="-1" Cut="0.0000000000000000e+00" cType="1" res="-4.3813292868435383e-03" rms="4.5036017894744873e-01" purity="3.6186984181404114e-01" nType="-99"/>
          </Node>
          <Node pos="r" depth="2" NCoef="0" IVar="0" Cut="2.1000000000000000e+01" cType="1" res="-5.8391612023115158e-02" rms="4.2954745888710022e-01" purity="2.9835209250450134e-01" nType="0">
            <Node pos="l" depth="3" NCoef="0" IVar="-1" Cut="0.0000000000000000e+00" cType="1" res="1.2859166599810123e-03" rms="4.5796370506286621e-01" purity="3.9367607235908508e-01" nType="-99"/>
            <Node pos="r" depth="3" NCoef="0" IVar="-1" Cut="0.0000000000000000e+00" cType="1" res="-1.7119953408837318e-02" rms="4.2126944661140442e-01" purity="2.7618473768234253e-01" nType="-99"/>
          </Node>
        </Node>
        <Node pos="r" depth="1" NCoef="0" IVar="3" Cut="9.4634346663951874e-02" cType="1" res="3.9066210389137268e-02" rms="1.6743254661560059e-01" purity="9.0127927064895630e-01" nType="0">
          <Node pos="l" depth="2" NCoef="0" IVar="-1" Cut="0.0000000000000000e+00" cType="1" res="1.3991292566061020e-02" rms="3.4046387672424316e-01" purity="8.5248440504074097e-01" nType="-99"/>
          <Node pos="r" depth="2" NCoef="0" IVar="5" Cut="1.6983716189861298e-01" cType="1" res="4.3986454606056213e-02" rms="1.5513952076435089e-01" purity="9.2030531167984009e-01" nType="0">
            <Node pos="l" depth="3" NCoef="0" IVar="-1" Cut="0.0000000000000000e+00" cType="1" res="4.1371550410985947e-02" rms="2.2574755549430847e-01" purity="9.4216430187225342e-01" nType="-99"/>
            <Node pos="r" depth="3" NCoef="0" IVar="-1" Cut="0.0000000000000000e+00" cType="1" res="2.7747631072998047e-02" rms="2.8764888644218445e-01" purity="9.0072816610336304e-01" nType="-99"/>
          </Node>
        </Node>
      </Node>
    </BinaryTree>
    <BinaryTree type="DecisionTree" boostWeight="1.0000000000000000e+00" itree="17">
      <Node pos="s" depth="0" NCoef="0" IVar="1" Cut="9.5238097012042999e-02" cType="1" res="1.4569782651960850e-02" rms="2.0678697526454926e-01" purity="5.0000000000000000e-01" nType="0">
        <Node pos="l" depth="1" NCoef="0" IVar="8" Cut="6.6281110048294067e-02" cType="1" res="7.0289741270244122e-03" rms="2.2616426646709442e-01" purity="3.1467625498771667e-01" nType="0">
          <Node pos="l" depth="2" NCoef="0" IVar="0" Cut="3.2000000000000000e+01" cType="1" res="9.1316634789109230e-03" rms="4.5383897423744202e-01" purity="4.0455019474029541e-01" nType="0">
            <Node pos="l" depth="3" NCoef="0" IVar="-1" Cut="0.0000000000000000e+00" cType="1" res="9.4709591940045357e-03" rms="4.5906630158424377e-01" purity="4.5818096399307251e-01" nType="-99"/>
            <Node pos="r" depth="3" NCoef="0" IVar="-1" Cut="0.0000000000000000e+00" cType="1" res="-1.2571237049996853e-02" rms="4.3656304478645325e-01" purity="3.0191835761070251e-01" nType="-99"/>
          </Node>
          <Node pos="r" depth="2" NCoef="0" IVar="10" Cut="5.6800477206707001e-02" cType="1" res="-6.3969767652451992e-03" rms="2.0928765833377838e-01" purity="2.3608237504959106e-01" nType="0">
            <Node pos="l" depth="3" NCoef="0" IVar="-1" Cut="0.0000000000000000e+00" cType="1" res="-5.9912861324846745e-03" rms="4.7136977314949036e-01" purity="3.7630683183670044e-01" nType="-99"/>
            <Node pos="r" depth="3" NCoef="0" IVar="-1" Cut="0.0000000000000000e+00" cType="1" res="-2.5959504768252373e-02" rms="3.6539983749389648e-01" purity="1.6383364796638489e-01" nType="-99"/>
          </Node>
        </Node>
        <Node pos="r" depth="1" NCoef="0" IVar="3" Cut="9.4634346663951874e-02" cType="1" res="2.6845762506127357e-02" rms="1.6988265514373779e-01" purity="8.0169582366943359e-01" nType="0">
          <Node pos="l" depth="2" NCoef="0" IVar="10" Cut="1.0391764342784882e-01" cType="1" res="1.4588468708097935e-02" rms="1.8930125236511230e-01" purity="7.3407602310180664e-01" nType="0">
            <Node pos="l" depth="3" NCoef="0" IVar="-1" Cut="0.0000000000000000e+00" cType="1" res="-6.9364299997687340e-03" rms="4.4462758302688599e-01" purity="6.3979709148406982e-01" nType="-99"/>
            <Node pos="r" depth="3" NCoef="0" IVar="-1" Cut="0.0000000000000000e+00" cType="1" res="2.4039043113589287e-02" rms="3.0136442184448242e-01" purity="8.4887546300888062e-01" nType="-99"/>
          </Node>
          <Node pos="r" depth="2" NCoef="0" IVar="5" Cut="1.6983716189861298e-01" cType="1" res="3.5828538239002228e-02" rms="1.7349392175674438e-01" purity="8.2984083890914917e-01" nType="0">
            <Node pos="l" depth="3" NCoef="0" IVar="-1" Cut="0.0000000000000000e+00" cType="1" res="3.3946193754673004e-02" rms="2.8896641731262207e-01" purity="8.7980771064758301e-01" nType="-99"/>
            <Node pos="r" depth="3" NCoef="0" IVar="-1" Cut="0.0000000000000000e+00" cType="1" res="1.6781214624643326e-02" rms="3.5488328337669373e-01" purity="7.8968662023544312e-01" nType="-99"/>
          </Node>
        </Node>
      </Node>
    </BinaryTree>
    <BinaryTree type="DecisionTree" boostWeight="1.0000000000000000e+00" itree="18">
      <Node pos="s" depth="0" NCoef="0" IVar="1" Cut="2.8571429848670959e-01" cType="1" res="1.4121145941317081e-02" rms="2.0620274543762207e-01" purity="5.0000000000000000e-01" nType="0">
        <Node pos="l" depth="1" NCoef="0" IVar="3" Cut="6.6739040613174438e-01" cType="1" res="7.9055493697524071e-03" rms="2.2293148934841156e-01" purity="3.4353089332580566e-01" nType="0">
          <Node pos="l" depth="2" NCoef="0" IVar="10" Cut="3.5557433962821960e-02" cType="1" res="3.6875098012387753e-03" rms="2.1830113232135773e-01" purity="3.1412264704704285e-01" nType="0">
            <Node pos="l" depth="3" NCoef="0" IVar="-1" Cut="0.0000000000000000e+00" cType="1" res="6.6588982008397579e-03" rms="4.8644146323204041e-01" purity="5.2437311410903931e-01" nType="-99"/>
            <Node pos="r" depth="3" NCoef="0" IVar="-1" Cut="0.0000000000000000e+00" cType="1" res="-1.2938763014972210e-02" rms="4.2085215449333191e-01" purity="2.7005288004875183e-01" nType="-99"/>
          </Node>
          <Node pos="r" depth="2" NCoef="0" IVar="-1" Cut="0.0000000000000000e+00" cType="1" res="2.0632822066545486e-02" rms="4.5293328166007996e-01" purity="6.3600307703018188e-01" nType="-99"/>
        </Node>
        <Node pos="r" depth="1" NCoef="0" IVar="10" Cut="1.2800543010234833e-01" cType="1" res="3.3780347555875778e-02" rms="1.6530829668045044e-01" purity="9.0127927064895630e-01" nType="0">
          <Node pos="l" depth="2" NCoef="0" IVar="11" Cut="1.3428571701049805e+01" cType="1" res="2.4273185059428215e-02" rms="1.8864795565605164e-01" purity="8.5424870252609253e-01" nType="0">
            <Node pos="l" depth="3" NCoef="0" IVar="-1" Cut="0.0000000000000000e+00" cType="1" res="6.4346469007432461e-03" rms="3.7040403485298157e-01" purity="8.2328110933303833e-01" nType="-99"/>
            <Node pos="r" depth="3" NCoef="0" IVar="-1" Cut="0.0000000000000000e+00" cType="1" res="3.1311824917793274e-02" rms="2.8081247210502625e-01" purity="9.0671902894973755e-01" nType="-99"/>
          </Node>
          <Node pos="r" depth="2" NCoef="0" IVar="1" Cut="6.9388675689697266e-01" cType="1" res="4.5618895441293716e-02" rms="1.2956488132476807e-01" purity="9.5984286069869995e-01" nType="0">
            <Node pos="l" depth="3" NCoef="0" IVar="-1" Cut="0.0000000000000000e+00" cType="1" res="3.2754171639680862e-02" rms="2.4464175105094910e-01" purity="9.3334931135177612e-01" nType="-99"/>
            <Node pos="r" depth="3" NCoef="0" IVar="-1" Cut="0.0000000000000000e+00" cType="1" res="4.8786364495754242e-02" rms="1.3373330235481262e-01" purity="9.8166632652282715e-01" nType="-99"/>
          </Node>
        </Node>
      </Node>
    </BinaryTree>
    <BinaryTree type="DecisionTree" boostWeight="1.0000000000000000e+00" itree="19">
      <Node pos="s" depth="0" NCoef="0" IVar="1" Cut="9.5238097012042999e-02" cType="1" res="1.3842552900314331e-02" rms="2.0573718845844269e-01" purity="5.0000000000000000e-01" nType="0">
        <Node pos="l" depth="1" NCoef="0" IVar="12" Cut="5.7142858505249023e+00" cType="1" res="7.8470343723893166e-03" rms="2.2545780241489410e-01" purity="3.1467625498771667e-01" nType="0">
          <Node pos="l" depth="2" NCoef="0" IVar="2" Cut="2.8162414208054543e-02" cType="1" res="1.5768786892294884e-02" rms="2.6527452468872070e-01" purity="3.8789433240890503e-01" nType="0">
            <Node pos="l" depth="3" NCoef="0" IVar="-1" Cut="0.0000000000000000e+00" cType="1" res="6.9752079434692860e-03" rms="4.6265137195587158e-01" purity="4.4774112105369568e-01" nType="-99"/>
            <Node pos="r" depth="3" NCoef="0" IVar="-1" Cut="0.0000000000000000e+00" cType="1" res="-1.2015772052109241e-02" rms="4.4176748394966125e-01" purity="2.9674288630485535e-01" nType="-99"/>
          </Node>
          <Node pos="r" depth="2" NCoef="0" IVar="8" Cut="6.9816462695598602e-02" cType="1" res="-1.7578056082129478e-02" rms="1.9919882714748383e-01" purity="1.8491189181804657e-01" nType="0">
            <Node pos="l" depth="3" NCoef="0" IVar="-1" Cut="0.0000000000000000e+00" cType="1" res="-1.1714712716639042e-02" rms="4.1115975379943848e-01" purity="2.4862058460712433e-01" nType="-99"/>
            <Node pos="r" depth="3" NCoef="0" IVar="-1" Cut="0.0000000000000000e+00" cType="1" res="-2.8795735910534859e-02" rms="3.4038326144218445e-01" purity="1.3875098526477814e-01" nType="-99"/>
          </Node>
        </Node>
        <Node pos="r" depth="1" NCoef="0" IVar="14" Cut="6.2045967206358910e-03" cType="1" res="2.3602895438671112e-02" rms="1.6831794381141663e-01" purity="8.0169582366943359e-01" nType="0">
          <Node pos="l" depth="2" NCoef="0" IVar="5" Cut="1.8431614339351654e-01" cType="1" res="2.9735360294580460e-02" rms="1.5775719285011292e-01" purity="8.3811682462692261e-01" nType="0">
            <Node pos="l" depth="3" NCoef="0" IVar="-1" Cut="0.0000000000000000e+00" cType="1" res="3.1653780490159988e-02" rms="2.8872165083885193e-01" purity="8.8154351711273193e-01" nType="-99"/>
            <Node pos="r" depth="3" NCoef="0" IVar="-1" Cut="0.0000000000000000e+00" cType="1" res="1.4496042393147945e-02" rms="3.5469770431518555e-01" purity="7.9074764251708984e-01" nType="-99"/>
          </Node>
          <Node pos="r" depth="2" NCoef="0" IVar="10" Cut="1.0139263421297073e-01" cType="1" res="1.6547786071896553e-02" rms="1.9661979377269745e-01" purity="7.4956738948822021e-01" nType="0">
            <Node pos="l" depth="3" NCoef="0" IVar="-1" Cut="0.0000000000000000e+00" cType="1" res="-5.6683137081563473e-03" rms="4.4092208147048950e-01" purity="6.4456236362457275e-01" nType="-99"/>
            <Node pos="r" depth="3" NCoef="0" IVar="-1" Cut="0.0000000000000000e+00" cType="1" res="2.2586250677704811e-02" rms="2.9662704467773438e-01" purity="8.5351467132568359e-01" nType="-99"/>
          </Node>
        </Node>
      </Node>
    </BinaryTree>
    <BinaryTree type="DecisionTree" boostWeight="1.0000000000000000e+00" itree="20">
      <Node pos="s" depth="0" NCoef="0" IVar="1" Cut="2.8571429848670959e-01" cType="1" res="1.3445433229207993e-02" rms="2.0530126988887787e-01" purity="5.0000000000000000e-01" nType="0">
        <Node pos="l" depth="1" NCoef="0" IVar="5" Cut="1.9474962353706360e-01" cType="1" res="8.4695154801011086e-03" rms="2.2234584391117096e-01" purity="3.4353089332580566e-01" nType="0">
          <Node pos="l" depth="2" NCoef="0" IVar="6" Cut="1.3471242785453796e-01" cType="1" res="2.2368639707565308e-02" rms="2.3381742835044861e-01" purity="4.2928054928779602e-01" nType="0">
            <Node pos="l" depth="3" NCoef="0" IVar="-1" Cut="0.0000000000000000e+00" cType="1" res="1.6665959730744362e-02" rms="4.5585939288139343e-01" purity="5.4363298416137695e-01" nType="-99"/>
            <Node pos="r" depth="3" NCoef="0" IVar="-1" Cut="0.0000000000000000e+00" cType="1" res="-5.0509599968791008e-03" rms="4.4323047995567322e-01" purity="3.4202328324317932e-01" nType="-99"/>
          </Node>
          <Node pos="r" depth="2" NCoef="0" IVar="0" Cut="2.3000000000000000e+01" cType="1" res="-5.0706274807453156e-02" rms="4.2364794015884399e-01" purity="2.8520938754081726e-01" nType="0">
            <Node pos="l" depth="3" NCoef="0" IVar="-1" Cut="0.0000000000000000e+00" cType="1" res="-2.0552314817905426e-03" rms="4.4925191998481750e-01" purity="3.5923704504966736e-01" nType="-99"/>
            <Node pos="r" depth="3" NCoef="0" IVar="-1" Cut="0.0000000000000000e+00" cType="1" res="-1.6000300645828247e-02" rms="4.1313910484313965e-01" purity="2.5887537002563477e-01" nType="-99"/>
          </Node>
        </Node>
        <Node pos="r" depth="1" NCoef="0" IVar="10" Cut="8.6004093289375305e-02" cType="1" res="2.9397824779152870e-02" rms="1.6360786557197571e-01" purity="9.0127927064895630e-01" nType="0">
          <Node pos="l" depth="2" NCoef="0" IVar="-1" Cut="0.0000000000000000e+00" cType="1" res="7.7580283395946026e-03" rms="3.7516504526138306e-01" purity="8.1876283884048462e-01" nType="-99"/>
          <Node pos="r" depth="2" NCoef="0" IVar="1" Cut="6.9388675689697266e-01" cType="1" res="3.3780306577682495e-02" rms="1.4261619746685028e-01" purity="9.4062918424606323e-01" nType="0">
            <Node pos="l" depth="3" NCoef="0" IVar="-1" Cut="0.0000000000000000e+00" cType="1" res="2.3516757413744926e-02" rms="2.7781951427459717e-01" purity="9.1021919250488281e-01" nType="-99"/>
            <Node pos="r" depth="3" NCoef="0" IVar="-1" Cut="0.0000000000000000e+00" cType="1" res="4.4672176241874695e-02" rms="1.5084618330001831e-01" purity="9.7632610797882080e-01" nType="-99"/>
          </Node>
        </Node>
      </Node>
    </BinaryTree>
    <BinaryTree type="DecisionTree" boostWeight="1.0000000000000000e+00" itree="21">
      <Node pos="s" depth="0" NCoef="0" IVar="1" Cut="4.7619048506021500e-02" cType="1" res="1.2697599828243256e-02" rms="2.0495735108852386e-01" purity="5.0000000000000000e-01" nType="0">
        <Node pos="l" depth="1" NCoef="0" IVar="10" Cut="8.3789721131324768e-02" cType="1" res="7.9823937267065048e-03" rms="2.2780227661132812e-01" purity="3.1748968362808228e-01" nType="0">
          <Node pos="l" depth="2" NCoef="0" IVar="0" Cut="3.1000000000000000e+01" cType="1" res="1.6960185021162033e-03" rms="4.5782193541526794e-01" purity="4.0075865387916565e-01" nType="0">
            <Node pos="l" depth="3" NCoef="0" IVar="-1" Cut="0.0000000000000000e+00" cType="1" res="8.5473796352744102e-03" rms="4.6770930290222168e-01" purity="4.7232681512832642e-01" nType="-99"/>
            <Node pos="r" depth="3" NCoef="0" IVar="-1" Cut="0.0000000000000000e+00" cType="1" res="-1.2101516127586365e-02" rms="4.3743902444839478e-01" purity="2.9701748490333557e-01" nType="-99"/>
          </Node>
          <Node pos="r" depth="2" NCoef="0" IVar="10" Cut="1.2133917212486267e-01" cType="1" res="-1.9949635490775108e-02" rms="2.4006830155849457e-01" purity="1.6312044858932495e-01" nType="0">
            <Node pos="l" depth="3" NCoef="0" IVar="-1" Cut="0.0000000000000000e+00" cType="1" res="-1.4971211552619934e-02" rms="3.8270688056945801e-01" purity="1.8867436051368713e-01" nType="-99"/>
            <Node pos="r" depth="3" NCoef="0" IVar="-1" Cut="0.0000000000000000e+00" cType="1" res="-2.9260015115141869e-02" rms="3.3867168426513672e-01" purity="1.3694584369659424e-01" nType="-99"/>
          </Node>
        </Node>
        <Node pos="r" depth="1" NCoef="0" IVar="3" Cut="6.1512327194213867e-01" cType="1" res="1.9467098638415337e-02" rms="1.6654184460639954e-01" purity="7.6202529668807983e-01" nType="0">
          <Node pos="l" depth="2" NCoef="0" IVar="10" Cut="1.3788972795009613e-01" cType="1" res="1.5669988468289375e-02" rms="1.7037300765514374e-01" purity="7.3759502172470093e-01" nType="0">
            <Node pos="l" depth="3" NCoef="0" IVar="-1" Cut="0.0000000000000000e+00" cType="1" res="3.1531052663922310e-03" rms="4.0509939193725586e-01" purity="6.7332547903060913e-01" nType="-99"/>
            <Node pos="r" depth="3" NCoef="0" IVar="-1" Cut="0.0000000000000000e+00" cType="1" res="2.8162717819213867e-02" rms="2.5907036662101746e-01" purity="8.6932682991027832e-01" nType="-99"/>
          </Node>
          <Node pos="r" depth="2" NCoef="0" IVar="-1" Cut="0.0000000000000000e+00" cType="1" res="3.3044282346963882e-02" rms="2.7669054269790649e-01" purity="8.9411950111389160e-01" nType="-99"/>
        </Node>
      </Node>
    </BinaryTree>
    <BinaryTree type="DecisionTree" boostWeight="1.0000000000000000e+00" itree="22">
      <Node pos="s" depth="0" NCoef="0" IVar="3" Cut="7.1506118774414062e-01" cType="1" res="1.2284315191209316e-02" rms="2.0450949668884277e-01" purity="5.0000000000000000e-01" nType="0">
        <Node pos="l" depth="1" NCoef="0" IVar="1" Cut="3.8095238804817200e-01" cType="1" res="9.2522501945495605e-03" rms="2.0314303040504456e-01" purity="4.7680801153182983e-01" nType="0">
          <Node pos="l" depth="2" NCoef="0" IVar="0" Cut="1.8000000000000000e+01" cType="1" res="-2.5542937219142914e-02" rms="4.3314906954765320e-01" purity="3.4398403763771057e-01" nType="0">
            <Node pos="l" depth="3" NCoef="0" IVar="-1" Cut="0.0000000000000000e+00" cType="1" res="1.2657315470278263e-02" rms="4.5781686902046204e-01" purity="4.7310727834701538e-01" nType="-99"/>
            <Node pos="r" depth="3" NCoef="0" IVar="-1" Cut="0.0000000000000000e+00" cType="1" res="-8.4236264228820801e-03" rms="4.2928397655487061e-01" purity="3.2929953932762146e-01" nType="-99"/>
          </Node>
          <Node pos="r" depth="2" NCoef="0" IVar="12" Cut="3.9523808956146240e+00" cType="1" res="2.4639988318085670e-02" rms="1.5739031136035919e-01" purity="9.1938745975494385e-01" nType="0">
            <Node pos="l" depth="3" NCoef="0" IVar="-1" Cut="0.0000000000000000e+00" cType="1" res="4.1257562115788460e-03" rms="3.3967128396034241e-01" purity="8.5662937164306641e-01" nType="-99"/>
            <Node pos="r" depth="3" NCoef="0" IVar="-1" Cut="0.0000000000000000e+00" cType="1" res="3.0472012236714363e-02" rms="2.2577293217182159e-01" purity="9.4343167543411255e-01" nType="-99"/>
          </Node>
        </Node>
        <Node pos="r" depth="1" NCoef="0" IVar="-1" Cut="0.0000000000000000e+00" cType="1" res="2.9907995834946632e-02" rms="3.5967522859573364e-01" purity="7.9935961961746216e-01" nType="-99"/>
      </Node>
    </BinaryTree>
    <BinaryTree type="DecisionTree" boostWeight="1.0000000000000000e+00" itree="23">
      <Node pos="s" depth="0" NCoef="0" IVar="14" Cut="5.0036846660077572e-03" cType="1" res="1.1598476208746433e-02" rms="2.0414945483207703e-01" purity="5.0000000000000000e-01" nType="0">
        <Node pos="l" depth="1" NCoef="0" IVar="5" Cut="9.2933200299739838e-02" cType="1" res="2.1780602633953094e-02" rms="2.0067889988422394e-01" purity="5.8225351572036743e-01" nType="0">
          <Node pos="l" depth="2" NCoef="0" IVar="14" Cut="1.9068400142714381e-03" cType="1" res="4.1526895016431808e-02" rms="2.0802377164363861e-01" purity="7.3254501819610596e-01" nType="0">
            <Node pos="l" depth="3" NCoef="0" IVar="-1" Cut="0.0000000000000000e+00" cType="1" res="3.2755073159933090e-02" rms="3.3979246020317078e-01" purity="8.0353635549545288e-01" nType="-99"/>
            <Node pos="r" depth="3" NCoef="0" IVar="-1" Cut="0.0000000000000000e+00" cType="1" res="1.7751632258296013e-02" rms="3.9236587285995483e-01" purity="6.6335165500640869e-01" nType="-99"/>
          </Node>
          <Node pos="r" depth="2" NCoef="0" IVar="1" Cut="4.7619048506021500e-02" cType="1" res="1.5091300010681152e-02" rms="1.9768223166465759e-01" purity="5.3134042024612427e-01" nType="0">
            <Node pos="l" depth="3" NCoef="0" IVar="-1" Cut="0.0000000000000000e+00" cType="1" res="-2.7984434273093939e-03" rms="4.3361654877662659e-01" purity="3.3158046007156372e-01" nType="-99"/>
            <Node pos="r" depth="3" NCoef="0" IVar="-1" Cut="0.0000000000000000e+00" cType="1" res="1.4717206358909607e-02" rms="3.4515276551246643e-01" purity="7.7963966131210327e-01" nType="-99"/>
          </Node>
        </Node>
        <Node pos="r" depth="1" NCoef="0" IVar="1" Cut="4.7619047760963440e-01" cType="1" res="3.4204779658466578e-03" rms="2.2209313511848450e-01" purity="4.3852165341377258e-01" nType="0">
          <Node pos="l" depth="2" NCoef="0" IVar="10" Cut="3.2863683998584747e-02" cType="1" res="-5.4518698016181588e-04" rms="2.3224730789661407e-01" purity="3.3929386734962463e-01" nType="0">
            <Node pos="l" depth="3" NCoef="0" IVar="-1" Cut="0.0000000000000000e+00" cType="1" res="3.0301583465188742e-03" rms="4.8806732892990112e-01" purity="4.9806788563728333e-01" nType="-99"/>
            <Node pos="r" depth="3" NCoef="0" IVar="-1" Cut="0.0000000000000000e+00" cType="1" res="-1.1927328072488308e-02" rms="4.1240578889846802e-01" purity="3.1056848168373108e-01" nType="-99"/>
          </Node>
          <Node pos="r" depth="2" NCoef="0" IVar="-1" Cut="0.0000000000000000e+00" cType="1" res="1.9699946045875549e-02" rms="2.6123541593551636e-01" purity="9.2111563682556152e-01" nType="-99"/>
        </Node>
      </Node>
    </BinaryTree>
    <BinaryTree type="DecisionTree" boostWeight="1.0000000000000000e+00" itree="24">
      <Node pos="s" depth="0" NCoef="0" IVar="1" Cut="4.7619048506021500e-02" cType="1" res="1.1426512151956558e-02" rms="2.0385046303272247e-01" purity="5.0000000000000000e-01" nType="0">
        <Node pos="l" depth="1" NCoef="0" IVar="10" Cut="8.3789721131324768e-02" cType="1" res="7.9128369688987732e-03" rms="2.2674193978309631e-01" purity="3.1748968362808228e-01" nType="0">
          <Node pos="l" depth="2" NCoef="0" IVar="10" Cut="2.0549051463603973e-02" cType="1" res="1.7649449408054352e-02" rms="2.3366507887840271e-01" purity="4.0075865387916565e-01" nType="0">
            <Node pos="l" depth="3" NCoef="0" IVar="-1" Cut="0.0000000000000000e+00" cType="1" res="2.2352099418640137e-02" rms="4.5348349213600159e-01" purity="6.4974772930145264e-01" nType="-99"/>
            <Node pos="r" depth="3" NCoef="0" IVar="-1" Cut="0.0000000000000000e+00" cType="1" res="-3.1567029654979706e-03" rms="4.5443198084831238e-01" purity="3.5896694660186768e-01" nType="-99"/>
          </Node>
          <Node pos="r" depth="2" NCoef="0" IVar="12" Cut="5.7142858505249023e+00" cType="1" res="-1.6044646501541138e-02" rms="2.3913472890853882e-01" purity="1.6312044858932495e-01" nType="0">
            <Node pos="l" depth="3" NCoef="0" IVar="-1" Cut="0.0000000000000000e+00" cType="1" res="-1.1873177252709866e-02" rms="4.0452265739440918e-01" purity="2.1460282802581787e-01" nType="-99"/>
            <Node pos="r" depth="3" NCoef="0" IVar="-1" Cut="0.0000000000000000e+00" cType="1" res="-2.8935328125953674e-02" rms="3.0945754051208496e-01" purity="1.0883986949920654e-01" nType="-99"/>
          </Node>
        </Node>
        <Node pos="r" depth="1" NCoef="0" IVar="11" Cut="1.6571428298950195e+01" cType="1" res="1.6471002250909805e-02" rms="1.6541028022766113e-01" purity="7.6202529668807983e-01" nType="0">
          <Node pos="l" depth="2" NCoef="0" IVar="1" Cut="5.9184265136718750e-01" cType="1" res="1.8348503857851028e-02" rms="1.7924323678016663e-01" purity="7.6835536956787109e-01" nType="0">
            <Node pos="l" depth="3" NCoef="0" IVar="-1" Cut="0.0000000000000000e+00" cType="1" res="-3.9008416933938861e-04" rms="4.1747111082077026e-01" purity="6.4574444293975830e-01" nType="-99"/>
            <Node pos="r" depth="3" NCoef="0" IVar="-1" Cut="0.0000000000000000e+00" cType="1" res="2.8894625604152679e-02" rms="2.1738156676292419e-01" purity="9.4726574420928955e-01" nType="-99"/>
          </Node>
          <Node pos="r" depth="2" NCoef="0" IVar="-1" Cut="0.0000000000000000e+00" cType="1" res="2.3841688409447670e-02" rms="3.5268205404281616e-01" purity="7.3298621177673340e-01" nType="-99"/>
        </Node>
      </Node>
    </BinaryTree>
    <BinaryTree type="DecisionTree" boostWeight="1.0000000000000000e+00" itree="25">
      <Node pos="s" depth="0" NCoef="0" IVar="0" Cut="2.6000000000000000e+01" cType="1" res="2.2057894966565073e-04" rms="3.9828518033027649e-01" purity="5.0000000000000000e-01" nType="0">
        <Node pos="l" depth="1" NCoef="0" IVar="2" Cut="2.3469481617212296e-02" cType="1" res="2.5943592190742493e-02" rms="3.0752718448638916e-01" purity="5.8526045083999634e-01" nType="0">
          <Node pos="l" depth="2" NCoef="0" IVar="10" Cut="4.3167918920516968e-02" cType="1" res="4.8380818217992783e-02" rms="3.0194228887557983e-01" purity="6.6644024848937988e-01" nType="0">
            <Node pos="l" depth="3" NCoef="0" IVar="-1" Cut="0.0000000000000000e+00" cType="1" res="2.5278490036725998e-02" rms="4.0979331731796265e-01" purity="7.6165187358856201e-01" nType="-99"/>
            <Node pos="r" depth="3" NCoef="0" IVar="-1" Cut="0.0000000000000000e+00" cType="1" res="1.4024874195456505e-02" rms="3.7694433331489563e-01" purity="6.3518917560577393e-01" nType="-99"/>
          </Node>
          <Node pos="r" depth="2" NCoef="0" IVar="11" Cut="1.1285714149475098e+01" cType="1" res="3.2835151068866253e-03" rms="3.1143003702163696e-01" purity="5.0327438116073608e-01" nType="0">
            <Node pos="l" depth="3" NCoef="0" IVar="-1" Cut="0.0000000000000000e+00" cType="1" res="-7.0874732919037342e-03" rms="4.1336029767990112e-01" purity="4.7564896941184998e-01" nType="-99"/>
            <Node pos="r" depth="3" NCoef="0" IVar="-1" Cut="0.0000000000000000e+00" cType="1" res="8.5557997226715088e-03" rms="3.7542152404785156e-01" purity="5.4099512100219727e-01" nType="-99"/>
          </Node>
        </Node>
        <Node pos="r" depth="1" NCoef="0" IVar="1" Cut="4.7619048506021500e-02" cType="1" res="-1.8752506002783775e-02" rms="3.8734671473503113e-01" purity="4.3397393822669983e-01" nType="0">
          <Node pos="l" depth="2" NCoef="0" IVar="10" Cut="3.9858143776655197e-02" cType="1" res="-3.8837846368551254e-02" rms="3.9994522929191589e-01" purity="2.6058030128479004e-01" nType="0">
            <Node pos="l" depth="3" NCoef="0" IVar="-1" Cut="0.0000000000000000e+00" cType="1" res="-1.5787522715982050e-04" rms="4.8198503255844116e-01" purity="4.6140789985656738e-01" nType="-99"/>
            <Node pos="r" depth="3" NCoef="0" IVar="-1" Cut="0.0000000000000000e+00" cType="1" res="-1.6319615766406059e-02" rms="3.8394322991371155e-01" purity="1.9137312471866608e-01" nType="-99"/>
          </Node>
          <Node pos="r" depth="2" NCoef="0" IVar="11" Cut="1.3428571701049805e+01" cType="1" res="1.2360358610749245e-02" rms="3.6480155587196350e-01" purity="7.0256656408309937e-01" nType="0">
            <Node pos="l" depth="3" NCoef="0" IVar="-1" Cut="0.0000000000000000e+00" cType="1" res="-8.4210420027375221e-03" rms="3.8505244255065918e-01" purity="7.0774310827255249e-01" nType="-99"/>
            <Node pos="r" depth="3" NCoef="0" IVar="-1" Cut="0.0000000000000000e+00" cType="1" res="1.2487737461924553e-02" rms="3.7066096067428589e-01" purity="6.9856989383697510e-01" nType="-99"/>
          </Node>
        </Node>
      </Node>
    </BinaryTree>
    <BinaryTree type="DecisionTree" boostWeight="1.0000000000000000e+00" itree="26">
      <Node pos="s" depth="0" NCoef="0" IVar="5" Cut="1.4606222510337830e-01" cType="1" res="1.0574446059763432e-02" rms="2.0320081710815430e-01" purity="5.0000000000000000e-01" nType="0">
        <Node pos="l" depth="1" NCoef="0" IVar="6" Cut="1.3471242785453796e-01" cType="1" res="2.3316148668527603e-02" rms="2.0749488472938538e-01" purity="6.1556202173233032e-01" nType="0">
          <Node pos="l" depth="2" NCoef="0" IVar="10" Cut="8.4905400872230530e-02" cType="1" res="3.6411102861166000e-02" rms="2.1727497875690460e-01" purity="7.2787517309188843e-01" nType="0">
            <Node pos="l" depth="3" NCoef="0" IVar="-1" Cut="0.0000000000000000e+00" cType="1" res="2.3094356060028076e-02" rms="4.1183292865753174e-01" purity="7.1642822027206421e-01" nType="-99"/>
            <Node pos="r" depth="3" NCoef="0" IVar="-1" Cut="0.0000000000000000e+00" cType="1" res="1.6556311398744583e-02" rms="2.9186949133872986e-01" purity="7.4727851152420044e-01" nType="-99"/>
          </Node>
          <Node pos="r" depth="2" NCoef="0" IVar="0" Cut="2.9000000000000000e+01" cType="1" res="4.8638484440743923e-03" rms="4.0691137313842773e-01" purity="5.1418030261993408e-01" nType="0">
            <Node pos="l" depth="3" NCoef="0" IVar="-1" Cut="0.0000000000000000e+00" cType="1" res="8.8761923834681511e-03" rms="4.0194737911224365e-01" purity="5.8225119113922119e-01" nType="-99"/>
            <Node pos="r" depth="3" NCoef="0" IVar="-1" Cut="0.0000000000000000e+00" cType="1" res="-7.0979446172714233e-03" rms="4.1035133600234985e-01" purity="4.3544590473175049e-01" nType="-99"/>
          </Node>
        </Node>
        <Node pos="r" depth="1" NCoef="0" IVar="1" Cut="3.8095238804817200e-01" cType="1" res="5.2414047531783581e-03" rms="2.0113688707351685e-01" purity="4.5163148641586304e-01" nType="0">
          <Node pos="l" depth="2" NCoef="0" IVar="0" Cut="2.1000000000000000e+01" cType="1" res="-2.9154565185308456e-02" rms="4.2612466216087341e-01" purity="3.2286089658737183e-01" nType="0">
            <Node pos="l" depth="3" NCoef="0" IVar="-1" Cut="0.0000000000000000e+00" cType="1" res="3.4911499824374914e-03" rms="4.5166480541229248e-01" purity="4.1488146781921387e-01" nType="-99"/>
            <Node pos="r" depth="3" NCoef="0" IVar="-1" Cut="0.0000000000000000e+00" cType="1" res="-9.9328160285949707e-03" rms="4.1930365562438965e-01" purity="3.0147749185562134e-01" nType="-99"/>
          </Node>
          <Node pos="r" depth="2" NCoef="0" IVar="12" Cut="5.4285712242126465e+00" cType="1" res="1.7531925812363625e-02" rms="1.6281123459339142e-01" purity="9.1129153966903687e-01" nType="0">
            <Node pos="l" depth="3" NCoef="0" IVar="-1" Cut="0.0000000000000000e+00" cType="1" res="3.1935267616063356e-03" rms="3.2056462764739990e-01" purity="8.7412089109420776e-01" nType="-99"/>
            <Node pos="r" depth="3" NCoef="0" IVar="-1" Cut="0.0000000000000000e+00" cType="1" res="3.0885022133588791e-02" rms="2.1081170439720154e-01" purity="9.5174151659011841e-01" nType="-99"/>
          </Node>
        </Node>
      </Node>
    </BinaryTree>
    <BinaryTree type="DecisionTree" boostWeight="1.0000000000000000e+00" itree="27">
      <Node pos="s" depth="0" NCoef="0" IVar="14" Cut="6.2542865052819252e-03" cType="1" res="9.8790610209107399e-03" rms="2.0296303927898407e-01" purity="5.0000000000000000e-01" nType="0">
        <Node pos="l" depth="1" NCoef="0" IVar="5" Cut="9.2933200299739838e-02" cType="1" res="1.6411218792200089e-02" rms="2.0000754296779633e-01" purity="5.6224721670150757e-01" nType="0">
          <Node pos="l" depth="2" NCoef="0" IVar="6" Cut="1.1715272814035416e-01" cType="1" res="3.2660562545061111e-02" rms="2.0710641145706177e-01" purity="7.1486186981201172e-01" nType="0">
            <Node pos="l" depth="3" NCoef="0" IVar="-1" Cut="0.0000000000000000e+00" cType="1" res="2.9357708990573883e-02" rms="3.3896833658218384e-01" purity="8.0647706985473633e-01" nType="-99"/>
            <Node pos="r" depth="3" NCoef="0" IVar="-1" Cut="0.0000000000000000e+00" cType="1" res="9.8859658464789391e-03" rms="4.0116584300994873e-01" purity="6.1521279811859131e-01" nType="-99"/>
          </Node>
          <Node pos="r" depth="2" NCoef="0" IVar="0" Cut="3.6000000000000000e+01" cType="1" res="7.7772727236151695e-03" rms="3.9588749408721924e-01" purity="5.1747697591781616e-01" nType="0">
            <Node pos="l" depth="3" NCoef="0" IVar="-1" Cut="0.0000000000000000e+00" cType="1" res="5.7046650908887386e-03" rms="3.9409872889518738e-01" purity="5.4946470260620117e-01" nType="-99"/>
            <Node pos="r" depth="3" NCoef="0" IVar="-1" Cut="0.0000000000000000e+00" cType="1" res="-9.7216144204139709e-03" rms="3.9917004108428955e-01" purity="4.0431669354438782e-01" nType="-99"/>
          </Node>
        </Node>
        <Node pos="r" depth="1" NCoef="0" IVar="1" Cut="4.7619047760963440e-01" cType="1" res="1.4112888602539897e-03" rms="2.2187308967113495e-01" purity="4.2571881413459778e-01" nType="0">
          <Node pos="l" depth="2" NCoef="0" IVar="0" Cut="2.1000000000000000e+01" cType="1" res="-3.5438105463981628e-02" rms="4.2339450120925903e-01" purity="3.2988536357879639e-01" nType="0">
            <Node pos="l" depth="3" NCoef="0" IVar="-1" Cut="0.0000000000000000e+00" cType="1" res="4.3835726683028042e-04" rms="4.4881358742713928e-01" purity="4.1663625836372375e-01" nType="-99"/>
            <Node pos="r" depth="3" NCoef="0" IVar="-1" Cut="0.0000000000000000e+00" cType="1" res="-1.1325554922223091e-02" rms="4.1651535034179688e-01" purity="3.0891188979148865e-01" nType="-99"/>
          </Node>
          <Node pos="r" depth="2" NCoef="0" IVar="-1" Cut="0.0000000000000000e+00" cType="1" res="1.3468531891703606e-02" rms="2.6885807514190674e-01" purity="9.1550576686859131e-01" nType="-99"/>
        </Node>
      </Node>
    </BinaryTree>
    <BinaryTree type="DecisionTree" boostWeight="1.0000000000000000e+00" itree="28">
      <Node pos="s" depth="0" NCoef="0" IVar="3" Cut="7.1506118774414062e-01" cType="1" res="9.3299290165305138e-03" rms="2.0276638865470886e-01" purity="5.0000000000000000e-01" nType="0">
        <Node pos="l" depth="1" NCoef="0" IVar="1" Cut="4.7619048506021500e-02" cType="1" res="7.2094127535820007e-03" rms="2.0188494026660919e-01" purity="4.7680801153182983e-01" nType="0">
          <Node pos="l" depth="2" NCoef="0" IVar="10" Cut="7.0327781140804291e-02" cType="1" res="3.8347661029547453e-03" rms="2.2250504791736603e-01" purity="2.9100674390792847e-01" nType="0">
            <Node pos="l" depth="3" NCoef="0" IVar="-1" Cut="0.0000000000000000e+00" cType="1" res="1.3285381719470024e-03" rms="4.6416774392127991e-01" purity="3.9727920293807983e-01" nType="-99"/>
            <Node pos="r" depth="3" NCoef="0" IVar="-1" Cut="0.0000000000000000e+00" cType="1" res="-1.6686102375388145e-02" rms="3.6890885233879089e-01" purity="1.7104452848434448e-01" nType="-99"/>
          </Node>
          <Node pos="r" depth="2" NCoef="0" IVar="11" Cut="1.3428571701049805e+01" cType="1" res="1.2109732255339622e-02" rms="1.6736102104187012e-01" purity="7.4660974740982056e-01" nType="0">
            <Node pos="l" depth="3" NCoef="0" IVar="-1" Cut="0.0000000000000000e+00" cType="1" res="2.7318877982906997e-05" rms="3.5887601971626282e-01" purity="7.6284945011138916e-01" nType="-99"/>
            <Node pos="r" depth="3" NCoef="0" IVar="-1" Cut="0.0000000000000000e+00" cType="1" res="1.5173641964793205e-02" rms="3.5890507698059082e-01" purity="7.2480773925781250e-01" nType="-99"/>
          </Node>
        </Node>
        <Node pos="r" depth="1" NCoef="0" IVar="-1" Cut="0.0000000000000000e+00" cType="1" res="2.2552024573087692e-02" rms="3.5732948780059814e-01" purity="7.9935961961746216e-01" nType="-99"/>
      </Node>
    </BinaryTree>
    <BinaryTree type="DecisionTree" boostWeight="1.0000000000000000e+00" itree="29">
      <Node pos="s" depth="0" NCoef="0" IVar="0" Cut="2.2000000000000000e+01" cType="1" res="1.4328556426335126e-04" rms="3.9653572440147400e-01" purity="5.0000000000000000e-01" nType="0">
        <Node pos="l" depth="1" NCoef="0" IVar="2" Cut="2.6859395205974579e-02" cType="1" res="3.5108149051666260e-02" rms="3.8984528183937073e-01" purity="6.1889082193374634e-01" nType="0">
          <Node pos="l" depth="2" NCoef="0" IVar="10" Cut="8.5210993885993958e-02" cType="1" res="6.1074923723936081e-02" rms="3.8133898377418518e-01" purity="6.8746376037597656e-01" nType="0">
            <Node pos="l" depth="3" NCoef="0" IVar="-1" Cut="0.0000000000000000e+00" cType="1" res="2.0901056006550789e-02" rms="4.2289304733276367e-01" purity="6.9382274150848389e-01" nType="-99"/>
            <Node pos="r" depth="3" NCoef="0" IVar="-1" Cut="0.0000000000000000e+00" cType="1" res="1.1982622556388378e-02" rms="3.2650941610336304e-01" purity="6.8036174774169922e-01" nType="-99"/>
          </Node>
          <Node pos="r" depth="2" NCoef="0" IVar="0" Cut="1.8000000000000000e+01" cType="1" res="-1.8906771438196301e-03" rms="3.9874383807182312e-01" purity="5.2118450403213501e-01" nType="0">
            <Node pos="l" depth="3" NCoef="0" IVar="-1" Cut="0.0000000000000000e+00" cType="1" res="4.6263029798865318e-03" rms="3.9878278970718384e-01" purity="5.6491440534591675e-01" nType="-99"/>
            <Node pos="r" depth="3" NCoef="0" IVar="-1" Cut="0.0000000000000000e+00" cType="1" res="-4.9014589749276638e-03" rms="3.9805468916893005e-01" purity="4.8379957675933838e-01" nType="-99"/>
          </Node>
        </Node>
        <Node pos="r" depth="1" NCoef="0" IVar="1" Cut="4.7619048506021500e-02" cType="1" res="-7.5662503950297832e-03" rms="3.7703305482864380e-01" purity="4.5638975501060486e-01" nType="0">
          <Node pos="l" depth="2" NCoef="0" IVar="12" Cut="7.1428570747375488e+00" cType="1" res="-2.2394411265850067e-02" rms="3.9551252126693726e-01" purity="2.7813544869422913e-01" nType="0">
            <Node pos="l" depth="3" NCoef="0" IVar="-1" Cut="0.0000000000000000e+00" cType="1" res="-4.2925789020955563e-03" rms="4.3577253818511963e-01" purity="3.1799820065498352e-01" nType="-99"/>
            <Node pos="r" depth="3" NCoef="0" IVar="-1" Cut="0.0000000000000000e+00" cType="1" res="-2.1428896114230156e-02" rms="3.4114244580268860e-01" purity="1.4874276518821716e-01" nType="-99"/>
          </Node>
          <Node pos="r" depth="2" NCoef="0" IVar="11" Cut="1.5000000000000000e+01" cType="1" res="1.4760412275791168e-02" rms="3.4616291522979736e-01" purity="7.2478604316711426e-01" nType="0">
            <Node pos="l" depth="3" NCoef="0" IVar="-1" Cut="0.0000000000000000e+00" cType="1" res="-2.7114825788885355e-03" rms="3.7174201011657715e-01" purity="7.2946727275848389e-01" nType="-99"/>
            <Node pos="r" depth="3" NCoef="0" IVar="-1" Cut="0.0000000000000000e+00" cType="1" res="1.4438068494200706e-02" rms="3.6023759841918945e-01" purity="7.1784985065460205e-01" nType="-99"/>
          </Node>
        </Node>
      </Node>
    </BinaryTree>
    <BinaryTree type="DecisionTree" boostWeight="1.0000000000000000e+00" itree="30">
      <Node pos="s" depth="0" NCoef="0" IVar="3" Cut="9.5341488718986511e-02" cType="1" res="8.4822271019220352e-03" rms="2.0226171612739563e-01" purity="5.0000000000000000e-01" nType="0">
        <Node pos="l" depth="1" NCoef="0" IVar="0" Cut="1.9000000000000000e+01" cType="1" res="-2.7582827955484390e-02" rms="4.0987744927406311e-01" purity="4.1391280293464661e-01" nType="0">
          <Node pos="l" depth="2" NCoef="0" IVar="-1" Cut="0.0000000000000000e+00" cType="1" res="4.2369160801172256e-03" rms="4.1743269562721252e-01" purity="5.5082672834396362e-01" nType="-99"/>
          <Node pos="r" depth="2" NCoef="0" IVar="11" Cut="1.1095237731933594e+01" cType="1" res="-2.6306815445423126e-02" rms="3.7774544954299927e-01" purity="3.8913881778717041e-01" nType="0">
            <Node pos="l" depth="3" NCoef="0" IVar="-1" Cut="0.0000000000000000e+00" cType="1" res="-1.5058876015245914e-02" rms="4.2444372177124023e-01" purity="3.7890946865081787e-01" nType="-99"/>
            <Node pos="r" depth="3" NCoef="0" IVar="-1" Cut="0.0000000000000000e+00" cType="1" res="-5.4718819446861744e-03" rms="3.9568126201629639e-01" purity="3.9604917168617249e-01" nType="-99"/>
          </Node>
        </Node>
        <Node pos="r" depth="1" NCoef="0" IVar="0" Cut="3.0000000000000000e+01" cType="1" res="1.5765625983476639e-02" rms="3.8734099268913269e-01" purity="5.4860049486160278e-01" nType="0">
          <Node pos="l" depth="2" NCoef="0" IVar="10" Cut="4.3167918920516968e-02" cType="1" res="2.1777680143713951e-02" rms="2.5277554988861084e-01" purity="6.1153095960617065e-01" nType="0">
            <Node pos="l" depth="3" NCoef="0" IVar="-1" Cut="0.0000000000000000e+00" cType="1" res="1.9663464277982712e-02" rms="4.2185971140861511e-01" purity="7.3051559925079346e-01" nType="-99"/>
            <Node pos="r" depth="3" NCoef="0" IVar="-1" Cut="0.0000000000000000e+00" cType="1" res="6.8463021889328957e-03" rms="3.7022137641906738e-01" purity="5.8307135105133057e-01" nType="-99"/>
          </Node>
          <Node pos="r" depth="2" NCoef="0" IVar="4" Cut="2.1021023392677307e-01" cType="1" res="-9.6296835690736771e-03" rms="3.8625144958496094e-01" purity="4.5447814464569092e-01" nType="0">
            <Node pos="l" depth="3" NCoef="0" IVar="-1" Cut="0.0000000000000000e+00" cType="1" res="-8.7344450876116753e-03" rms="3.9755043387413025e-01" purity="4.2874804139137268e-01" nType="-99"/>
            <Node pos="r" depth="3" NCoef="0" IVar="-1" Cut="0.0000000000000000e+00" cType="1" res="6.8274876102805138e-03" rms="3.8688808679580688e-01" purity="4.9650153517723083e-01" nType="-99"/>
          </Node>
        </Node>
      </Node>
    </BinaryTree>
    <BinaryTree type="DecisionTree" boostWeight="1.0000000000000000e+00" itree="31">
      <Node pos="s" depth="0" NCoef="0" IVar="5" Cut="1.9474962353706360e-01" cType="1" res="7.9813348129391670e-03" rms="2.0206885039806366e-01" purity="5.0000000000000000e-01" nType="0">
        <Node pos="l" depth="1" NCoef="0" IVar="6" Cut="1.6839054226875305e-01" cType="1" res="1.5680123120546341e-02" rms="2.0363667607307434e-01" purity="5.8405613899230957e-01" nType="0">
          <Node pos="l" depth="2" NCoef="0" IVar="11" Cut="1.1095237731933594e+01" cType="1" res="2.2216835990548134e-02" rms="2.1224743127822876e-01" purity="6.6181135177612305e-01" nType="0">
            <Node pos="l" depth="3" NCoef="0" IVar="-1" Cut="0.0000000000000000e+00" cType="1" res="7.4851103127002716e-03" rms="4.0491139888763428e-01" purity="6.4401644468307495e-01" nType="-99"/>
            <Node pos="r" depth="3" NCoef="0" IVar="-1" Cut="0.0000000000000000e+00" cType="1" res="2.5614948943257332e-02" rms="3.4751376509666443e-01" purity="6.9740748405456543e-01" nType="-99"/>
          </Node>
          <Node pos="r" depth="2" NCoef="0" IVar="0" Cut="2.9000000000000000e+01" cType="1" res="-9.5749692991375923e-03" rms="4.0310192108154297e-01" purity="4.6854507923126221e-01" nType="0">
            <Node pos="l" depth="3" NCoef="0" IVar="-1" Cut="0.0000000000000000e+00" cType="1" res="4.2245239019393921e-03" rms="4.0297237038612366e-01" purity="5.4063796997070312e-01" nType="-99"/>
            <Node pos="r" depth="3" NCoef="0" IVar="-1" Cut="0.0000000000000000e+00" cType="1" res="-9.6393097192049026e-03" rms="4.0167593955993652e-01" purity="3.9438891410827637e-01" nType="-99"/>
          </Node>
        </Node>
        <Node pos="r" depth="1" NCoef="0" IVar="1" Cut="5.2380955219268799e-01" cType="1" res="2.3255124688148499e-03" rms="2.0072121918201447e-01" purity="4.3824917078018188e-01" nType="0">
          <Node pos="l" depth="2" NCoef="0" IVar="6" Cut="1.6837263107299805e-01" cType="1" res="-5.2964227506890893e-04" rms="2.0943452417850494e-01" purity="3.4852808713912964e-01" nType="0">
            <Node pos="l" depth="3" NCoef="0" IVar="-1" Cut="0.0000000000000000e+00" cType="1" res="-3.9216182194650173e-03" rms="4.2541718482971191e-01" purity="3.6826625466346741e-01" nType="-99"/>
            <Node pos="r" depth="3" NCoef="0" IVar="-1" Cut="0.0000000000000000e+00" cType="1" res="-1.2787656858563423e-02" rms="3.9826267957687378e-01" purity="3.1047657132148743e-01" nType="-99"/>
          </Node>
          <Node pos="r" depth="2" NCoef="0" IVar="-1" Cut="0.0000000000000000e+00" cType="1" res="1.8446499481797218e-02" rms="2.4552245438098907e-01" purity="9.3140023946762085e-01" nType="-99"/>
        </Node>
      </Node>
    </BinaryTree>
    <BinaryTree type="DecisionTree" boostWeight="1.0000000000000000e+00" itree="32">
      <Node pos="s" depth="0" NCoef="0" IVar="14" Cut="7.5048878788948059e-03" cType="1" res="7.8137265518307686e-03" rms="2.0192584395408630e-01" purity="5.0000000000000000e-01" nType="0">
        <Node pos="l" depth="1" NCoef="0" IVar="5" Cut="9.6769943833351135e-02" cType="1" res="1.1846087872982025e-02" rms="1.9958214461803436e-01" purity="5.4663163423538208e-01" nType="0">
          <Node pos="l" depth="2" NCoef="0" IVar="6" Cut="8.7864540517330170e-02" cType="1" res="2.3582948371767998e-02" rms="2.0715263485908508e-01" purity="6.9636666774749756e-01" nType="0">
            <Node pos="l" depth="3" NCoef="0" IVar="-1" Cut="0.0000000000000000e+00" cType="1" res="2.6179313659667969e-02" rms="3.3242747187614441e-01" purity="8.1472384929656982e-01" nType="-99"/>
            <Node pos="r" depth="3" NCoef="0" IVar="-1" Cut="0.0000000000000000e+00" cType="1" res="9.0986257418990135e-03" rms="3.9555877447128296e-01" purity="6.3044440746307373e-01" nType="-99"/>
          </Node>
          <Node pos="r" depth="2" NCoef="0" IVar="1" Cut="3.3333334326744080e-01" cType="1" res="8.5521480068564415e-03" rms="1.9727987051010132e-01" purity="5.0460863113403320e-01" nType="0">
            <Node pos="l" depth="3" NCoef="0" IVar="-1" Cut="0.0000000000000000e+00" cType="1" res="-1.9737565889954567e-03" rms="4.3278047442436218e-01" purity="3.5196280479431152e-01" nType="-99"/>
            <Node pos="r" depth="3" NCoef="0" IVar="-1" Cut="0.0000000000000000e+00" cType="1" res="1.7390944063663483e-02" rms="2.6270401477813721e-01" purity="9.1916787624359131e-01" nType="-99"/>
          </Node>
        </Node>
        <Node pos="r" depth="1" NCoef="0" IVar="1" Cut="4.7619047760963440e-01" cType="1" res="-3.1229661544784904e-04" rms="2.2182805836200714e-01" purity="4.1317933797836304e-01" nType="0">
          <Node pos="l" depth="2" NCoef="0" IVar="0" Cut="2.5000000000000000e+01" cType="1" res="-3.3177059143781662e-02" rms="4.2125797271728516e-01" purity="3.2119271159172058e-01" nType="0">
            <Node pos="l" depth="3" NCoef="0" IVar="-1" Cut="0.0000000000000000e+00" cType="1" res="-3.2871845178306103e-03" rms="4.4035381078720093e-01" purity="3.8058525323867798e-01" nType="-99"/>
            <Node pos="r" depth="3" NCoef="0" IVar="-1" Cut="0.0000000000000000e+00" cType="1" res="-1.1503585614264011e-02" rms="4.1021481156349182e-01" purity="2.8919601440429688e-01" nType="-99"/>
          </Node>
          <Node pos="r" depth="2" NCoef="0" IVar="-1" Cut="0.0000000000000000e+00" cType="1" res="8.3250487223267555e-03" rms="2.7713164687156677e-01" purity="9.0925419330596924e-01" nType="-99"/>
        </Node>
      </Node>
    </BinaryTree>
    <BinaryTree type="DecisionTree" boostWeight="1.0000000000000000e+00" itree="33">
      <Node pos="s" depth="0" NCoef="0" IVar="2" Cut="3.2855346798896790e-02" cType="1" res="7.5303204357624054e-03" rms="2.0181818306446075e-01" purity="5.0000000000000000e-01" nType="0">
        <Node pos="l" depth="1" NCoef="0" IVar="0" Cut="3.4000000000000000e+01" cType="1" res="1.1806337162852287e-02" rms="3.9640253782272339e-01" purity="5.3750228881835938e-01" nType="0">
          <Node pos="l" depth="2" NCoef="0" IVar="11" Cut="1.1095237731933594e+01" cType="1" res="1.6555154696106911e-02" rms="2.3606845736503601e-01" purity="5.8138406276702881e-01" nType="0">
            <Node pos="l" depth="3" NCoef="0" IVar="-1" Cut="0.0000000000000000e+00" cType="1" res="2.9626574832946062e-03" rms="4.0847983956336975e-01" purity="5.7560580968856812e-01" nType="-99"/>
            <Node pos="r" depth="3" NCoef="0" IVar="-1" Cut="0.0000000000000000e+00" cType="1" res="1.5354967676103115e-02" rms="3.6577892303466797e-01" purity="5.9124946594238281e-01" nType="-99"/>
          </Node>
