<?xml version="1.0"?>
<MethodSetup Method="BDT::BDT">
  <GeneralInfo>
    <Info name="TMVA Release" value="4.2.1 [262657]"/>
    <Info name="ROOT Release" value="6.18/00 [397824]"/>
    <Info name="Creator" value="singhr"/>
    <Info name="Date" value="Tue Apr 13 23:08:51 2021"/>
    <Info name="Host" value="Linux lcgapp-centos7-x86-64-34.cern.ch 3.10.0-957.10.1.el7.x86_64 #1 SMP Mon Mar 18 15:06:45 UTC 2019 x86_64 x86_64 x86_64 GNU/Linux"/>
    <Info name="Dir" value="/pool/condor/dir_19154/output"/>
    <Info name="Training events" value="1000000"/>
    <Info name="TrainingTime" value="5.63748542e+03"/>
    <Info name="AnalysisType" value="Classification"/>
  </GeneralInfo>
  <Options>
    <Option name="V" modified="Yes">False</Option>
    <Option name="VerbosityLevel" modified="No">Default</Option>
    <Option name="VarTransform" modified="No">None</Option>
    <Option name="H" modified="Yes">False</Option>
    <Option name="CreateMVAPdfs" modified="No">False</Option>
    <Option name="IgnoreNegWeightsInTraining" modified="No">False</Option>
    <Option name="NTrees" modified="Yes">800</Option>
    <Option name="MaxDepth" modified="No">3</Option>
    <Option name="MinNodeSize" modified="No">5%</Option>
    <Option name="nCuts" modified="No">20</Option>
    <Option name="BoostType" modified="Yes">Grad</Option>
    <Option name="AdaBoostR2Loss" modified="No">quadratic</Option>
    <Option name="UseBaggedBoost" modified="No">False</Option>
    <Option name="Shrinkage" modified="Yes">1.000000e-01</Option>
    <Option name="AdaBoostBeta" modified="No">5.000000e-01</Option>
    <Option name="UseRandomisedTrees" modified="No">False</Option>
    <Option name="UseNvars" modified="No">4</Option>
    <Option name="UsePoissonNvars" modified="No">True</Option>
    <Option name="BaggedSampleFraction" modified="No">6.000000e-01</Option>
    <Option name="UseYesNoLeaf" modified="No">True</Option>
    <Option name="NegWeightTreatment" modified="No">pray</Option>
    <Option name="Css" modified="No">1.000000e+00</Option>
    <Option name="Cts_sb" modified="No">1.000000e+00</Option>
    <Option name="Ctb_ss" modified="No">1.000000e+00</Option>
    <Option name="Cbb" modified="No">1.000000e+00</Option>
    <Option name="NodePurityLimit" modified="No">5.000000e-01</Option>
    <Option name="SeparationType" modified="No">giniindex</Option>
    <Option name="RegressionLossFunctionBDTG" modified="No">huber</Option>
    <Option name="HuberQuantile" modified="No">7.000000e-01</Option>
    <Option name="DoBoostMonitor" modified="Yes">True</Option>
    <Option name="UseFisherCuts" modified="No">False</Option>
    <Option name="MinLinCorrForFisher" modified="No">8.000000e-01</Option>
    <Option name="UseExclusiveVars" modified="No">False</Option>
    <Option name="DoPreselection" modified="No">False</Option>
    <Option name="SigToBkgFraction" modified="No">1.000000e+00</Option>
    <Option name="PruneMethod" modified="No">nopruning</Option>
    <Option name="PruneStrength" modified="No">0.000000e+00</Option>
    <Option name="PruningValFraction" modified="No">5.000000e-01</Option>
    <Option name="SkipNormalization" modified="No">False</Option>
    <Option name="nEventsMin" modified="No">0</Option>
    <Option name="UseBaggedGrad" modified="No">False</Option>
    <Option name="GradBaggingFraction" modified="No">6.000000e-01</Option>
    <Option name="UseNTrainEvents" modified="No">0</Option>
    <Option name="NNodesMax" modified="No">0</Option>
  </Options>
  <Variables NVar="12">
    <Variable VarIndex="0" Expression="nvtx" Label="nvtx" Title="nvtx" Unit="" Internal="nvtx" Type="I" Min="1.00000000e+00" Max="7.30000000e+01"/>
    <Variable VarIndex="1" Expression="dR2Mean" Label="dR2Mean" Title="dR2Mean" Unit="" Internal="dR2Mean" Type="F" Min="1.26110113e-04" Max="1.20314538e-01"/>
    <Variable VarIndex="2" Expression="frac01" Label="frac01" Title="frac01" Unit="" Internal="frac01" Type="F" Min="0.00000000e+00" Max="9.38631117e-01"/>
    <Variable VarIndex="3" Expression="frac02" Label="frac02" Title="frac02" Unit="" Internal="frac02" Type="F" Min="0.00000000e+00" Max="9.34093297e-01"/>
    <Variable VarIndex="4" Expression="frac03" Label="frac03" Title="frac03" Unit="" Internal="frac03" Type="F" Min="0.00000000e+00" Max="9.56754088e-01"/>
    <Variable VarIndex="5" Expression="frac04" Label="frac04" Title="frac04" Unit="" Internal="frac04" Type="F" Min="0.00000000e+00" Max="6.91096067e-01"/>
    <Variable VarIndex="6" Expression="majW" Label="majW" Title="majW" Unit="" Internal="majW" Type="F" Min="9.87856742e-03" Max="3.18138212e-01"/>
    <Variable VarIndex="7" Expression="minW" Label="minW" Title="minW" Unit="" Internal="minW" Type="F" Min="4.19910578e-03" Max="2.11031422e-01"/>
    <Variable VarIndex="8" Expression="jetR" Label="jetR" Title="jetR" Unit="" Internal="jetR" Type="F" Min="8.28718841e-02" Max="9.15894210e-01"/>
    <Variable VarIndex="9" Expression="nParticles" Label="nParticles" Title="nParticles" Unit="" Internal="nParticles" Type="F" Min="1.10000000e+01" Max="2.30000000e+01"/>
    <Variable VarIndex="10" Expression="ptD" Label="ptD" Title="ptD" Unit="" Internal="ptD" Type="F" Min="2.43655279e-01" Max="9.16357040e-01"/>
    <Variable VarIndex="11" Expression="pull" Label="pull" Title="pull" Unit="" Internal="pull" Type="F" Min="4.02489104e-06" Max="2.61346512e-02"/>
  </Variables>
  <Spectators NSpec="2">
    <Spectator SpecIndex="0" Expression="jetPt" Label="jetPt" Title="F" Unit="" Internal="jetPt" Type="F" Min="1.00000372e+01" Max="9.99984665e+01"/>
    <Spectator SpecIndex="1" Expression="jetEta" Label="jetEta" Title="F" Unit="" Internal="jetEta" Type="F" Min="-4.93984985e+00" Max="4.94379425e+00"/>
  </Spectators>
  <Classes NClass="2">
    <Class Name="Signal" Index="0"/>
    <Class Name="Background" Index="1"/>
  </Classes>
  <Transformations NTransformations="0"/>
  <MVAPdfs/>
  <Weights NTrees="800" AnalysisType="1">
    <BinaryTree type="DecisionTree" boostWeight="1.0000000000000000e+00" itree="0">
      <Node pos="s" depth="0" NCoef="0" IVar="1" Cut="3.4465659409761429e-02" cType="1" res="4.4226501137018204e-02" rms="3.8232284784317017e-01" purity="5.0000000000000000e-01" nType="0">
        <Node pos="l" depth="1" NCoef="0" IVar="1" Cut="2.1383922547101974e-02" cType="1" res="1.2632389366626740e-01" rms="3.9478203654289246e-01" purity="6.4765620231628418e-01" nType="0">
          <Node pos="l" depth="2" NCoef="0" IVar="5" Cut="1.4790122210979462e-01" cType="1" res="1.8985961377620697e-01" rms="3.8517722487449646e-01" purity="7.3689633607864380e-01" nType="0">
            <Node pos="l" depth="3" NCoef="0" IVar="-1" Cut="0.0000000000000000e+00" cType="1" res="5.7564523071050644e-02" rms="4.0884977579116821e-01" purity="7.8782260417938232e-01" nType="-99"/>
            <Node pos="r" depth="3" NCoef="0" IVar="-1" Cut="0.0000000000000000e+00" cType="1" res="3.6941614001989365e-02" rms="4.6463203430175781e-01" purity="6.8470805883407593e-01" nType="-99"/>
          </Node>
          <Node pos="r" depth="2" NCoef="0" IVar="0" Cut="1.7000000000000000e+01" cType="1" res="8.4736309945583344e-02" rms="4.9276745319366455e-01" purity="5.8473628759384155e-01" nType="0">
            <Node pos="l" depth="3" NCoef="0" IVar="-1" Cut="0.0000000000000000e+00" cType="1" res="3.4591544419527054e-02" rms="4.6913284063339233e-01" purity="6.7295771837234497e-01" nType="-99"/>
            <Node pos="r" depth="3" NCoef="0" IVar="-1" Cut="0.0000000000000000e+00" cType="1" res="7.6553677208721638e-03" rms="4.9853274226188660e-01" purity="5.3827685117721558e-01" nType="-99"/>
          </Node>
        </Node>
        <Node pos="r" depth="1" NCoef="0" IVar="0" Cut="1.9000000000000000e+01" cType="1" res="-1.1762053519487381e-01" rms="4.8596853017807007e-01" purity="3.8237947225570679e-01" nType="0">
          <Node pos="l" depth="2" NCoef="0" IVar="0" Cut="1.4000000000000000e+01" cType="1" res="-1.9340530270710588e-03" rms="4.9999624490737915e-01" purity="4.9806594848632812e-01" nType="0">
            <Node pos="l" depth="3" NCoef="0" IVar="-1" Cut="0.0000000000000000e+00" cType="1" res="1.8304714933037758e-02" rms="4.9155205488204956e-01" purity="5.9152358770370483e-01" nType="-99"/>
            <Node pos="r" depth="3" NCoef="0" IVar="-1" Cut="0.0000000000000000e+00" cType="1" res="-8.9317578822374344e-03" rms="4.9800160527229309e-01" purity="4.5534121990203857e-01" nType="-99"/>
          </Node>
          <Node pos="r" depth="2" NCoef="0" IVar="1" Cut="4.6729799360036850e-02" cType="1" res="-1.7283765971660614e-01" rms="4.6457275748252869e-01" purity="3.2229253649711609e-01" nType="0">
            <Node pos="l" depth="3" NCoef="0" IVar="-1" Cut="0.0000000000000000e+00" cType="1" res="-2.2409832105040550e-02" rms="4.8728325963020325e-01" purity="3.8795083761215210e-01" nType="-99"/>
            <Node pos="r" depth="3" NCoef="0" IVar="-1" Cut="0.0000000000000000e+00" cType="1" res="-4.7049514949321747e-02" rms="4.4120129942893982e-01" purity="2.6475241780281067e-01" nType="-99"/>
          </Node>
        </Node>
      </Node>
    </BinaryTree>
    <BinaryTree type="DecisionTree" boostWeight="1.0000000000000000e+00" itree="1">
      <Node pos="s" depth="0" NCoef="0" IVar="1" Cut="3.4465659409761429e-02" cType="1" res="4.0850892663002014e-02" rms="3.7904947996139526e-01" purity="5.0000000000000000e-01" nType="0">
        <Node pos="l" depth="1" NCoef="0" IVar="1" Cut="1.9748706370592117e-02" cType="1" res="1.1483470350503922e-01" rms="3.9198589324951172e-01" purity="6.4765620231628418e-01" nType="0">
          <Node pos="l" depth="2" NCoef="0" IVar="5" Cut="1.4721988141536713e-01" cType="1" res="1.8058069050312042e-01" rms="3.7902039289474487e-01" purity="7.4821460247039795e-01" nType="0">
            <Node pos="l" depth="3" NCoef="0" IVar="-1" Cut="0.0000000000000000e+00" cType="1" res="5.4218783974647522e-02" rms="4.0078678727149963e-01" purity="7.9894810914993286e-01" nType="-99"/>
            <Node pos="r" depth="3" NCoef="0" IVar="-1" Cut="0.0000000000000000e+00" cType="1" res="3.5077430307865143e-02" rms="4.6094933152198792e-01" purity="6.9369727373123169e-01" nType="-99"/>
          </Node>
          <Node pos="r" depth="2" NCoef="0" IVar="0" Cut="1.5000000000000000e+01" cType="1" res="8.2698211073875427e-02" rms="4.9044099450111389e-01" purity="5.9247177839279175e-01" nType="0">
            <Node pos="l" depth="3" NCoef="0" IVar="-1" Cut="0.0000000000000000e+00" cType="1" res="3.7653967738151550e-02" rms="4.5552265644073486e-01" purity="7.0596486330032349e-01" nType="-99"/>
            <Node pos="r" depth="3" NCoef="0" IVar="-1" Cut="0.0000000000000000e+00" cType="1" res="1.0192214511334896e-02" rms="4.9612361192703247e-01" purity="5.5825150012969971e-01" nType="-99"/>
          </Node>
        </Node>
        <Node pos="r" depth="1" NCoef="0" IVar="0" Cut="2.0000000000000000e+01" cType="1" res="-1.0586505383253098e-01" rms="4.8385351896286011e-01" purity="3.8237947225570679e-01" nType="0">
          <Node pos="l" depth="2" NCoef="0" IVar="0" Cut="1.4000000000000000e+01" cType="1" res="-1.3444148935377598e-02" rms="4.9860864877700806e-01" purity="4.8390722274780273e-01" nType="0">
            <Node pos="l" depth="3" NCoef="0" IVar="-1" Cut="0.0000000000000000e+00" cType="1" res="1.6479969024658203e-02" rms="4.9155205488204956e-01" purity="5.9152358770370483e-01" nType="-99"/>
            <Node pos="r" depth="3" NCoef="0" IVar="-1" Cut="0.0000000000000000e+00" cType="1" res="-9.7202491015195847e-03" rms="4.9655929207801819e-01" purity="4.4443830847740173e-01" nType="-99"/>
          </Node>
          <Node pos="r" depth="2" NCoef="0" IVar="1" Cut="5.0817839801311493e-02" cType="1" res="-1.6358721256256104e-01" rms="4.6136817336082458e-01" purity="3.1478789448738098e-01" nType="0">
            <Node pos="l" depth="3" NCoef="0" IVar="-1" Cut="0.0000000000000000e+00" cType="1" res="-2.4731349200010300e-02" rms="4.8035198450088501e-01" purity="3.6231812834739685e-01" nType="-99"/>
            <Node pos="r" depth="3" NCoef="0" IVar="-1" Cut="0.0000000000000000e+00" cType="1" res="-4.7138143330812454e-02" rms="4.2788565158843994e-01" purity="2.4132283031940460e-01" nType="-99"/>
          </Node>
        </Node>
      </Node>
    </BinaryTree>
    <BinaryTree type="DecisionTree" boostWeight="1.0000000000000000e+00" itree="2">
      <Node pos="s" depth="0" NCoef="0" IVar="1" Cut="3.4465659409761429e-02" cType="1" res="3.7711039185523987e-02" rms="3.7645083665847778e-01" purity="5.0000000000000000e-01" nType="0">
        <Node pos="l" depth="1" NCoef="0" IVar="1" Cut="2.3019138723611832e-02" cType="1" res="1.0467634350061417e-01" rms="3.8960918784141541e-01" purity="6.4765620231628418e-01" nType="0">
          <Node pos="l" depth="2" NCoef="0" IVar="1" Cut="1.4297884888947010e-02" cType="1" res="1.5071372687816620e-01" rms="3.8137602806091309e-01" purity="7.2544872760772705e-01" nType="0">
            <Node pos="l" depth="3" NCoef="0" IVar="-1" Cut="0.0000000000000000e+00" cType="1" res="4.8948366194963455e-02" rms="4.0611135959625244e-01" purity="7.9014188051223755e-01" nType="-99"/>
            <Node pos="r" depth="3" NCoef="0" IVar="-1" Cut="0.0000000000000000e+00" cType="1" res="2.9875932261347771e-02" rms="4.6339336037635803e-01" purity="6.8457460403442383e-01" nType="-99"/>
          </Node>
          <Node pos="r" depth="2" NCoef="0" IVar="0" Cut="1.8000000000000000e+01" cType="1" res="6.0236174613237381e-02" rms="4.9263066053390503e-01" purity="5.7678413391113281e-01" nType="0">
            <Node pos="l" depth="3" NCoef="0" IVar="-1" Cut="0.0000000000000000e+00" cType="1" res="2.5322193279862404e-02" rms="4.7482699155807495e-01" purity="6.5403187274932861e-01" nType="-99"/>
            <Node pos="r" depth="3" NCoef="0" IVar="-1" Cut="0.0000000000000000e+00" cType="1" res="3.1644653063267469e-03" rms="4.9938753247261047e-01" purity="5.2474009990692139e-01" nType="-99"/>
          </Node>
        </Node>
        <Node pos="r" depth="1" NCoef="0" IVar="0" Cut="2.1000000000000000e+01" cType="1" res="-9.5298863947391510e-02" rms="4.8212385177612305e-01" purity="3.8237947225570679e-01" nType="0">
          <Node pos="l" depth="2" NCoef="0" IVar="1" Cut="4.6425532549619675e-02" cType="1" res="0.0000000000000000e+00" rms="0.0000000000000000e+00" purity="4.7084406018257141e-01" nType="0">
            <Node pos="l" depth="3" NCoef="0" IVar="-1" Cut="0.0000000000000000e+00" cType="1" res="5.9583685360848904e-03" rms="4.9773645401000977e-01" purity="5.2462852001190186e-01" nType="-99"/>
            <Node pos="r" depth="3" NCoef="0" IVar="-1" Cut="0.0000000000000000e+00" cType="1" res="-1.5809271484613419e-02" rms="4.8955821990966797e-01" purity="4.1033113002777100e-01" nType="-99"/>
          </Node>
          <Node pos="r" depth="2" NCoef="0" IVar="1" Cut="4.6729810535907745e-02" cType="1" res="-1.5495046973228455e-01" rms="4.5808371901512146e-01" purity="3.0746132135391235e-01" nType="0">
            <Node pos="l" depth="3" NCoef="0" IVar="-1" Cut="0.0000000000000000e+00" cType="1" res="-2.0661961287260056e-02" rms="4.8369815945625305e-01" purity="3.7336629629135132e-01" nType="-99"/>
            <Node pos="r" depth="3" NCoef="0" IVar="-1" Cut="0.0000000000000000e+00" cType="1" res="-4.1151586920022964e-02" rms="4.3380668759346008e-01" purity="2.5188529491424561e-01" nType="-99"/>
          </Node>
        </Node>
      </Node>
    </BinaryTree>
    <BinaryTree type="DecisionTree" boostWeight="1.0000000000000000e+00" itree="3">
      <Node pos="s" depth="0" NCoef="0" IVar="1" Cut="3.4465659409761429e-02" cType="1" res="3.4615647047758102e-02" rms="3.7442782521247864e-01" purity="5.0000000000000000e-01" nType="0">
        <Node pos="l" depth="1" NCoef="0" IVar="1" Cut="2.4654354900121689e-02" cType="1" res="9.5344483852386475e-02" rms="3.8773912191390991e-01" purity="6.4765620231628418e-01" nType="0">
          <Node pos="l" depth="2" NCoef="0" IVar="1" Cut="1.1806223541498184e-02" cType="1" res="1.3136708736419678e-01" rms="3.8138276338577271e-01" purity="7.1409004926681519e-01" nType="0">
            <Node pos="l" depth="3" NCoef="0" IVar="-1" Cut="0.0000000000000000e+00" cType="1" res="4.8558212816715240e-02" rms="3.9086842536926270e-01" purity="8.1041651964187622e-01" nType="-99"/>
            <Node pos="r" depth="3" NCoef="0" IVar="-1" Cut="0.0000000000000000e+00" cType="1" res="2.7583327144384384e-02" rms="4.6225875616073608e-01" purity="6.8570876121520996e-01" nType="-99"/>
          </Node>
          <Node pos="r" depth="2" NCoef="0" IVar="0" Cut="1.6000000000000000e+01" cType="1" res="4.6205405145883560e-02" rms="4.9325734376907349e-01" purity="5.6858396530151367e-01" nType="0">
            <Node pos="l" depth="3" NCoef="0" IVar="-1" Cut="0.0000000000000000e+00" cType="1" res="2.5950910523533821e-02" rms="4.6823677420616150e-01" purity="6.7452228069305420e-01" nType="-99"/>
            <Node pos="r" depth="3" NCoef="0" IVar="-1" Cut="0.0000000000000000e+00" cType="1" res="2.9961240943521261e-03" rms="4.9886605143547058e-01" purity="5.2844172716140747e-01" nType="-99"/>
          </Node>
        </Node>
        <Node pos="r" depth="1" NCoef="0" IVar="0" Cut="1.7000000000000000e+01" cType="1" res="-8.5797540843486786e-02" rms="4.8067930340766907e-01" purity="3.8237947225570679e-01" nType="0">
          <Node pos="l" depth="2" NCoef="0" IVar="10" Cut="3.2857298851013184e-01" cType="1" res="1.7170373757835478e-04" rms="5.5992817878723145e-01" purity="5.3030049800872803e-01" nType="0">
            <Node pos="l" depth="3" NCoef="0" IVar="-1" Cut="0.0000000000000000e+00" cType="1" res="-4.7024870291352272e-03" rms="4.9774029850959778e-01" purity="4.7430428862571716e-01" nType="-99"/>
            <Node pos="r" depth="3" NCoef="0" IVar="-1" Cut="0.0000000000000000e+00" cType="1" res="1.4390385709702969e-02" rms="4.9269756674766541e-01" purity="5.7548505067825317e-01" nType="-99"/>
          </Node>
          <Node pos="r" depth="2" NCoef="0" IVar="1" Cut="4.6729799360036850e-02" cType="1" res="-1.1526012420654297e-01" rms="4.6534067392349243e-01" purity="3.3721530437469482e-01" nType="0">
            <Node pos="l" depth="3" NCoef="0" IVar="-1" Cut="0.0000000000000000e+00" cType="1" res="-1.4199351891875267e-02" rms="4.8954167962074280e-01" purity="4.0240374207496643e-01" nType="-99"/>
            <Node pos="r" depth="3" NCoef="0" IVar="-1" Cut="0.0000000000000000e+00" cType="1" res="-3.3747751265764236e-02" rms="4.4654557108879089e-01" purity="2.7806678414344788e-01" nType="-99"/>
          </Node>
        </Node>
      </Node>
    </BinaryTree>
    <BinaryTree type="DecisionTree" boostWeight="1.0000000000000000e+00" itree="4">
      <Node pos="s" depth="0" NCoef="0" IVar="7" Cut="1.0269068181514740e-01" cType="1" res="3.2459862530231476e-02" rms="3.7248569726943970e-01" purity="5.0000000000000000e-01" nType="0">
        <Node pos="l" depth="1" NCoef="0" IVar="1" Cut="2.5788217782974243e-02" cType="1" res="8.6675196886062622e-02" rms="3.8995489478111267e-01" purity="6.3487637042999268e-01" nType="0">
          <Node pos="l" depth="2" NCoef="0" IVar="0" Cut="1.4000000000000000e+01" cType="1" res="1.4072939753532410e-01" rms="4.5082962512969971e-01" purity="7.0874190330505371e-01" nType="0">
            <Node pos="l" depth="3" NCoef="0" IVar="-1" Cut="0.0000000000000000e+00" cType="1" res="4.4321283698081970e-02" rms="4.0259394049644470e-01" purity="7.9436779022216797e-01" nType="-99"/>
            <Node pos="r" depth="3" NCoef="0" IVar="-1" Cut="0.0000000000000000e+00" cType="1" res="2.4001654237508774e-02" rms="4.6216982603073120e-01" purity="6.8249124288558960e-01" nType="-99"/>
          </Node>
          <Node pos="r" depth="2" NCoef="0" IVar="0" Cut="1.6000000000000000e+01" cType="1" res="3.8816820830106735e-02" rms="4.9242913722991943e-01" purity="5.4177677631378174e-01" nType="0">
            <Node pos="l" depth="3" NCoef="0" IVar="-1" Cut="0.0000000000000000e+00" cType="1" res="2.3162424564361572e-02" rms="4.7410252690315247e-01" purity="6.5292423963546753e-01" nType="-99"/>
            <Node pos="r" depth="3" NCoef="0" IVar="-1" Cut="0.0000000000000000e+00" cType="1" res="1.4352403813973069e-03" rms="4.9644041061401367e-01" purity="4.9547836184501648e-01" nType="-99"/>
          </Node>
        </Node>
        <Node pos="r" depth="1" NCoef="0" IVar="0" Cut="2.2000000000000000e+01" cType="1" res="-8.1208027899265289e-02" rms="4.7882020473480225e-01" purity="3.8546189665794373e-01" nType="0">
          <Node pos="l" depth="2" NCoef="0" IVar="1" Cut="4.4455781579017639e-02" cType="1" res="-2.6886628940701485e-02" rms="4.9275103211402893e-01" purity="4.6058797836303711e-01" nType="0">
            <Node pos="l" depth="3" NCoef="0" IVar="-1" Cut="0.0000000000000000e+00" cType="1" res="4.0839761495590210e-03" rms="4.9581053853034973e-01" purity="5.2652186155319214e-01" nType="-99"/>
            <Node pos="r" depth="3" NCoef="0" IVar="-1" Cut="0.0000000000000000e+00" cType="1" res="-1.4801271259784698e-02" rms="4.8523473739624023e-01" purity="3.9557930827140808e-01" nType="-99"/>
          </Node>
          <Node pos="r" depth="2" NCoef="0" IVar="1" Cut="4.4952854514122009e-02" cType="1" res="-1.3450315594673157e-01" rms="4.5583498477935791e-01" purity="3.0878967046737671e-01" nType="0">
            <Node pos="l" depth="3" NCoef="0" IVar="-1" Cut="0.0000000000000000e+00" cType="1" res="-1.6823319718241692e-02" rms="4.8616164922714233e-01" purity="3.9097294211387634e-01" nType="-99"/>
            <Node pos="r" depth="3" NCoef="0" IVar="-1" Cut="0.0000000000000000e+00" cType="1" res="-3.6241412162780762e-02" rms="4.3030148744583130e-01" purity="2.4644005298614502e-01" nType="-99"/>
          </Node>
        </Node>
      </Node>
    </BinaryTree>
    <BinaryTree type="DecisionTree" boostWeight="1.0000000000000000e+00" itree="5">
      <Node pos="s" depth="0" NCoef="0" IVar="10" Cut="3.3975553512573242e-01" cType="1" res="2.9699433594942093e-02" rms="3.7108418345451355e-01" purity="5.0000000000000000e-01" nType="0">
        <Node pos="l" depth="1" NCoef="0" IVar="0" Cut="2.3000000000000000e+01" cType="1" res="-8.8753595948219299e-02" rms="4.7360232472419739e-01" purity="3.6415043473243713e-01" nType="0">
          <Node pos="l" depth="2" NCoef="0" IVar="1" Cut="5.2503995597362518e-02" cType="1" res="-3.7239968776702881e-02" rms="4.6277618408203125e-01" purity="4.2710584402084351e-01" nType="0">
            <Node pos="l" depth="3" NCoef="0" IVar="-1" Cut="0.0000000000000000e+00" cType="1" res="-4.0182122029364109e-03" rms="4.9435129761695862e-01" purity="4.6381703019142151e-01" nType="-99"/>
            <Node pos="r" depth="3" NCoef="0" IVar="-1" Cut="0.0000000000000000e+00" cType="1" res="-2.1979469805955887e-02" rms="4.7044292092323303e-01" purity="3.4123936295509338e-01" nType="-99"/>
          </Node>
          <Node pos="r" depth="2" NCoef="0" IVar="7" Cut="1.2815743684768677e-01" cType="1" res="-1.3472227752208710e-01" rms="4.4927129149436951e-01" purity="2.9301685094833374e-01" nType="0">
            <Node pos="l" depth="3" NCoef="0" IVar="-1" Cut="0.0000000000000000e+00" cType="1" res="-1.9673764705657959e-02" rms="4.7401642799377441e-01" purity="3.5076647996902466e-01" nType="-99"/>
            <Node pos="r" depth="3" NCoef="0" IVar="-1" Cut="0.0000000000000000e+00" cType="1" res="-3.6451302468776703e-02" rms="4.2274096608161926e-01" purity="2.3541605472564697e-01" nType="-99"/>
          </Node>
        </Node>
        <Node pos="r" depth="1" NCoef="0" IVar="1" Cut="2.8235295787453651e-02" cType="1" res="6.9741860032081604e-02" rms="3.9159479737281799e-01" purity="6.0999375581741333e-01" nType="0">
          <Node pos="l" depth="2" NCoef="0" IVar="1" Cut="1.4849926345050335e-02" cType="1" res="1.0031194239854813e-01" rms="3.8225829601287842e-01" purity="6.9240415096282959e-01" nType="0">
            <Node pos="l" depth="3" NCoef="0" IVar="-1" Cut="0.0000000000000000e+00" cType="1" res="3.7862144410610199e-02" rms="4.0858632326126099e-01" purity="7.8567552566528320e-01" nType="-99"/>
            <Node pos="r" depth="3" NCoef="0" IVar="-1" Cut="0.0000000000000000e+00" cType="1" res="1.8886959180235863e-02" rms="4.7266483306884766e-01" purity="6.5409612655639648e-01" nType="-99"/>
          </Node>
          <Node pos="r" depth="2" NCoef="0" IVar="0" Cut="1.8000000000000000e+01" cType="1" res="1.5046146698296070e-02" rms="4.9226805567741394e-01" purity="5.0928485393524170e-01" nType="0">
            <Node pos="l" depth="3" NCoef="0" IVar="-1" Cut="0.0000000000000000e+00" cType="1" res="1.4831694774329662e-02" rms="4.8634472489356995e-01" purity="6.0128605365753174e-01" nType="-99"/>
            <Node pos="r" depth="3" NCoef="0" IVar="-1" Cut="0.0000000000000000e+00" cType="1" res="-5.4282820783555508e-03" rms="4.9219787120819092e-01" purity="4.4345259666442871e-01" nType="-99"/>
          </Node>
        </Node>
      </Node>
    </BinaryTree>
    <BinaryTree type="DecisionTree" boostWeight="1.0000000000000000e+00" itree="6">
      <Node pos="s" depth="0" NCoef="0" IVar="1" Cut="4.0188919752836227e-02" cType="1" res="2.7482310310006142e-02" rms="3.6990985274314880e-01" purity="5.0000000000000000e-01" nType="0">
        <Node pos="l" depth="1" NCoef="0" IVar="7" Cut="8.2268685102462769e-02" cType="1" res="6.2189146876335144e-02" rms="3.8325062394142151e-01" purity="6.0959708690643311e-01" nType="0">
          <Node pos="l" depth="2" NCoef="0" IVar="0" Cut="1.4000000000000000e+01" cType="1" res="1.2520444393157959e-01" rms="4.4536232948303223e-01" purity="7.1617490053176880e-01" nType="0">
            <Node pos="l" depth="3" NCoef="0" IVar="-1" Cut="0.0000000000000000e+00" cType="1" res="3.9165217429399490e-02" rms="4.0099927783012390e-01" purity="7.9548436403274536e-01" nType="-99"/>
            <Node pos="r" depth="3" NCoef="0" IVar="-1" Cut="0.0000000000000000e+00" cType="1" res="2.1693136543035507e-02" rms="4.5760673284530640e-01" purity="6.8928021192550659e-01" nType="-99"/>
          </Node>
          <Node pos="r" depth="2" NCoef="0" IVar="0" Cut="1.7000000000000000e+01" cType="1" res="2.5536747649312019e-02" rms="4.9120086431503296e-01" purity="5.4492211341857910e-01" nType="0">
            <Node pos="l" depth="3" NCoef="0" IVar="-1" Cut="0.0000000000000000e+00" cType="1" res="1.8188821151852608e-02" rms="4.7497999668121338e-01" purity="6.4710730314254761e-01" nType="-99"/>
            <Node pos="r" depth="3" NCoef="0" IVar="-1" Cut="0.0000000000000000e+00" cType="1" res="-6.0835148906335235e-04" rms="4.9563023447990417e-01" purity="4.9921640753746033e-01" nType="-99"/>
          </Node>
        </Node>
        <Node pos="r" depth="1" NCoef="0" IVar="0" Cut="1.6000000000000000e+01" cType="1" res="-8.5196129977703094e-02" rms="4.6959713101387024e-01" purity="3.5217103362083435e-01" nType="0">
          <Node pos="l" depth="2" NCoef="0" IVar="-1" Cut="0.0000000000000000e+00" cType="1" res="3.8579357787966728e-03" rms="4.9658286571502686e-01" purity="5.2081888914108276e-01" nType="-99"/>
          <Node pos="r" depth="2" NCoef="0" IVar="0" Cut="2.6000000000000000e+01" cType="1" res="-1.0702894628047943e-01" rms="4.6077555418014526e-01" purity="3.1691613793373108e-01" nType="0">
            <Node pos="l" depth="3" NCoef="0" IVar="-1" Cut="0.0000000000000000e+00" cType="1" res="-1.6713293269276619e-02" rms="4.7429618239402771e-01" purity="3.5315182805061340e-01" nType="-99"/>
            <Node pos="r" depth="3" NCoef="0" IVar="-1" Cut="0.0000000000000000e+00" cType="1" res="-3.1932447105646133e-02" rms="4.3106359243392944e-01" purity="2.5048276782035828e-01" nType="-99"/>
          </Node>
        </Node>
      </Node>
    </BinaryTree>
    <BinaryTree type="DecisionTree" boostWeight="1.0000000000000000e+00" itree="7">
      <Node pos="s" depth="0" NCoef="0" IVar="7" Cut="1.0269068181514740e-01" cType="1" res="2.5402575731277466e-02" rms="3.6879909038543701e-01" purity="5.0000000000000000e-01" nType="0">
        <Node pos="l" depth="1" NCoef="0" IVar="1" Cut="1.5523374080657959e-02" cType="1" res="6.7483909428119659e-02" rms="3.8648629188537598e-01" purity="6.3487637042999268e-01" nType="0">
          <Node pos="l" depth="2" NCoef="0" IVar="-1" Cut="0.0000000000000000e+00" cType="1" res="3.1726233661174774e-02" rms="4.1210857033729553e-01" purity="7.7998763322830200e-01" nType="-99"/>
          <Node pos="r" depth="2" NCoef="0" IVar="0" Cut="1.3000000000000000e+01" cType="1" res="5.2377108484506607e-02" rms="4.8187723755836487e-01" purity="5.9607326984405518e-01" nType="0">
            <Node pos="l" depth="3" NCoef="0" IVar="-1" Cut="0.0000000000000000e+00" cType="1" res="3.0290709808468819e-02" rms="4.3746036291122437e-01" purity="7.3803114891052246e-01" nType="-99"/>
            <Node pos="r" depth="3" NCoef="0" IVar="-1" Cut="0.0000000000000000e+00" cType="1" res="7.3145311325788498e-03" rms="4.8742705583572388e-01" purity="5.7109057903289795e-01" nType="-99"/>
          </Node>
        </Node>
        <Node pos="r" depth="1" NCoef="0" IVar="0" Cut="1.9000000000000000e+01" cType="1" res="-6.1468329280614853e-02" rms="4.7580486536026001e-01" purity="3.8546189665794373e-01" nType="0">
          <Node pos="l" depth="2" NCoef="0" IVar="0" Cut="1.4000000000000000e+01" cType="1" res="6.6627369960770011e-05" rms="4.9422594904899597e-01" purity="4.9915674328804016e-01" nType="0">
            <Node pos="l" depth="3" NCoef="0" IVar="-1" Cut="0.0000000000000000e+00" cType="1" res="1.2323654256761074e-02" rms="4.8880591988563538e-01" purity="5.9010434150695801e-01" nType="-99"/>
            <Node pos="r" depth="3" NCoef="0" IVar="-1" Cut="0.0000000000000000e+00" cType="1" res="-5.2581038326025009e-03" rms="4.9422159790992737e-01" purity="4.6016690135002136e-01" nType="-99"/>
          </Node>
          <Node pos="r" depth="2" NCoef="0" IVar="1" Cut="5.4373066872358322e-02" cType="1" res="-8.8675454258918762e-02" rms="4.6039268374443054e-01" purity="3.2972982525825500e-01" nType="0">
            <Node pos="l" depth="3" NCoef="0" IVar="-1" Cut="0.0000000000000000e+00" cType="1" res="-1.4242286793887615e-02" rms="4.7698807716369629e-01" purity="3.6668667197227478e-01" nType="-99"/>
            <Node pos="r" depth="3" NCoef="0" IVar="-1" Cut="0.0000000000000000e+00" cType="1" res="-3.2424900680780411e-02" rms="4.1815328598022461e-01" purity="2.2767885029315948e-01" nType="-99"/>
          </Node>
        </Node>
      </Node>
    </BinaryTree>
    <BinaryTree type="DecisionTree" boostWeight="1.0000000000000000e+00" itree="8">
      <Node pos="s" depth="0" NCoef="0" IVar="1" Cut="4.0188919752836227e-02" cType="1" res="2.3720363155007362e-02" rms="3.6784133315086365e-01" purity="5.0000000000000000e-01" nType="0">
        <Node pos="l" depth="1" NCoef="0" IVar="10" Cut="3.7159439921379089e-01" cType="1" res="5.3136609494686127e-02" rms="3.8143712282180786e-01" purity="6.0959708690643311e-01" nType="0">
          <Node pos="l" depth="2" NCoef="0" IVar="0" Cut="2.0000000000000000e+01" cType="1" res="8.2432022318243980e-03" rms="4.9315261840820312e-01" purity="5.1728487014770508e-01" nType="0">
            <Node pos="l" depth="3" NCoef="0" IVar="-1" Cut="0.0000000000000000e+00" cType="1" res="9.3426248058676720e-03" rms="4.8827636241912842e-01" purity="5.8616536855697632e-01" nType="-99"/>
            <Node pos="r" depth="3" NCoef="0" IVar="-1" Cut="0.0000000000000000e+00" cType="1" res="-4.7557000070810318e-03" rms="4.9497950077056885e-01" purity="4.5935171842575073e-01" nType="-99"/>
          </Node>
          <Node pos="r" depth="2" NCoef="0" IVar="5" Cut="1.5356515347957611e-01" cType="1" res="7.9273097217082977e-02" rms="3.8542404770851135e-01" purity="6.8598461151123047e-01" nType="0">
            <Node pos="l" depth="3" NCoef="0" IVar="-1" Cut="0.0000000000000000e+00" cType="1" res="2.5988504290580750e-02" rms="4.3545800447463989e-01" purity="7.3056042194366455e-01" nType="-99"/>
            <Node pos="r" depth="3" NCoef="0" IVar="-1" Cut="0.0000000000000000e+00" cType="1" res="1.1695861816406250e-02" rms="4.7488227486610413e-01" purity="6.4013659954071045e-01" nType="-99"/>
          </Node>
        </Node>
        <Node pos="r" depth="1" NCoef="0" IVar="0" Cut="1.8000000000000000e+01" cType="1" res="-7.1328215301036835e-02" rms="4.6814447641372681e-01" purity="3.5217103362083435e-01" nType="0">
          <Node pos="l" depth="2" NCoef="0" IVar="0" Cut="1.5000000000000000e+01" cType="1" res="-6.8026110529899597e-03" rms="4.9535509943962097e-01" purity="4.8491778969764709e-01" nType="0">
            <Node pos="l" depth="3" NCoef="0" IVar="-1" Cut="0.0000000000000000e+00" cType="1" res="5.7290499098598957e-03" rms="4.9538072943687439e-01" purity="5.4249024391174316e-01" nType="-99"/>
            <Node pos="r" depth="3" NCoef="0" IVar="-1" Cut="0.0000000000000000e+00" cType="1" res="-8.2773314788937569e-03" rms="4.9290683865547180e-01" purity="4.2895022034645081e-01" nType="-99"/>
          </Node>
          <Node pos="r" depth="2" NCoef="0" IVar="1" Cut="5.5450975894927979e-02" cType="1" res="-9.1199979186058044e-02" rms="4.5149323344230652e-01" purity="3.0331328511238098e-01" nType="0">
            <Node pos="l" depth="3" NCoef="0" IVar="-1" Cut="0.0000000000000000e+00" cType="1" res="-1.5589534305036068e-02" rms="4.6895575523376465e-01" purity="3.3532619476318359e-01" nType="-99"/>
            <Node pos="r" depth="3" NCoef="0" IVar="-1" Cut="0.0000000000000000e+00" cType="1" res="-2.9511053115129471e-02" rms="4.2204907536506653e-01" purity="2.3514801263809204e-01" nType="-99"/>
          </Node>
        </Node>
      </Node>
    </BinaryTree>
    <BinaryTree type="DecisionTree" boostWeight="1.0000000000000000e+00" itree="9">
      <Node pos="s" depth="0" NCoef="0" IVar="10" Cut="3.3975553512573242e-01" cType="1" res="2.2169912233948708e-02" rms="3.6703154444694519e-01" purity="5.0000000000000000e-01" nType="0">
        <Node pos="l" depth="1" NCoef="0" IVar="10" Cut="3.0772209167480469e-01" cType="1" res="-1.3706931844353676e-02" rms="3.3589822053909302e-01" purity="3.6415043473243713e-01" nType="0">
          <Node pos="l" depth="2" NCoef="0" IVar="0" Cut="2.5000000000000000e+01" cType="1" res="-1.0339886695146561e-01" rms="4.4744041562080383e-01" purity="2.9060786962509155e-01" nType="0">
            <Node pos="l" depth="3" NCoef="0" IVar="-1" Cut="0.0000000000000000e+00" cType="1" res="-1.6756795346736908e-02" rms="4.6703544259071350e-01" purity="3.3696624636650085e-01" nType="-99"/>
            <Node pos="r" depth="3" NCoef="0" IVar="-1" Cut="0.0000000000000000e+00" cType="1" res="-2.8477812185883522e-02" rms="4.2027813196182251e-01" purity="2.3332422971725464e-01" nType="-99"/>
          </Node>
          <Node pos="r" depth="2" NCoef="0" IVar="9" Cut="1.4142857551574707e+01" cType="1" res="-4.3881372548639774e-03" rms="3.6037957668304443e-01" purity="4.1370770335197449e-01" nType="0">
            <Node pos="l" depth="3" NCoef="0" IVar="-1" Cut="0.0000000000000000e+00" cType="1" res="-1.6752758994698524e-02" rms="4.6858897805213928e-01" purity="3.5687613487243652e-01" nType="-99"/>
            <Node pos="r" depth="3" NCoef="0" IVar="-1" Cut="0.0000000000000000e+00" cType="1" res="-2.6791281998157501e-03" rms="4.8973834514617920e-01" purity="4.4089600443840027e-01" nType="-99"/>
          </Node>
        </Node>
        <Node pos="r" depth="1" NCoef="0" IVar="0" Cut="1.2000000000000000e+01" cType="1" res="5.0726532936096191e-02" rms="4.7214615345001221e-01" purity="6.0999375581741333e-01" nType="0">
          <Node pos="l" depth="2" NCoef="0" IVar="-1" Cut="0.0000000000000000e+00" cType="1" res="3.1950894743204117e-02" rms="4.1629233956336975e-01" purity="7.6938694715499878e-01" nType="-99"/>
          <Node pos="r" depth="2" NCoef="0" IVar="1" Cut="2.8235295787453651e-02" cType="1" res="3.9574217051267624e-02" rms="4.7011509537696838e-01" purity="5.8928138017654419e-01" nType="0">
            <Node pos="l" depth="3" NCoef="0" IVar="-1" Cut="0.0000000000000000e+00" cType="1" res="1.4812676236033440e-02" rms="4.6268078684806824e-01" purity="6.7484903335571289e-01" nType="-99"/>
            <Node pos="r" depth="3" NCoef="0" IVar="-1" Cut="0.0000000000000000e+00" cType="1" res="-4.7808916860958561e-05" rms="4.9156138300895691e-01" purity="4.8823809623718262e-01" nType="-99"/>
          </Node>
        </Node>
      </Node>
    </BinaryTree>
    <BinaryTree type="DecisionTree" boostWeight="1.0000000000000000e+00" itree="10">
      <Node pos="s" depth="0" NCoef="0" IVar="7" Cut="1.1253984272480011e-01" cType="1" res="2.1045500412583351e-02" rms="3.6631894111633301e-01" purity="5.0000000000000000e-01" nType="0">
        <Node pos="l" depth="1" NCoef="0" IVar="0" Cut="2.1000000000000000e+01" cType="1" res="4.3294616043567657e-02" rms="4.7352585196495056e-01" purity="6.0182219743728638e-01" nType="0">
          <Node pos="l" depth="2" NCoef="0" IVar="1" Cut="1.9599335268139839e-02" cType="1" res="2.1611347378325263e-08" rms="-nan" purity="6.5371233224868774e-01" nType="0">
            <Node pos="l" depth="3" NCoef="0" IVar="-1" Cut="0.0000000000000000e+00" cType="1" res="2.5893766433000565e-02" rms="4.1655561327934265e-01" purity="7.7157163619995117e-01" nType="-99"/>
            <Node pos="r" depth="3" NCoef="0" IVar="-1" Cut="0.0000000000000000e+00" cType="1" res="1.0474530979990959e-02" rms="4.8150840401649475e-01" purity="6.0401296615600586e-01" nType="-99"/>
          </Node>
          <Node pos="r" depth="2" NCoef="0" IVar="1" Cut="2.6880418881773949e-02" cType="1" res="-4.9891797971213236e-05" rms="4.8378893733024597e-01" purity="5.1846945285797119e-01" nType="0">
            <Node pos="l" depth="3" NCoef="0" IVar="-1" Cut="0.0000000000000000e+00" cType="1" res="7.2711412794888020e-03" rms="4.7530677914619446e-01" purity="6.3726389408111572e-01" nType="-99"/>
            <Node pos="r" depth="3" NCoef="0" IVar="-1" Cut="0.0000000000000000e+00" cType="1" res="-5.2652168087661266e-03" rms="4.9036255478858948e-01" purity="4.3213278055191040e-01" nType="-99"/>
          </Node>
        </Node>
        <Node pos="r" depth="1" NCoef="0" IVar="0" Cut="1.6000000000000000e+01" cType="1" res="-6.1401203274726868e-02" rms="4.6752208471298218e-01" purity="3.5554948449134827e-01" nType="0">
          <Node pos="l" depth="2" NCoef="0" IVar="-1" Cut="0.0000000000000000e+00" cType="1" res="2.9816357418894768e-03" rms="4.9476552009582520e-01" purity="5.2381461858749390e-01" nType="-99"/>
          <Node pos="r" depth="2" NCoef="0" IVar="1" Cut="5.7126905769109726e-02" cType="1" res="-7.0792280137538910e-02" rms="4.5437914133071899e-01" purity="3.2373833656311035e-01" nType="0">
            <Node pos="l" depth="3" NCoef="0" IVar="-1" Cut="0.0000000000000000e+00" cType="1" res="-1.2622701004147530e-02" rms="4.7189000248908997e-01" purity="3.5210463404655457e-01" nType="-99"/>
            <Node pos="r" depth="3" NCoef="0" IVar="-1" Cut="0.0000000000000000e+00" cType="1" res="-2.7487644925713539e-02" rms="4.1874551773071289e-01" purity="2.3138776421546936e-01" nType="-99"/>
          </Node>
        </Node>
      </Node>
    </BinaryTree>
    <BinaryTree type="DecisionTree" boostWeight="1.0000000000000000e+00" itree="11">
      <Node pos="s" depth="0" NCoef="0" IVar="1" Cut="4.0188919752836227e-02" cType="1" res="1.9422467797994614e-02" rms="3.6570608615875244e-01" purity="5.0000000000000000e-01" nType="0">
        <Node pos="l" depth="1" NCoef="0" IVar="0" Cut="1.6000000000000000e+01" cType="1" res="4.0410656481981277e-02" rms="4.7357553243637085e-01" purity="6.0959708690643311e-01" nType="0">
          <Node pos="l" depth="2" NCoef="0" IVar="0" Cut="1.2000000000000000e+01" cType="1" res="9.0043455362319946e-02" rms="4.4463610649108887e-01" purity="7.1524739265441895e-01" nType="0">
            <Node pos="l" depth="3" NCoef="0" IVar="-1" Cut="0.0000000000000000e+00" cType="1" res="2.9061611741781235e-02" rms="4.1142496466636658e-01" purity="7.7805900573730469e-01" nType="-99"/>
            <Node pos="r" depth="3" NCoef="0" IVar="-1" Cut="0.0000000000000000e+00" cType="1" res="1.4504624530673027e-02" rms="4.5966845750808716e-01" purity="6.8211555480957031e-01" nType="-99"/>
          </Node>
          <Node pos="r" depth="2" NCoef="0" IVar="7" Cut="6.9257088005542755e-02" cType="1" res="2.0070103928446770e-02" rms="4.8043721914291382e-01" purity="5.6413543224334717e-01" nType="0">
            <Node pos="l" depth="3" NCoef="0" IVar="-1" Cut="0.0000000000000000e+00" cType="1" res="1.8193298950791359e-02" rms="4.4121316075325012e-01" purity="7.2564047574996948e-01" nType="-99"/>
            <Node pos="r" depth="3" NCoef="0" IVar="-1" Cut="0.0000000000000000e+00" cType="1" res="9.5397816039621830e-04" rms="4.9191221594810486e-01" purity="5.2773147821426392e-01" nType="-99"/>
          </Node>
        </Node>
        <Node pos="r" depth="1" NCoef="0" IVar="0" Cut="2.3000000000000000e+01" cType="1" res="-5.4490465670824051e-02" rms="4.6662023663520813e-01" purity="3.5217103362083435e-01" nType="0">
          <Node pos="l" depth="2" NCoef="0" IVar="1" Cut="5.5045317858457565e-02" cType="1" res="-1.9507233053445816e-02" rms="4.6159684658050537e-01" purity="4.1965815424919128e-01" nType="0">
            <Node pos="l" depth="3" NCoef="0" IVar="-1" Cut="0.0000000000000000e+00" cType="1" res="-1.2875654501840472e-03" rms="4.9083405733108521e-01" purity="4.5067748427391052e-01" nType="-99"/>
            <Node pos="r" depth="3" NCoef="0" IVar="-1" Cut="0.0000000000000000e+00" cType="1" res="-1.4391607604920864e-02" rms="4.6897107362747192e-01" purity="3.4577909111976624e-01" nType="-99"/>
          </Node>
          <Node pos="r" depth="2" NCoef="0" IVar="0" Cut="2.9000000000000000e+01" cType="1" res="-9.1321080923080444e-02" rms="4.3957430124282837e-01" purity="2.6849544048309326e-01" nType="0">
            <Node pos="l" depth="3" NCoef="0" IVar="-1" Cut="0.0000000000000000e+00" cType="1" res="-1.5990138053894043e-02" rms="4.5035418868064880e-01" purity="2.9009920358657837e-01" nType="-99"/>
            <Node pos="r" depth="3" NCoef="0" IVar="-1" Cut="0.0000000000000000e+00" cType="1" res="-2.6287056505680084e-02" rms="4.2026904225349426e-01" purity="2.3403644561767578e-01" nType="-99"/>
          </Node>
        </Node>
      </Node>
    </BinaryTree>
    <BinaryTree type="DecisionTree" boostWeight="1.0000000000000000e+00" itree="12">
      <Node pos="s" depth="0" NCoef="0" IVar="10" Cut="3.3975553512573242e-01" cType="1" res="1.7957922071218491e-02" rms="3.6521473526954651e-01" purity="5.0000000000000000e-01" nType="0">
        <Node pos="l" depth="1" NCoef="0" IVar="0" Cut="2.5000000000000000e+01" cType="1" res="-4.8101551830768585e-02" rms="4.6958535909652710e-01" purity="3.6415043473243713e-01" nType="0">
          <Node pos="l" depth="2" NCoef="0" IVar="10" Cut="3.1271734833717346e-01" cType="1" res="-1.5162041410803795e-02" rms="4.1818264126777649e-01" purity="4.1000238060951233e-01" nType="0">
            <Node pos="l" depth="3" NCoef="0" IVar="-1" Cut="0.0000000000000000e+00" cType="1" res="-1.1849721893668175e-02" rms="4.7043198347091675e-01" purity="3.5027846693992615e-01" nType="-99"/>
            <Node pos="r" depth="3" NCoef="0" IVar="-1" Cut="0.0000000000000000e+00" cType="1" res="-1.1548245092853904e-03" rms="4.9057704210281372e-01" purity="4.5708644390106201e-01" nType="-99"/>
          </Node>
          <Node pos="r" depth="2" NCoef="0" IVar="9" Cut="1.5571428298950195e+01" cType="1" res="-8.3097755908966064e-02" rms="4.4215592741966248e-01" purity="2.8199449181556702e-01" nType="0">
            <Node pos="l" depth="3" NCoef="0" IVar="-1" Cut="0.0000000000000000e+00" cType="1" res="-2.3717392235994339e-02" rms="4.3219786882400513e-01" purity="2.6000049710273743e-01" nType="-99"/>
            <Node pos="r" depth="3" NCoef="0" IVar="-1" Cut="0.0000000000000000e+00" cType="1" res="-1.2869278900325298e-02" rms="4.5287567377090454e-01" purity="3.0421745777130127e-01" nType="-99"/>
          </Node>
        </Node>
        <Node pos="r" depth="1" NCoef="0" IVar="0" Cut="2.2000000000000000e+01" cType="1" res="3.8959618657827377e-02" rms="4.7063454985618591e-01" purity="6.0999375581741333e-01" nType="0">
          <Node pos="l" depth="2" NCoef="0" IVar="0" Cut="1.2000000000000000e+01" cType="1" res="5.8462925255298615e-02" rms="4.6386533975601196e-01" purity="6.5083235502243042e-01" nType="0">
            <Node pos="l" depth="3" NCoef="0" IVar="-1" Cut="0.0000000000000000e+00" cType="1" res="2.6028942316770554e-02" rms="4.1605526208877563e-01" purity="7.6938694715499878e-01" nType="-99"/>
            <Node pos="r" depth="3" NCoef="0" IVar="-1" Cut="0.0000000000000000e+00" cType="1" res="9.8521839827299118e-03" rms="4.7197508811950684e-01" purity="6.2714755535125732e-01" nType="-99"/>
          </Node>
          <Node pos="r" depth="2" NCoef="0" IVar="9" Cut="1.3380952835083008e+01" cType="1" res="-4.2750365100800991e-03" rms="4.8163154721260071e-01" purity="5.1882159709930420e-01" nType="0">
            <Node pos="l" depth="3" NCoef="0" IVar="-1" Cut="0.0000000000000000e+00" cType="1" res="-1.1117428541183472e-02" rms="4.7623214125633240e-01" purity="4.3690675497055054e-01" nType="-99"/>
            <Node pos="r" depth="3" NCoef="0" IVar="-1" Cut="0.0000000000000000e+00" cType="1" res="4.7428286634385586e-03" rms="4.8396304249763489e-01" purity="5.6500422954559326e-01" nType="-99"/>
          </Node>
        </Node>
      </Node>
    </BinaryTree>
    <BinaryTree type="DecisionTree" boostWeight="1.0000000000000000e+00" itree="13">
      <Node pos="s" depth="0" NCoef="0" IVar="7" Cut="1.1253984272480011e-01" cType="1" res="1.6308341175317764e-02" rms="3.6483308672904968e-01" purity="5.0000000000000000e-01" nType="0">
        <Node pos="l" depth="1" NCoef="0" IVar="7" Cut="7.1267165243625641e-02" cType="1" res="3.4748319536447525e-02" rms="3.8204285502433777e-01" purity="6.0182219743728638e-01" nType="0">
          <Node pos="l" depth="2" NCoef="0" IVar="5" Cut="1.3702352344989777e-01" cType="1" res="7.1145460009574890e-02" rms="3.6769285798072815e-01" purity="7.4160784482955933e-01" nType="0">
            <Node pos="l" depth="3" NCoef="0" IVar="-1" Cut="0.0000000000000000e+00" cType="1" res="2.5614243000745773e-02" rms="4.0377688407897949e-01" purity="7.8149414062500000e-01" nType="-99"/>
            <Node pos="r" depth="3" NCoef="0" IVar="-1" Cut="0.0000000000000000e+00" cType="1" res="1.1763784103095531e-02" rms="4.5326408743858337e-01" purity="6.9965535402297974e-01" nType="-99"/>
          </Node>
          <Node pos="r" depth="2" NCoef="0" IVar="0" Cut="2.3000000000000000e+01" cType="1" res="1.7704010009765625e-02" rms="4.8385804891586304e-01" purity="5.5755025148391724e-01" nType="0">
            <Node pos="l" depth="3" NCoef="0" IVar="-1" Cut="0.0000000000000000e+00" cType="1" res="7.1038845926523209e-03" rms="4.8081669211387634e-01" purity="5.9639167785644531e-01" nType="-99"/>
            <Node pos="r" depth="3" NCoef="0" IVar="-1" Cut="0.0000000000000000e+00" cType="1" res="-4.2036077938973904e-03" rms="4.8869362473487854e-01" purity="4.6771183609962463e-01" nType="-99"/>
          </Node>
        </Node>
        <Node pos="r" depth="1" NCoef="0" IVar="0" Cut="1.8000000000000000e+01" cType="1" res="-4.7407228499650955e-02" rms="4.6635428071022034e-01" purity="3.5554948449134827e-01" nType="0">
          <Node pos="l" depth="2" NCoef="0" IVar="1" Cut="4.7304417937994003e-02" cType="1" res="9.2671347374562174e-05" rms="3.3937457203865051e-01" purity="4.8767694830894470e-01" nType="0">
            <Node pos="l" depth="3" NCoef="0" IVar="-1" Cut="0.0000000000000000e+00" cType="1" res="4.5760283246636391e-03" rms="4.9398991465568542e-01" purity="5.4019039869308472e-01" nType="-99"/>
            <Node pos="r" depth="3" NCoef="0" IVar="-1" Cut="0.0000000000000000e+00" cType="1" res="-5.4670721292495728e-03" rms="4.9106624722480774e-01" purity="4.3350607156753540e-01" nType="-99"/>
          </Node>
          <Node pos="r" depth="2" NCoef="0" IVar="1" Cut="5.7126905769109726e-02" cType="1" res="-6.0003295540809631e-02" rms="4.5166185498237610e-01" purity="3.1098690629005432e-01" nType="0">
            <Node pos="l" depth="3" NCoef="0" IVar="-1" Cut="0.0000000000000000e+00" cType="1" res="-1.0751976631581783e-02" rms="4.6801686286926270e-01" purity="3.3925464749336243e-01" nType="-99"/>
            <Node pos="r" depth="3" NCoef="0" IVar="-1" Cut="0.0000000000000000e+00" cType="1" res="-2.3408086970448494e-02" rms="4.1241824626922607e-01" purity="2.2048731148242950e-01" nType="-99"/>
          </Node>
        </Node>
      </Node>
    </BinaryTree>
    <BinaryTree type="DecisionTree" boostWeight="1.0000000000000000e+00" itree="14">
      <Node pos="s" depth="0" NCoef="0" IVar="1" Cut="4.0188919752836227e-02" cType="1" res="1.5067583881318569e-02" rms="3.6447080969810486e-01" purity="5.0000000000000000e-01" nType="0">
        <Node pos="l" depth="1" NCoef="0" IVar="1" Cut="1.7295878380537033e-02" cType="1" res="3.2504048198461533e-02" rms="3.7866640090942383e-01" purity="6.0959708690643311e-01" nType="0">
          <Node pos="l" depth="2" NCoef="0" IVar="5" Cut="1.3575316965579987e-01" cType="1" res="6.8372860550880432e-02" rms="3.5718801617622375e-01" purity="7.6623147726058960e-01" nType="0">
            <Node pos="l" depth="3" NCoef="0" IVar="-1" Cut="0.0000000000000000e+00" cType="1" res="2.8516743332147598e-02" rms="3.8111078739166260e-01" purity="8.2111650705337524e-01" nType="-99"/>
            <Node pos="r" depth="3" NCoef="0" IVar="-1" Cut="0.0000000000000000e+00" cType="1" res="1.0916179046034813e-02" rms="4.4802322983741760e-01" purity="7.1710288524627686e-01" nType="-99"/>
          </Node>
          <Node pos="r" depth="2" NCoef="0" IVar="0" Cut="1.3000000000000000e+01" cType="1" res="1.7998537048697472e-02" rms="4.8466187715530396e-01" purity="5.6803882122039795e-01" nType="0">
            <Node pos="l" depth="3" NCoef="0" IVar="-1" Cut="0.0000000000000000e+00" cType="1" res="1.8345242366194725e-02" rms="4.4172325730323792e-01" purity="7.2932016849517822e-01" nType="-99"/>
            <Node pos="r" depth="3" NCoef="0" IVar="-1" Cut="0.0000000000000000e+00" cType="1" res="1.7301385523751378e-03" rms="4.8990100622177124e-01" purity="5.4443407058715820e-01" nType="-99"/>
          </Node>
        </Node>
        <Node pos="r" depth="1" NCoef="0" IVar="0" Cut="1.5000000000000000e+01" cType="1" res="-4.2257402092218399e-02" rms="4.6553057432174683e-01" purity="3.5217103362083435e-01" nType="0">
          <Node pos="l" depth="2" NCoef="0" IVar="-1" Cut="0.0000000000000000e+00" cType="1" res="4.8973429948091507e-03" rms="4.9412000179290771e-01" purity="5.4249024391174316e-01" nType="-99"/>
          <Node pos="r" depth="2" NCoef="0" IVar="1" Cut="5.9266477823257446e-02" cType="1" res="-4.7641217708587646e-02" rms="4.5266336202621460e-01" purity="3.2307288050651550e-01" nType="0">
            <Node pos="l" depth="3" NCoef="0" IVar="-1" Cut="0.0000000000000000e+00" cType="1" res="-8.7708728387951851e-03" rms="4.6904462575912476e-01" purity="3.4527409076690674e-01" nType="-99"/>
            <Node pos="r" depth="3" NCoef="0" IVar="-1" Cut="0.0000000000000000e+00" cType="1" res="-2.1793628111481667e-02" rms="4.2170885205268860e-01" purity="2.3834304511547089e-01" nType="-99"/>
          </Node>
        </Node>
      </Node>
    </BinaryTree>
    <BinaryTree type="DecisionTree" boostWeight="1.0000000000000000e+00" itree="15">
      <Node pos="s" depth="0" NCoef="0" IVar="1" Cut="2.8742402791976929e-02" cType="1" res="1.4347475953400135e-02" rms="3.6408668756484985e-01" purity="5.0000000000000000e-01" nType="0">
        <Node pos="l" depth="1" NCoef="0" IVar="5" Cut="1.6189004480838776e-01" cType="1" res="4.4000454246997833e-02" rms="3.7577897310256958e-01" purity="6.8621343374252319e-01" nType="0">
          <Node pos="l" depth="2" NCoef="0" IVar="4" Cut="1.8542250990867615e-01" cType="1" res="6.3391625881195068e-02" rms="3.6838436126708984e-01" purity="7.3301768302917480e-01" nType="0">
            <Node pos="l" depth="3" NCoef="0" IVar="-1" Cut="0.0000000000000000e+00" cType="1" res="2.8420016169548035e-02" rms="3.8156378269195557e-01" purity="8.1837648153305054e-01" nType="-99"/>
            <Node pos="r" depth="3" NCoef="0" IVar="-1" Cut="0.0000000000000000e+00" cType="1" res="1.1357936076819897e-02" rms="4.5755460858345032e-01" purity="6.8769270181655884e-01" nType="-99"/>
          </Node>
          <Node pos="r" depth="2" NCoef="0" IVar="0" Cut="1.8000000000000000e+01" cType="1" res="1.9425868988037109e-02" rms="4.7635084390640259e-01" purity="6.3441944122314453e-01" nType="0">
            <Node pos="l" depth="3" NCoef="0" IVar="-1" Cut="0.0000000000000000e+00" cType="1" res="9.6329022198915482e-03" rms="4.5916691422462463e-01" purity="6.9068688154220581e-01" nType="-99"/>
            <Node pos="r" depth="3" NCoef="0" IVar="-1" Cut="0.0000000000000000e+00" cType="1" res="3.6802291288040578e-04" rms="4.8771804571151733e-01" purity="5.9346848726272583e-01" nType="-99"/>
          </Node>
        </Node>
        <Node pos="r" depth="1" NCoef="0" IVar="0" Cut="2.5000000000000000e+01" cType="1" res="-2.2894490510225296e-02" rms="4.7557747364044189e-01" purity="4.1219767928123474e-01" nType="0">
          <Node pos="l" depth="2" NCoef="0" IVar="0" Cut="1.3000000000000000e+01" cType="1" res="-5.2938899025321007e-03" rms="4.8492795228958130e-01" purity="4.5990809798240662e-01" nType="0">
            <Node pos="l" depth="3" NCoef="0" IVar="-1" Cut="0.0000000000000000e+00" cType="1" res="1.2757205404341221e-02" rms="4.7483843564987183e-01" purity="6.4067089557647705e-01" nType="-99"/>
            <Node pos="r" depth="3" NCoef="0" IVar="-1" Cut="0.0000000000000000e+00" cType="1" res="-3.0085246544331312e-03" rms="4.8558989167213440e-01" purity="4.3485519289970398e-01" nType="-99"/>
          </Node>
          <Node pos="r" depth="2" NCoef="0" IVar="9" Cut="1.4428571701049805e+01" cType="1" res="-6.2394060194492340e-02" rms="4.4982939958572388e-01" purity="3.0320721864700317e-01" nType="0">
            <Node pos="l" depth="3" NCoef="0" IVar="-1" Cut="0.0000000000000000e+00" cType="1" res="-2.1075386554002762e-02" rms="4.3971231579780579e-01" purity="2.8051990270614624e-01" nType="-99"/>
            <Node pos="r" depth="3" NCoef="0" IVar="-1" Cut="0.0000000000000000e+00" cType="1" res="-1.0130469687283039e-02" rms="4.5557337999343872e-01" purity="3.1479156017303467e-01" nType="-99"/>
          </Node>
        </Node>
      </Node>
    </BinaryTree>
    <BinaryTree type="DecisionTree" boostWeight="1.0000000000000000e+00" itree="16">
      <Node pos="s" depth="0" NCoef="0" IVar="7" Cut="1.2238900363445282e-01" cType="1" res="1.3219743035733700e-02" rms="3.6379432678222656e-01" purity="5.0000000000000000e-01" nType="0">
        <Node pos="l" depth="1" NCoef="0" IVar="0" Cut="2.0000000000000000e+01" cType="1" res="2.0088326185941696e-02" rms="4.7361785173416138e-01" purity="5.7164913415908813e-01" nType="0">
          <Node pos="l" depth="2" NCoef="0" IVar="0" Cut="1.2000000000000000e+01" cType="1" res="4.1259471327066422e-02" rms="4.6519550681114197e-01" purity="6.4153832197189331e-01" nType="0">
            <Node pos="l" depth="3" NCoef="0" IVar="-1" Cut="0.0000000000000000e+00" cType="1" res="2.0019920542836189e-02" rms="4.2146465182304382e-01" purity="7.5798994302749634e-01" nType="-99"/>
            <Node pos="r" depth="3" NCoef="0" IVar="-1" Cut="0.0000000000000000e+00" cType="1" res="6.5952804870903492e-03" rms="4.7386220097541809e-01" purity="6.1538559198379517e-01" nType="-99"/>
          </Node>
          <Node pos="r" depth="2" NCoef="0" IVar="9" Cut="1.3095237731933594e+01" cType="1" res="-3.6211763508617878e-03" rms="4.8032611608505249e-01" purity="4.9179902672767639e-01" nType="0">
            <Node pos="l" depth="3" NCoef="0" IVar="-1" Cut="0.0000000000000000e+00" cType="1" res="-8.0827893689274788e-03" rms="4.7774907946586609e-01" purity="4.6227419376373291e-01" nType="-99"/>
            <Node pos="r" depth="3" NCoef="0" IVar="-1" Cut="0.0000000000000000e+00" cType="1" res="1.5623514773324132e-03" rms="4.8277595639228821e-01" purity="5.0175124406814575e-01" nType="-99"/>
          </Node>
        </Node>
        <Node pos="r" depth="1" NCoef="0" IVar="0" Cut="2.6000000000000000e+01" cType="1" res="-4.9123160541057587e-02" rms="4.5695218443870544e-01" purity="3.2462325692176819e-01" nType="0">
          <Node pos="l" depth="2" NCoef="0" IVar="1" Cut="5.1654201000928879e-02" cType="1" res="-1.8320469185709953e-02" rms="3.9626663923263550e-01" purity="3.6708790063858032e-01" nType="0">
            <Node pos="l" depth="3" NCoef="0" IVar="-1" Cut="0.0000000000000000e+00" cType="1" res="-3.2555186189711094e-03" rms="4.8559841513633728e-01" purity="4.1475546360015869e-01" nType="-99"/>
            <Node pos="r" depth="3" NCoef="0" IVar="-1" Cut="0.0000000000000000e+00" cType="1" res="-1.2145001441240311e-02" rms="4.5613962411880493e-01" purity="3.1275495886802673e-01" nType="-99"/>
          </Node>
          <Node pos="r" depth="2" NCoef="0" IVar="-1" Cut="0.0000000000000000e+00" cType="1" res="-1.8544305115938187e-02" rms="4.2160180211067200e-01" purity="2.3730546236038208e-01" nType="-99"/>
        </Node>
      </Node>
    </BinaryTree>
    <BinaryTree type="DecisionTree" boostWeight="1.0000000000000000e+00" itree="17">
      <Node pos="s" depth="0" NCoef="0" IVar="10" Cut="3.3975553512573242e-01" cType="1" res="1.2162747792899609e-02" rms="3.6357432603836060e-01" purity="5.0000000000000000e-01" nType="0">
        <Node pos="l" depth="1" NCoef="0" IVar="10" Cut="3.0314588546752930e-01" cType="1" res="-6.3567827455699444e-03" rms="3.3432567119598389e-01" purity="3.6415043473243713e-01" nType="0">
          <Node pos="l" depth="2" NCoef="0" IVar="7" Cut="1.3709799945354462e-01" cType="1" res="-1.9161297008395195e-02" rms="3.0385604500770569e-01" purity="2.7810880541801453e-01" nType="0">
            <Node pos="l" depth="3" NCoef="0" IVar="-1" Cut="0.0000000000000000e+00" cType="1" res="-9.7077330574393272e-03" rms="4.5836251974105835e-01" purity="3.1568574905395508e-01" nType="-99"/>
            <Node pos="r" depth="3" NCoef="0" IVar="-1" Cut="0.0000000000000000e+00" cType="1" res="-1.7733562737703323e-02" rms="4.2537841200828552e-01" purity="2.4797099828720093e-01" nType="-99"/>
          </Node>
          <Node pos="r" depth="2" NCoef="0" IVar="9" Cut="1.4142857551574707e+01" cType="1" res="-1.9480676855891943e-03" rms="3.5541269183158875e-01" purity="4.0484201908111572e-01" nType="0">
            <Node pos="l" depth="3" NCoef="0" IVar="-1" Cut="0.0000000000000000e+00" cType="1" res="-1.2051851488649845e-02" rms="4.6301847696304321e-01" purity="3.4828472137451172e-01" nType="-99"/>
            <Node pos="r" depth="3" NCoef="0" IVar="-1" Cut="0.0000000000000000e+00" cType="1" res="-3.1243928242474794e-04" rms="4.8668035864830017e-01" purity="4.3005439639091492e-01" nType="-99"/>
          </Node>
        </Node>
        <Node pos="r" depth="1" NCoef="0" IVar="7" Cut="6.0383915901184082e-02" cType="1" res="2.7157511562108994e-02" rms="3.8498222827911377e-01" purity="6.0999375581741333e-01" nType="0">
          <Node pos="l" depth="2" NCoef="0" IVar="-1" Cut="0.0000000000000000e+00" cType="1" res="1.8980529159307480e-02" rms="4.0777406096458435e-01" purity="7.7924966812133789e-01" nType="-99"/>
          <Node pos="r" depth="2" NCoef="0" IVar="0" Cut="2.5000000000000000e+01" cType="1" res="1.7438385635614395e-02" rms="4.7789883613586426e-01" purity="5.8130210638046265e-01" nType="0">
            <Node pos="l" depth="3" NCoef="0" IVar="-1" Cut="0.0000000000000000e+00" cType="1" res="5.7765664532780647e-03" rms="4.7598853707313538e-01" purity="6.0674011707305908e-01" nType="-99"/>
            <Node pos="r" depth="3" NCoef="0" IVar="-1" Cut="0.0000000000000000e+00" cType="1" res="-5.1314001902937889e-03" rms="4.8378235101699829e-01" purity="4.7200268507003784e-01" nType="-99"/>
          </Node>
        </Node>
      </Node>
    </BinaryTree>
    <BinaryTree type="DecisionTree" boostWeight="1.0000000000000000e+00" itree="18">
      <Node pos="s" depth="0" NCoef="0" IVar="7" Cut="9.2841528356075287e-02" cType="1" res="1.1458120308816433e-02" rms="3.6336609721183777e-01" purity="5.0000000000000000e-01" nType="0">
        <Node pos="l" depth="1" NCoef="0" IVar="5" Cut="1.6869279742240906e-01" cType="1" res="3.4747064113616943e-02" rms="3.8029253482818604e-01" purity="6.6845995187759399e-01" nType="0">
          <Node pos="l" depth="2" NCoef="0" IVar="4" Cut="1.6986998915672302e-01" cType="1" res="4.9343615770339966e-02" rms="3.7189930677413940e-01" purity="7.0923024415969849e-01" nType="0">
            <Node pos="l" depth="3" NCoef="0" IVar="-1" Cut="0.0000000000000000e+00" cType="1" res="2.5768257677555084e-02" rms="3.7810257077217102e-01" purity="8.2190328836441040e-01" nType="-99"/>
            <Node pos="r" depth="3" NCoef="0" IVar="-1" Cut="0.0000000000000000e+00" cType="1" res="8.5873976349830627e-03" rms="4.5960900187492371e-01" purity="6.6709214448928833e-01" nType="-99"/>
          </Node>
          <Node pos="r" depth="2" NCoef="0" IVar="0" Cut="1.7000000000000000e+01" cType="1" res="1.1995595879852772e-02" rms="4.7776851058006287e-01" purity="6.1408203840255737e-01" nType="0">
            <Node pos="l" depth="3" NCoef="0" IVar="-1" Cut="0.0000000000000000e+00" cType="1" res="6.8780058063566685e-03" rms="4.6147355437278748e-01" purity="6.8076407909393311e-01" nType="-99"/>
            <Node pos="r" depth="3" NCoef="0" IVar="-1" Cut="0.0000000000000000e+00" cType="1" res="1.5085405902937055e-04" rms="4.8688215017318726e-01" purity="5.7429552078247070e-01" nType="-99"/>
          </Node>
        </Node>
        <Node pos="r" depth="1" NCoef="0" IVar="1" Cut="5.1749061793088913e-02" cType="1" res="-4.8807097482495010e-04" rms="3.5377559065818787e-01" purity="4.1358754038810730e-01" nType="0">
          <Node pos="l" depth="2" NCoef="0" IVar="0" Cut="1.5000000000000000e+01" cType="1" res="-6.4026121981441975e-03" rms="4.8466941714286804e-01" purity="4.6006953716278076e-01" nType="0">
            <Node pos="l" depth="3" NCoef="0" IVar="-1" Cut="0.0000000000000000e+00" cType="1" res="7.9951388761401176e-03" rms="4.7902908921241760e-01" purity="6.2369048595428467e-01" nType="-99"/>
            <Node pos="r" depth="3" NCoef="0" IVar="-1" Cut="0.0000000000000000e+00" cType="1" res="-3.1052697449922562e-03" rms="4.8527419567108154e-01" purity="4.2876818776130676e-01" nType="-99"/>
          </Node>
          <Node pos="r" depth="2" NCoef="0" IVar="1" Cut="6.1544161289930344e-02" cType="1" res="-1.6565395519137383e-02" rms="3.2180610299110413e-01" purity="2.8775504231452942e-01" nType="0">
            <Node pos="l" depth="3" NCoef="0" IVar="-1" Cut="0.0000000000000000e+00" cType="1" res="-8.7572755292057991e-03" rms="4.5247551798820496e-01" purity="3.0989113450050354e-01" nType="-99"/>
            <Node pos="r" depth="3" NCoef="0" IVar="-1" Cut="0.0000000000000000e+00" cType="1" res="-1.8732840195298195e-02" rms="4.2304348945617676e-01" purity="2.4754352867603302e-01" nType="-99"/>
          </Node>
        </Node>
      </Node>
    </BinaryTree>
    <BinaryTree type="DecisionTree" boostWeight="1.0000000000000000e+00" itree="19">
      <Node pos="s" depth="0" NCoef="0" IVar="1" Cut="4.0188919752836227e-02" cType="1" res="1.0939677245914936e-02" rms="3.6312082409858704e-01" purity="5.0000000000000000e-01" nType="0">
        <Node pos="l" depth="1" NCoef="0" IVar="5" Cut="2.0475353300571442e-01" cType="1" res="2.2395765408873558e-02" rms="3.7746062874794006e-01" purity="6.0959708690643311e-01" nType="0">
          <Node pos="l" depth="2" NCoef="0" IVar="4" Cut="2.0071493089199066e-01" cType="1" res="3.2550696283578873e-02" rms="3.7753942608833313e-01" purity="6.4549380540847778e-01" nType="0">
            <Node pos="l" depth="3" NCoef="0" IVar="-1" Cut="0.0000000000000000e+00" cType="1" res="1.8058562651276588e-02" rms="4.1164097189903259e-01" purity="7.7197748422622681e-01" nType="-99"/>
            <Node pos="r" depth="3" NCoef="0" IVar="-1" Cut="0.0000000000000000e+00" cType="1" res="4.0970724076032639e-03" rms="4.7754219174385071e-01" purity="5.9778958559036255e-01" nType="-99"/>
          </Node>
          <Node pos="r" depth="2" NCoef="0" IVar="0" Cut="2.4000000000000000e+01" cType="1" res="-4.8722019419074059e-03" rms="4.8846501111984253e-01" purity="5.4135280847549438e-01" nType="0">
            <Node pos="l" depth="3" NCoef="0" IVar="-1" Cut="0.0000000000000000e+00" cType="1" res="8.5224985377863050e-04" rms="4.8658716678619385e-01" purity="5.7461988925933838e-01" nType="-99"/>
            <Node pos="r" depth="3" NCoef="0" IVar="-1" Cut="0.0000000000000000e+00" cType="1" res="-5.4659261368215084e-03" rms="4.9232700467109680e-01" purity="4.6040034294128418e-01" nType="-99"/>
          </Node>
        </Node>
        <Node pos="r" depth="1" NCoef="0" IVar="0" Cut="2.9000000000000000e+01" cType="1" res="-2.8203928843140602e-02" rms="4.6439304947853088e-01" purity="3.5217103362083435e-01" nType="0">
          <Node pos="l" depth="2" NCoef="0" IVar="1" Cut="5.9266503900289536e-02" cType="1" res="-5.4504605941474438e-03" rms="3.7609431147575378e-01" purity="3.7671810388565063e-01" nType="0">
            <Node pos="l" depth="3" NCoef="0" IVar="-1" Cut="0.0000000000000000e+00" cType="1" res="-2.2056733723729849e-03" rms="4.7921386361122131e-01" purity="3.9892020821571350e-01" nType="-99"/>
            <Node pos="r" depth="3" NCoef="0" IVar="-1" Cut="0.0000000000000000e+00" cType="1" res="-1.2884271331131458e-02" rms="4.4276064634323120e-01" purity="2.8445225954055786e-01" nType="-99"/>
          </Node>
          <Node pos="r" depth="2" NCoef="0" IVar="-1" Cut="0.0000000000000000e+00" cType="1" res="-1.6886545345187187e-02" rms="4.1943177580833435e-01" purity="2.3403644561767578e-01" nType="-99"/>
        </Node>
      </Node>
    </BinaryTree>
    <BinaryTree type="DecisionTree" boostWeight="1.0000000000000000e+00" itree="20">
      <Node pos="s" depth="0" NCoef="0" IVar="10" Cut="3.3975553512573242e-01" cType="1" res="1.0383727028965950e-02" rms="3.6296004056930542e-01" purity="5.0000000000000000e-01" nType="0">
        <Node pos="l" depth="1" NCoef="0" IVar="10" Cut="3.1229829788208008e-01" cType="1" res="-3.5215734969824553e-03" rms="3.3400377631187439e-01" purity="3.6415043473243713e-01" nType="0">
          <Node pos="l" depth="2" NCoef="0" IVar="9" Cut="1.5571428298950195e+01" cType="1" res="-1.2102206237614155e-02" rms="3.2008072733879089e-01" purity="3.0251565575599670e-01" nType="0">
            <Node pos="l" depth="3" NCoef="0" IVar="-1" Cut="0.0000000000000000e+00" cType="1" res="-1.5965797007083893e-02" rms="4.3604269623756409e-01" purity="2.7413365244865417e-01" nType="-99"/>
            <Node pos="r" depth="3" NCoef="0" IVar="-1" Cut="0.0000000000000000e+00" cType="1" res="-5.5818692781031132e-03" rms="4.5810273289680481e-01" purity="3.2035556435585022e-01" nType="-99"/>
          </Node>
          <Node pos="r" depth="2" NCoef="0" IVar="9" Cut="1.4142857551574707e+01" cType="1" res="2.4479394778609276e-03" rms="3.6305490136146545e-01" purity="4.2292442917823792e-01" nType="0">
            <Node pos="l" depth="3" NCoef="0" IVar="-1" Cut="0.0000000000000000e+00" cType="1" res="-8.3406250923871994e-03" rms="4.6881416440010071e-01" purity="3.6598277091979980e-01" nType="-99"/>
            <Node pos="r" depth="3" NCoef="0" IVar="-1" Cut="0.0000000000000000e+00" cType="1" res="1.5548676019534469e-03" rms="4.9001294374465942e-01" purity="4.5213007926940918e-01" nType="-99"/>
          </Node>
        </Node>
        <Node pos="r" depth="1" NCoef="0" IVar="11" Cut="4.9812868237495422e-03" cType="1" res="2.1642474457621574e-02" rms="3.8444384932518005e-01" purity="6.0999375581741333e-01" nType="0">
          <Node pos="l" depth="2" NCoef="0" IVar="5" Cut="1.2919685244560242e-01" cType="1" res="3.5319533199071884e-02" rms="3.7616309523582458e-01" purity="6.7168188095092773e-01" nType="0">
            <Node pos="l" depth="3" NCoef="0" IVar="-1" Cut="0.0000000000000000e+00" cType="1" res="1.6222145408391953e-02" rms="4.2154237627983093e-01" purity="7.3851239681243896e-01" nType="-99"/>
            <Node pos="r" depth="3" NCoef="0" IVar="-1" Cut="0.0000000000000000e+00" cType="1" res="4.9218395724892616e-03" rms="4.6801146864891052e-01" purity="6.3302254676818848e-01" nType="-99"/>
          </Node>
          <Node pos="r" depth="2" NCoef="0" IVar="0" Cut="2.5000000000000000e+01" cType="1" res="3.0837655067443848e-03" rms="4.8162925243377686e-01" purity="5.5482769012451172e-01" nType="0">
            <Node pos="l" depth="3" NCoef="0" IVar="-1" Cut="0.0000000000000000e+00" cType="1" res="2.4799990933388472e-03" rms="4.8103141784667969e-01" purity="5.8305054903030396e-01" nType="-99"/>
            <Node pos="r" depth="3" NCoef="0" IVar="-1" Cut="0.0000000000000000e+00" cType="1" res="-6.7337225191295147e-03" rms="4.8246839642524719e-01" purity="4.3975076079368591e-01" nType="-99"/>
          </Node>
        </Node>
      </Node>
    </BinaryTree>
    <BinaryTree type="DecisionTree" boostWeight="1.0000000000000000e+00" itree="21">
      <Node pos="s" depth="0" NCoef="0" IVar="0" Cut="1.1000000000000000e+01" cType="1" res="1.0245639714412391e-05" rms="4.6837431192398071e-01" purity="5.0000000000000000e-01" nType="0">
        <Node pos="l" depth="1" NCoef="0" IVar="-1" Cut="0.0000000000000000e+00" cType="1" res="2.0987011492252350e-02" rms="4.1800054907798767e-01" purity="7.6134479045867920e-01" nType="-99"/>
        <Node pos="r" depth="1" NCoef="0" IVar="1" Cut="4.5912176370620728e-02" cType="1" res="-1.0050917044281960e-03" rms="4.5659753680229187e-01" purity="4.8500761389732361e-01" nType="0">
          <Node pos="l" depth="2" NCoef="0" IVar="10" Cut="3.6418884992599487e-01" cType="1" res="1.0417682118713856e-02" rms="4.6524280309677124e-01" purity="5.6103414297103882e-01" nType="0">
            <Node pos="l" depth="3" NCoef="0" IVar="-1" Cut="0.0000000000000000e+00" cType="1" res="-1.5295445919036865e-03" rms="4.8961493372917175e-01" purity="4.6657255291938782e-01" nType="-99"/>
            <Node pos="r" depth="3" NCoef="0" IVar="-1" Cut="0.0000000000000000e+00" cType="1" res="5.2649984136223793e-03" rms="4.6413540840148926e-01" purity="6.5494960546493530e-01" nType="-99"/>
          </Node>
          <Node pos="r" depth="2" NCoef="0" IVar="9" Cut="1.5571428298950195e+01" cType="1" res="-2.6917744427919388e-02" rms="4.3524113297462463e-01" purity="3.1254082918167114e-01" nType="0">
            <Node pos="l" depth="3" NCoef="0" IVar="-1" Cut="0.0000000000000000e+00" cType="1" res="-1.1286127381026745e-02" rms="4.4930970668792725e-01" purity="3.0553328990936279e-01" nType="-99"/>
            <Node pos="r" depth="3" NCoef="0" IVar="-1" Cut="0.0000000000000000e+00" cType="1" res="-3.9472552016377449e-03" rms="4.5815959572792053e-01" purity="3.2101356983184814e-01" nType="-99"/>
          </Node>
        </Node>
      </Node>
    </BinaryTree>
    <BinaryTree type="DecisionTree" boostWeight="1.0000000000000000e+00" itree="22">
      <Node pos="s" depth="0" NCoef="0" IVar="0" Cut="2.2000000000000000e+01" cType="1" res="1.0795828529808205e-05" rms="4.6816557645797729e-01" purity="5.0000000000000000e-01" nType="0">
        <Node pos="l" depth="1" NCoef="0" IVar="0" Cut="1.1000000000000000e+01" cType="1" res="1.6087744385004044e-02" rms="4.7099444270133972e-01" purity="5.7464301586151123e-01" nType="0">
          <Node pos="l" depth="2" NCoef="0" IVar="-1" Cut="0.0000000000000000e+00" cType="1" res="1.9168287515640259e-02" rms="4.1800093650817871e-01" purity="7.6134479045867920e-01" nType="-99"/>
          <Node pos="r" depth="2" NCoef="0" IVar="5" Cut="2.2705514729022980e-01" cType="1" res="0.0000000000000000e+00" rms="0.0000000000000000e+00" purity="5.5582410097122192e-01" nType="0">
            <Node pos="l" depth="3" NCoef="0" IVar="-1" Cut="0.0000000000000000e+00" cType="1" res="4.7882436774671078e-03" rms="4.6921539306640625e-01" purity="6.0680848360061646e-01" nType="-99"/>
            <Node pos="r" depth="3" NCoef="0" IVar="-1" Cut="0.0000000000000000e+00" cType="1" res="-2.6511454489082098e-03" rms="4.8587200045585632e-01" purity="4.6416932344436646e-01" nType="-99"/>
          </Node>
        </Node>
        <Node pos="r" depth="1" NCoef="0" IVar="7" Cut="1.2299124151468277e-01" cType="1" res="-2.2749507799744606e-02" rms="4.6150326728820801e-01" purity="3.9146685600280762e-01" nType="0">
          <Node pos="l" depth="2" NCoef="0" IVar="9" Cut="1.3095237731933594e+01" cType="1" res="-9.4648851081728935e-03" rms="4.7920334339141846e-01" purity="4.7356995940208435e-01" nType="0">
            <Node pos="l" depth="3" NCoef="0" IVar="-1" Cut="0.0000000000000000e+00" cType="1" res="-9.9329687654972076e-03" rms="4.7434690594673157e-01" purity="4.3634742498397827e-01" nType="-99"/>
            <Node pos="r" depth="3" NCoef="0" IVar="-1" Cut="0.0000000000000000e+00" cType="1" res="4.5535311801359057e-04" rms="4.8168215155601501e-01" purity="4.8561316728591919e-01" nType="-99"/>
          </Node>
          <Node pos="r" depth="2" NCoef="0" IVar="9" Cut="1.5571428298950195e+01" cType="1" res="-4.4378045946359634e-02" rms="4.3025746941566467e-01" purity="2.5779572129249573e-01" nType="0">
            <Node pos="l" depth="3" NCoef="0" IVar="-1" Cut="0.0000000000000000e+00" cType="1" res="-1.4569262042641640e-02" rms="4.2417502403259277e-01" purity="2.4477897584438324e-01" nType="-99"/>
            <Node pos="r" depth="3" NCoef="0" IVar="-1" Cut="0.0000000000000000e+00" cType="1" res="-6.7823673598468304e-03" rms="4.4076052308082581e-01" purity="2.7227157354354858e-01" nType="-99"/>
          </Node>
        </Node>
      </Node>
    </BinaryTree>
    <BinaryTree type="DecisionTree" boostWeight="1.0000000000000000e+00" itree="23">
      <Node pos="s" depth="0" NCoef="0" IVar="7" Cut="9.2841528356075287e-02" cType="1" res="8.5823070257902145e-03" rms="3.6251613497734070e-01" purity="5.0000000000000000e-01" nType="0">
        <Node pos="l" depth="1" NCoef="0" IVar="5" Cut="1.1246186494827271e-01" cType="1" res="2.4360906332731247e-02" rms="3.7944075465202332e-01" purity="6.6845995187759399e-01" nType="0">
          <Node pos="l" depth="2" NCoef="0" IVar="-1" Cut="0.0000000000000000e+00" cType="1" res="1.3220845721662045e-02" rms="4.2358276247978210e-01" purity="7.3428630828857422e-01" nType="-99"/>
          <Node pos="r" depth="2" NCoef="0" IVar="9" Cut="1.4142857551574707e+01" cType="1" res="1.5756404027342796e-02" rms="3.8530912995338440e-01" purity="6.4448165893554688e-01" nType="0">
            <Node pos="l" depth="3" NCoef="0" IVar="-1" Cut="0.0000000000000000e+00" cType="1" res="2.3653681273572147e-04" rms="4.6872296929359436e-01" purity="6.3171082735061646e-01" nType="-99"/>
            <Node pos="r" depth="3" NCoef="0" IVar="-1" Cut="0.0000000000000000e+00" cType="1" res="5.9175128117203712e-03" rms="4.6515631675720215e-01" purity="6.5658503770828247e-01" nType="-99"/>
          </Node>
        </Node>
        <Node pos="r" depth="1" NCoef="0" IVar="0" Cut="1.3000000000000000e+01" cType="1" res="-1.2891120277345181e-02" rms="4.7334808111190796e-01" purity="4.1358754038810730e-01" nType="0">
          <Node pos="l" depth="2" NCoef="0" IVar="-1" Cut="0.0000000000000000e+00" cType="1" res="8.9446818456053734e-03" rms="4.7330081462860107e-01" purity="6.3982856273651123e-01" nType="-99"/>
          <Node pos="r" depth="2" NCoef="0" IVar="1" Cut="5.1749061793088913e-02" cType="1" res="-1.3816841877996922e-02" rms="4.6236556768417358e-01" purity="3.9416193962097168e-01" nType="0">
            <Node pos="l" depth="3" NCoef="0" IVar="-1" Cut="0.0000000000000000e+00" cType="1" res="-1.7746115336194634e-03" rms="4.8535710573196411e-01" purity="4.4054928421974182e-01" nType="-99"/>
            <Node pos="r" depth="3" NCoef="0" IVar="-1" Cut="0.0000000000000000e+00" cType="1" res="-9.8348772153258324e-03" rms="4.3824422359466553e-01" purity="2.7245560288429260e-01" nType="-99"/>
          </Node>
        </Node>
      </Node>
    </BinaryTree>
    <BinaryTree type="DecisionTree" boostWeight="1.0000000000000000e+00" itree="24">
      <Node pos="s" depth="0" NCoef="0" IVar="0" Cut="2.6000000000000000e+01" cType="1" res="9.2901045718463138e-06" rms="4.6781086921691895e-01" purity="5.0000000000000000e-01" nType="0">
        <Node pos="l" depth="1" NCoef="0" IVar="0" Cut="1.1000000000000000e+01" cType="1" res="9.1595007106661797e-03" rms="4.7117510437965393e-01" purity="5.4043710231781006e-01" nType="0">
          <Node pos="l" depth="2" NCoef="0" IVar="-1" Cut="0.0000000000000000e+00" cType="1" res="1.6841771081089973e-02" rms="4.1796460747718811e-01" purity="7.6134479045867920e-01" nType="-99"/>
          <Node pos="r" depth="2" NCoef="0" IVar="1" Cut="5.1635436713695526e-02" cType="1" res="0.0000000000000000e+00" rms="0.0000000000000000e+00" purity="5.2396225929260254e-01" nType="0">
            <Node pos="l" depth="3" NCoef="0" IVar="-1" Cut="0.0000000000000000e+00" cType="1" res="2.3746527731418610e-03" rms="4.7715312242507935e-01" purity="5.6455612182617188e-01" nType="-99"/>
            <Node pos="r" depth="3" NCoef="0" IVar="-1" Cut="0.0000000000000000e+00" cType="1" res="-6.0545839369297028e-03" rms="4.6047717332839966e-01" purity="3.2351693511009216e-01" nType="-99"/>
          </Node>
        </Node>
        <Node pos="r" depth="1" NCoef="0" IVar="9" Cut="1.4428571701049805e+01" cType="1" res="-3.2388065010309219e-02" rms="4.5320594310760498e-01" purity="3.5517346858978271e-01" nType="0">
          <Node pos="l" depth="2" NCoef="0" IVar="-1" Cut="0.0000000000000000e+00" cType="1" res="-1.3648506253957748e-02" rms="4.4604843854904175e-01" purity="3.3756929636001587e-01" nType="-99"/>
          <Node pos="r" depth="2" NCoef="0" IVar="7" Cut="1.2376981228590012e-01" cType="1" res="-1.7992613837122917e-02" rms="4.5663154125213623e-01" purity="3.6443206667900085e-01" nType="0">
            <Node pos="l" depth="3" NCoef="0" IVar="-1" Cut="0.0000000000000000e+00" cType="1" res="-7.5508083682507277e-04" rms="4.8062545061111450e-01" purity="4.6265694499015808e-01" nType="-99"/>
            <Node pos="r" depth="3" NCoef="0" IVar="-1" Cut="0.0000000000000000e+00" cType="1" res="-8.8614523410797119e-03" rms="4.2789903283119202e-01" purity="2.4802553653717041e-01" nType="-99"/>
          </Node>
        </Node>
      </Node>
    </BinaryTree>
    <BinaryTree type="DecisionTree" boostWeight="1.0000000000000000e+00" itree="25">
      <Node pos="s" depth="0" NCoef="0" IVar="1" Cut="2.8742402791976929e-02" cType="1" res="7.6343412511050701e-03" rms="3.6231392621994019e-01" purity="5.0000000000000000e-01" nType="0">
        <Node pos="l" depth="1" NCoef="0" IVar="5" Cut="1.8501719832420349e-01" cType="1" res="2.2076182067394257e-02" rms="3.7399044632911682e-01" purity="6.8621343374252319e-01" nType="0">
          <Node pos="l" depth="2" NCoef="0" IVar="4" Cut="1.8542250990867615e-01" cType="1" res="3.1970046460628510e-02" rms="3.6906862258911133e-01" purity="7.2097855806350708e-01" nType="0">
            <Node pos="l" depth="3" NCoef="0" IVar="-1" Cut="0.0000000000000000e+00" cType="1" res="1.6977159306406975e-02" rms="3.9334118366241455e-01" purity="8.0098211765289307e-01" nType="-99"/>
            <Node pos="r" depth="3" NCoef="0" IVar="-1" Cut="0.0000000000000000e+00" cType="1" res="4.9849124625325203e-03" rms="4.6051767468452454e-01" purity="6.7810279130935669e-01" nType="-99"/>
          </Node>
          <Node pos="r" depth="2" NCoef="0" IVar="5" Cut="2.2796836495399475e-01" cType="1" res="3.8296314887702465e-03" rms="3.8223046064376831e-01" purity="6.2209856510162354e-01" nType="0">
            <Node pos="l" depth="3" NCoef="0" IVar="-1" Cut="0.0000000000000000e+00" cType="1" res="1.8476765835657716e-03" rms="4.7334977984428406e-01" purity="6.4378917217254639e-01" nType="-99"/>
            <Node pos="r" depth="3" NCoef="0" IVar="-1" Cut="0.0000000000000000e+00" cType="1" res="-3.1067167874425650e-03" rms="4.8555061221122742e-01" purity="5.9849876165390015e-01" nType="-99"/>
          </Node>
        </Node>
        <Node pos="r" depth="1" NCoef="0" IVar="0" Cut="3.0000000000000000e+01" cType="1" res="-1.0891384445130825e-02" rms="4.7364690899848938e-01" purity="4.1219767928123474e-01" nType="0">
          <Node pos="l" depth="2" NCoef="0" IVar="1" Cut="5.9266556054353714e-02" cType="1" res="9.3867472605779767e-04" rms="3.8028398156166077e-01" purity="4.3175736069679260e-01" nType="0">
            <Node pos="l" depth="3" NCoef="0" IVar="-1" Cut="0.0000000000000000e+00" cType="1" res="-1.3827552902512252e-04" rms="4.8320874571800232e-01" purity="4.5221838355064392e-01" nType="-99"/>
            <Node pos="r" depth="3" NCoef="0" IVar="-1" Cut="0.0000000000000000e+00" cType="1" res="-9.2549938708543777e-03" rms="4.4036960601806641e-01" purity="2.8069239854812622e-01" nType="-99"/>
          </Node>
          <Node pos="r" depth="2" NCoef="0" IVar="-1" Cut="0.0000000000000000e+00" cType="1" res="-1.2228406034410000e-02" rms="4.3499737977981567e-01" purity="2.7051845192909241e-01" nType="-99"/>
        </Node>
      </Node>
    </BinaryTree>
    <BinaryTree type="DecisionTree" boostWeight="1.0000000000000000e+00" itree="26">
      <Node pos="s" depth="0" NCoef="0" IVar="0" Cut="1.9000000000000000e+01" cType="1" res="8.9239865701529197e-06" rms="4.6751710772514343e-01" purity="5.0000000000000000e-01" nType="0">
        <Node pos="l" depth="1" NCoef="0" IVar="0" Cut="1.1000000000000000e+01" cType="1" res="1.7818989232182503e-02" rms="4.6717986464500427e-01" purity="6.1070454120635986e-01" nType="0">
          <Node pos="l" depth="2" NCoef="0" IVar="-1" Cut="0.0000000000000000e+00" cType="1" res="1.5138277783989906e-02" rms="4.1791179776191711e-01" purity="7.6134479045867920e-01" nType="-99"/>
          <Node pos="r" depth="2" NCoef="0" IVar="5" Cut="1.5833988785743713e-01" cType="1" res="1.4903101138770580e-02" rms="7.5595813989639282e-01" purity="5.8820307254791260e-01" nType="0">
            <Node pos="l" depth="3" NCoef="0" IVar="-1" Cut="0.0000000000000000e+00" cType="1" res="6.7331730388104916e-03" rms="4.5287913084030151e-01" purity="6.6974383592605591e-01" nType="-99"/>
            <Node pos="r" depth="3" NCoef="0" IVar="-1" Cut="0.0000000000000000e+00" cType="1" res="1.6309537750203162e-04" rms="4.8514401912689209e-01" purity="5.4090011119842529e-01" nType="-99"/>
          </Node>
        </Node>
        <Node pos="r" depth="1" NCoef="0" IVar="9" Cut="1.3285714149475098e+01" cType="1" res="-1.1875536292791367e-02" rms="4.6478417515754700e-01" purity="4.2066457867622375e-01" nType="0">
          <Node pos="l" depth="2" NCoef="0" IVar="10" Cut="3.6688673496246338e-01" cType="1" res="-3.8861978799104691e-02" rms="4.6272757649421692e-01" purity="4.1994929313659668e-01" nType="0">
            <Node pos="l" depth="3" NCoef="0" IVar="-1" Cut="0.0000000000000000e+00" cType="1" res="-1.4515320770442486e-02" rms="4.4578173756599426e-01" purity="2.9661753773689270e-01" nType="-99"/>
            <Node pos="r" depth="3" NCoef="0" IVar="-1" Cut="0.0000000000000000e+00" cType="1" res="-4.3492377735674381e-03" rms="4.7829473018646240e-01" purity="5.1967573165893555e-01" nType="-99"/>
          </Node>
          <Node pos="r" depth="2" NCoef="0" IVar="10" Cut="3.0686423182487488e-01" cType="1" res="-4.4396007433533669e-03" rms="4.6507415175437927e-01" purity="4.2086166143417358e-01" nType="0">
            <Node pos="l" depth="3" NCoef="0" IVar="-1" Cut="0.0000000000000000e+00" cType="1" res="-8.4562813863158226e-03" rms="4.3407216668128967e-01" purity="2.6026892662048340e-01" nType="-99"/>
            <Node pos="r" depth="3" NCoef="0" IVar="-1" Cut="0.0000000000000000e+00" cType="1" res="1.4822200173512101e-03" rms="4.8050338029861450e-01" purity="4.8698148131370544e-01" nType="-99"/>
          </Node>
        </Node>
      </Node>
    </BinaryTree>
    <BinaryTree type="DecisionTree" boostWeight="1.0000000000000000e+00" itree="27">
      <Node pos="s" depth="0" NCoef="0" IVar="0" Cut="2.3000000000000000e+01" cType="1" res="7.6881451605004258e-06" rms="4.6736794710159302e-01" purity="5.0000000000000000e-01" nType="0">
        <Node pos="l" depth="1" NCoef="0" IVar="0" Cut="1.1000000000000000e+01" cType="1" res="1.0265860706567764e-02" rms="4.7088828682899475e-01" purity="5.6460839509963989e-01" nType="0">
          <Node pos="l" depth="2" NCoef="0" IVar="-1" Cut="0.0000000000000000e+00" cType="1" res="1.3791500590741634e-02" rms="4.1791599988937378e-01" purity="7.6134479045867920e-01" nType="-99"/>
          <Node pos="r" depth="2" NCoef="0" IVar="4" Cut="1.3667915761470795e-01" cType="1" res="1.1468881368637085e-01" rms="-nan" purity="5.4656761884689331e-01" nType="0">
            <Node pos="l" depth="3" NCoef="0" IVar="-1" Cut="0.0000000000000000e+00" cType="1" res="1.1336318217217922e-02" rms="4.2755490541458130e-01" purity="7.2163683176040649e-01" nType="-99"/>
            <Node pos="r" depth="3" NCoef="0" IVar="-1" Cut="0.0000000000000000e+00" cType="1" res="4.5666212099604309e-04" rms="4.7947239875793457e-01" purity="5.2939200401306152e-01" nType="-99"/>
          </Node>
        </Node>
        <Node pos="r" depth="1" NCoef="0" IVar="9" Cut="1.4428571701049805e+01" cType="1" res="-1.8289869651198387e-02" rms="4.5895498991012573e-01" purity="3.8215085864067078e-01" nType="0">
          <Node pos="l" depth="2" NCoef="0" IVar="10" Cut="3.5732498764991760e-01" cType="1" res="-3.8068532943725586e-02" rms="4.5464232563972473e-01" purity="3.7421935796737671e-01" nType="0">
            <Node pos="l" depth="3" NCoef="0" IVar="-1" Cut="0.0000000000000000e+00" cType="1" res="-1.3320422731339931e-02" rms="4.3411564826965332e-01" purity="2.7070668339729309e-01" nType="-99"/>
            <Node pos="r" depth="3" NCoef="0" IVar="-1" Cut="0.0000000000000000e+00" cType="1" res="-3.8819659966975451e-03" rms="4.7826379537582397e-01" purity="4.9153545498847961e-01" nType="-99"/>
          </Node>
          <Node pos="r" depth="2" NCoef="0" IVar="10" Cut="3.0156803131103516e-01" cType="1" res="-7.3621082119643688e-03" rms="4.6095666289329529e-01" purity="3.8653302192687988e-01" nType="0">
            <Node pos="l" depth="3" NCoef="0" IVar="-1" Cut="0.0000000000000000e+00" cType="1" res="-9.1071538627147675e-03" rms="4.2147210240364075e-01" purity="2.3582543432712555e-01" nType="-99"/>
            <Node pos="r" depth="3" NCoef="0" IVar="-1" Cut="0.0000000000000000e+00" cType="1" res="1.0553110623732209e-03" rms="4.7898459434509277e-01" purity="4.5368292927742004e-01" nType="-99"/>
          </Node>
        </Node>
      </Node>
    </BinaryTree>
    <BinaryTree type="DecisionTree" boostWeight="1.0000000000000000e+00" itree="28">
      <Node pos="s" depth="0" NCoef="0" IVar="4" Cut="2.7335831522941589e-01" cType="1" res="6.0853590257465839e-03" rms="3.6207634210586548e-01" purity="5.0000000000000000e-01" nType="0">
        <Node pos="l" depth="1" NCoef="0" IVar="5" Cut="1.9745601713657379e-01" cType="1" res="1.5194148756563663e-02" rms="3.6799818277359009e-01" purity="6.0060173273086548e-01" nType="0">
          <Node pos="l" depth="2" NCoef="0" IVar="5" Cut="1.1283172667026520e-01" cType="1" res="3.2175086438655853e-02" rms="3.6507481336593628e-01" purity="7.2891485691070557e-01" nType="0">
            <Node pos="l" depth="3" NCoef="0" IVar="-1" Cut="0.0000000000000000e+00" cType="1" res="1.7851131036877632e-02" rms="3.8769897818565369e-01" purity="8.0544483661651611e-01" nType="-99"/>
            <Node pos="r" depth="3" NCoef="0" IVar="-1" Cut="0.0000000000000000e+00" cType="1" res="6.0706040821969509e-03" rms="4.5115971565246582e-01" purity="6.9511163234710693e-01" nType="-99"/>
          </Node>
          <Node pos="r" depth="2" NCoef="0" IVar="3" Cut="2.6038482785224915e-01" cType="1" res="2.2074282169342041e-03" rms="3.6969235539436340e-01" purity="5.0247007608413696e-01" nType="0">
            <Node pos="l" depth="3" NCoef="0" IVar="-1" Cut="0.0000000000000000e+00" cType="1" res="-2.8110072016716003e-03" rms="4.7909241914749146e-01" purity="5.2245688438415527e-01" nType="-99"/>
            <Node pos="r" depth="3" NCoef="0" IVar="-1" Cut="0.0000000000000000e+00" cType="1" res="1.3726662145927548e-03" rms="4.8191753029823303e-01" purity="4.8682227730751038e-01" nType="-99"/>
          </Node>
        </Node>
        <Node pos="r" depth="1" NCoef="0" IVar="0" Cut="2.9000000000000000e+01" cType="1" res="-1.1097342707216740e-02" rms="4.7120809555053711e-01" purity="4.2839217185974121e-01" nType="0">
          <Node pos="l" depth="2" NCoef="0" IVar="10" Cut="3.2322365045547485e-01" cType="1" res="-4.6536201261915267e-04" rms="3.8663092255592346e-01" purity="4.5320105552673340e-01" nType="0">
            <Node pos="l" depth="3" NCoef="0" IVar="-1" Cut="0.0000000000000000e+00" cType="1" res="-4.4847577810287476e-03" rms="4.6490892767906189e-01" purity="3.4458839893341064e-01" nType="-99"/>
            <Node pos="r" depth="3" NCoef="0" IVar="-1" Cut="0.0000000000000000e+00" cType="1" res="7.0125487400218844e-04" rms="4.8379909992218018e-01" purity="5.2260583639144897e-01" nType="-99"/>
          </Node>
          <Node pos="r" depth="2" NCoef="0" IVar="-1" Cut="0.0000000000000000e+00" cType="1" res="-1.0133998468518257e-02" rms="4.3615958094596863e-01" purity="2.8121328353881836e-01" nType="-99"/>
        </Node>
      </Node>
    </BinaryTree>
    <BinaryTree type="DecisionTree" boostWeight="1.0000000000000000e+00" itree="29">
      <Node pos="s" depth="0" NCoef="0" IVar="1" Cut="6.3081949949264526e-02" cType="1" res="5.7535795494914055e-03" rms="3.6200070381164551e-01" purity="5.0000000000000000e-01" nType="0">
        <Node pos="l" depth="1" NCoef="0" IVar="7" Cut="5.3459115326404572e-02" cType="1" res="7.2801643982529640e-03" rms="3.6487340927124023e-01" purity="5.1468545198440552e-01" nType="0">
          <Node pos="l" depth="2" NCoef="0" IVar="-1" Cut="0.0000000000000000e+00" cType="1" res="1.4207465574145317e-02" rms="3.8899213075637817e-01" purity="8.0510926246643066e-01" nType="-99"/>
          <Node pos="r" depth="2" NCoef="0" IVar="0" Cut="1.5000000000000000e+01" cType="1" res="6.0596710682148114e-05" rms="4.7372919321060181e-01" purity="4.9734765291213989e-01" nType="0">
            <Node pos="l" depth="3" NCoef="0" IVar="-1" Cut="0.0000000000000000e+00" cType="1" res="5.1360791549086571e-03" rms="4.6053525805473328e-01" purity="6.6458535194396973e-01" nType="-99"/>
            <Node pos="r" depth="3" NCoef="0" IVar="-1" Cut="0.0000000000000000e+00" cType="1" res="-1.1473222402855754e-03" rms="4.7663989663124084e-01" purity="4.5778641104698181e-01" nType="-99"/>
          </Node>
        </Node>
        <Node pos="r" depth="1" NCoef="0" IVar="-1" Cut="0.0000000000000000e+00" cType="1" res="-1.2856480665504932e-02" rms="4.2014473676681519e-01" purity="2.4424514174461365e-01" nType="-99"/>
      </Node>
    </BinaryTree>
    <BinaryTree type="DecisionTree" boostWeight="1.0000000000000000e+00" itree="30">
      <Node pos="s" depth="0" NCoef="0" IVar="0" Cut="2.7000000000000000e+01" cType="1" res="8.3491549958125688e-06" rms="4.6705642342567444e-01" purity="5.0000000000000000e-01" nType="0">
        <Node pos="l" depth="1" NCoef="0" IVar="0" Cut="1.1000000000000000e+01" cType="1" res="5.4933126084506512e-03" rms="4.7029912471771240e-01" purity="5.3385925292968750e-01" nType="0">
          <Node pos="l" depth="2" NCoef="0" IVar="-1" Cut="0.0000000000000000e+00" cType="1" res="1.1831339448690414e-02" rms="4.1784965991973877e-01" purity="7.6134479045867920e-01" nType="-99"/>
          <Node pos="r" depth="2" NCoef="0" IVar="4" Cut="2.7335831522941589e-01" cType="1" res="0.0000000000000000e+00" rms="1.0111575102200732e-04" purity="5.1770699024200439e-01" nType="0">
            <Node pos="l" depth="3" NCoef="0" IVar="-1" Cut="0.0000000000000000e+00" cType="1" res="3.3322332892566919e-03" rms="4.6509531140327454e-01" purity="6.0821455717086792e-01" nType="-99"/>
            <Node pos="r" depth="3" NCoef="0" IVar="-1" Cut="0.0000000000000000e+00" cType="1" res="-1.4227819629013538e-03" rms="4.7980272769927979e-01" purity="4.4968664646148682e-01" nType="-99"/>
          </Node>
        </Node>
        <Node pos="r" depth="1" NCoef="0" IVar="9" Cut="1.4142857551574707e+01" cType="1" res="-2.4372031912207603e-02" rms="4.5065930485725403e-01" purity="3.4745267033576965e-01" nType="0">
          <Node pos="l" depth="2" NCoef="0" IVar="-1" Cut="0.0000000000000000e+00" cType="1" res="-1.1348428204655647e-02" rms="4.4226640462875366e-01" purity="3.2757395505905151e-01" nType="-99"/>
          <Node pos="r" depth="2" NCoef="0" IVar="5" Cut="2.5951731204986572e-01" cType="1" res="-1.1970824562013149e-02" rms="4.5475223660469055e-01" purity="3.5773593187332153e-01" nType="0">
            <Node pos="l" depth="3" NCoef="0" IVar="-1" Cut="0.0000000000000000e+00" cType="1" res="-7.4123835656791925e-04" rms="4.6628072857856750e-01" purity="4.1293737292289734e-01" nType="-99"/>
            <Node pos="r" depth="3" NCoef="0" IVar="-1" Cut="0.0000000000000000e+00" cType="1" res="-5.8280313387513161e-03" rms="4.4072991609573364e-01" purity="2.8608721494674683e-01" nType="-99"/>
          </Node>
        </Node>
      </Node>
    </BinaryTree>
    <BinaryTree type="DecisionTree" boostWeight="1.0000000000000000e+00" itree="31">
      <Node pos="s" depth="0" NCoef="0" IVar="7" Cut="1.2238900363445282e-01" cType="1" res="5.0819469615817070e-03" rms="3.6189892888069153e-01" purity="5.0000000000000000e-01" nType="0">
        <Node pos="l" depth="1" NCoef="0" IVar="4" Cut="1.3174067437648773e-01" cType="1" res="8.7176421657204628e-03" rms="3.7629175186157227e-01" purity="5.7164913415908813e-01" nType="0">
          <Node pos="l" depth="2" NCoef="0" IVar="-1" Cut="0.0000000000000000e+00" cType="1" res="1.0357039049267769e-02" rms="4.2103898525238037e-01" purity="7.3248171806335449e-01" nType="-99"/>
          <Node pos="r" depth="2" NCoef="0" IVar="9" Cut="1.2047618865966797e+01" cType="1" res="6.1979158781468868e-03" rms="3.7835770845413208e-01" purity="5.5464810132980347e-01" nType="0">
            <Node pos="l" depth="3" NCoef="0" IVar="-1" Cut="0.0000000000000000e+00" cType="1" res="-5.2108010277152061e-03" rms="4.7008991241455078e-01" purity="5.5777150392532349e-01" nType="-99"/>
            <Node pos="r" depth="3" NCoef="0" IVar="-1" Cut="0.0000000000000000e+00" cType="1" res="1.8376265652477741e-03" rms="4.7744888067245483e-01" purity="5.5405312776565552e-01" nType="-99"/>
          </Node>
        </Node>
        <Node pos="r" depth="1" NCoef="0" IVar="9" Cut="1.5571428298950195e+01" cType="1" res="-3.8172060158103704e-03" rms="3.2381039857864380e-01" purity="3.2462325692176819e-01" nType="0">
          <Node pos="l" depth="2" NCoef="0" IVar="10" Cut="3.2029095292091370e-01" cType="1" res="-8.3300741389393806e-03" rms="3.3109948039054871e-01" purity="3.2271137833595276e-01" nType="0">
            <Node pos="l" depth="3" NCoef="0" IVar="-1" Cut="0.0000000000000000e+00" cType="1" res="-1.0341796092689037e-02" rms="4.3620046973228455e-01" purity="2.7664282917976379e-01" nType="-99"/>
            <Node pos="r" depth="3" NCoef="0" IVar="-1" Cut="0.0000000000000000e+00" cType="1" res="-1.8142315093427896e-03" rms="4.7114342451095581e-01" purity="3.8377809524536133e-01" nType="-99"/>
          </Node>
          <Node pos="r" depth="2" NCoef="0" IVar="10" Cut="2.9817634820938110e-01" cType="1" res="1.6868164530023932e-03" rms="3.3446469902992249e-01" purity="3.2695546746253967e-01" nType="0">
            <Node pos="l" depth="3" NCoef="0" IVar="-1" Cut="0.0000000000000000e+00" cType="1" res="-5.5728247389197350e-03" rms="4.3837380409240723e-01" purity="2.7207624912261963e-01" nType="-99"/>
            <Node pos="r" depth="3" NCoef="0" IVar="-1" Cut="0.0000000000000000e+00" cType="1" res="3.9853397756814957e-03" rms="4.8007631301879883e-01" purity="3.8966235518455505e-01" nType="-99"/>
          </Node>
        </Node>
      </Node>
    </BinaryTree>
    <BinaryTree type="DecisionTree" boostWeight="1.0000000000000000e+00" itree="32">
      <Node pos="s" depth="0" NCoef="0" IVar="1" Cut="6.3081949949264526e-02" cType="1" res="4.9744313582777977e-03" rms="3.6184266209602356e-01" purity="5.0000000000000000e-01" nType="0">
        <Node pos="l" depth="1" NCoef="0" IVar="9" Cut="1.6238094329833984e+01" cType="1" res="6.2771216034889221e-03" rms="3.6474010348320007e-01" purity="5.1468545198440552e-01" nType="0">
          <Node pos="l" depth="2" NCoef="0" IVar="10" Cut="3.2309588789939880e-01" cType="1" res="4.8379814252257347e-03" rms="3.6591061949729919e-01" purity="5.1673960685729980e-01" nType="0">
            <Node pos="l" depth="3" NCoef="0" IVar="-1" Cut="0.0000000000000000e+00" cType="1" res="-4.8456676304340363e-03" rms="4.6129006147384644e-01" purity="3.3626714348793030e-01" nType="-99"/>
            <Node pos="r" depth="3" NCoef="0" IVar="-1" Cut="0.0000000000000000e+00" cType="1" res="1.5260063810274005e-03" rms="4.7164559364318848e-01" purity="5.8227169513702393e-01" nType="-99"/>
          </Node>
          <Node pos="r" depth="2" NCoef="0" IVar="-1" Cut="0.0000000000000000e+00" cType="1" res="8.3551025018095970e-03" rms="4.7050386667251587e-01" purity="4.9254623055458069e-01" nType="-99"/>
        </Node>
        <Node pos="r" depth="1" NCoef="0" IVar="-1" Cut="0.0000000000000000e+00" cType="1" res="-1.1230635456740856e-02" rms="4.2001178860664368e-01" purity="2.4424514174461365e-01" nType="-99"/>
      </Node>
    </BinaryTree>
    <BinaryTree type="DecisionTree" boostWeight="1.0000000000000000e+00" itree="33">
      <Node pos="s" depth="0" NCoef="0" IVar="7" Cut="5.3444895893335342e-02" cType="1" res="4.8578670248389244e-03" rms="3.6180049180984497e-01" purity="5.0000000000000000e-01" nType="0">
        <Node pos="l" depth="1" NCoef="0" IVar="-1" Cut="0.0000000000000000e+00" cType="1" res="1.2123477645218372e-02" rms="3.8884058594703674e-01" purity="8.0504989624023438e-01" nType="-99"/>
        <Node pos="r" depth="1" NCoef="0" IVar="0" Cut="3.0000000000000000e+01" cType="1" res="-2.4262468796223402e-03" rms="4.7071075439453125e-01" purity="4.8284959793090820e-01" nType="0">
          <Node pos="l" depth="2" NCoef="0" IVar="9" Cut="1.3285714149475098e+01" cType="1" res="3.5386185627430677e-03" rms="3.8315600156784058e-01" purity="5.0196218490600586e-01" nType="0">
            <Node pos="l" depth="3" NCoef="0" IVar="-1" Cut="0.0000000000000000e+00" cType="1" res="-3.3014949876815081e-03" rms="4.7014346718788147e-01" purity="5.2967053651809692e-01" nType="-99"/>
            <Node pos="r" depth="3" NCoef="0" IVar="-1" Cut="0.0000000000000000e+00" cType="1" res="1.4063342241570354e-03" rms="4.7473216056823730e-01" purity="4.9226850271224976e-01" nType="-99"/>
          </Node>
          <Node pos="r" depth="2" NCoef="0" IVar="-1" Cut="0.0000000000000000e+00" cType="1" res="-7.5301364995539188e-03" rms="4.4314599037170410e-01" purity="3.1532099843025208e-01" nType="-99"/>
        </Node>
      </Node>
    </BinaryTree>
    <BinaryTree type="DecisionTree" boostWeight="1.0000000000000000e+00" itree="34">
      <Node pos="s" depth="0" NCoef="0" IVar="0" Cut="1.3000000000000000e+01" cType="1" res="4.4633839024754707e-06" rms="4.6677431464195251e-01" purity="5.0000000000000000e-01" nType="0">
        <Node pos="l" depth="1" NCoef="0" IVar="0" Cut="1.1000000000000000e+01" cType="1" res="2.7767390012741089e-02" rms="4.3849509954452515e-01" purity="7.1593827009201050e-01" nType="0">
          <Node pos="l" depth="2" NCoef="0" IVar="-1" Cut="0.0000000000000000e+00" cType="1" res="1.0552910156548023e-02" rms="4.1781041026115417e-01" purity="7.6134479045867920e-01" nType="-99"/>
          <Node pos="r" depth="2" NCoef="0" IVar="-1" Cut="0.0000000000000000e+00" cType="1" res="3.5908191930502653e-03" rms="4.5658874511718750e-01" purity="6.7361837625503540e-01" nType="-99"/>
        </Node>
