<?xml version="1.0"?>
<MethodSetup Method="BDT::BDT">
  <GeneralInfo>
    <Info name="TMVA Release" value="4.2.1 [262657]"/>
    <Info name="ROOT Release" value="6.18/00 [397824]"/>
    <Info name="Creator" value="singhr"/>
    <Info name="Date" value="Thu May 14 21:46:20 2020"/>
    <Info name="Host" value="Linux lcgapp-centos7-x86-64-34.cern.ch 3.10.0-957.10.1.el7.x86_64 #1 SMP Mon Mar 18 15:06:45 UTC 2019 x86_64 x86_64 x86_64 GNU/Linux"/>
    <Info name="Dir" value="/pool/condor/dir_19927/output"/>
    <Info name="Training events" value="1000000"/>
    <Info name="TrainingTime" value="5.52200296e+03"/>
    <Info name="AnalysisType" value="Classification"/>
  </GeneralInfo>
  <Options>
    <Option name="V" modified="Yes">False</Option>
    <Option name="VerbosityLevel" modified="No">Default</Option>
    <Option name="VarTransform" modified="No">None</Option>
    <Option name="H" modified="Yes">False</Option>
    <Option name="CreateMVAPdfs" modified="No">False</Option>
    <Option name="IgnoreNegWeightsInTraining" modified="No">False</Option>
    <Option name="NTrees" modified="Yes">800</Option>
    <Option name="MaxDepth" modified="No">3</Option>
    <Option name="MinNodeSize" modified="No">5%</Option>
    <Option name="nCuts" modified="No">20</Option>
    <Option name="BoostType" modified="Yes">Grad</Option>
    <Option name="AdaBoostR2Loss" modified="No">quadratic</Option>
    <Option name="UseBaggedBoost" modified="No">False</Option>
    <Option name="Shrinkage" modified="Yes">1.000000e-01</Option>
    <Option name="AdaBoostBeta" modified="No">5.000000e-01</Option>
    <Option name="UseRandomisedTrees" modified="No">False</Option>
    <Option name="UseNvars" modified="No">4</Option>
    <Option name="UsePoissonNvars" modified="No">True</Option>
    <Option name="BaggedSampleFraction" modified="No">6.000000e-01</Option>
    <Option name="UseYesNoLeaf" modified="No">True</Option>
    <Option name="NegWeightTreatment" modified="No">pray</Option>
    <Option name="Css" modified="No">1.000000e+00</Option>
    <Option name="Cts_sb" modified="No">1.000000e+00</Option>
    <Option name="Ctb_ss" modified="No">1.000000e+00</Option>
    <Option name="Cbb" modified="No">1.000000e+00</Option>
    <Option name="NodePurityLimit" modified="No">5.000000e-01</Option>
    <Option name="SeparationType" modified="No">giniindex</Option>
    <Option name="RegressionLossFunctionBDTG" modified="No">huber</Option>
    <Option name="HuberQuantile" modified="No">7.000000e-01</Option>
    <Option name="DoBoostMonitor" modified="Yes">True</Option>
    <Option name="UseFisherCuts" modified="No">False</Option>
    <Option name="MinLinCorrForFisher" modified="No">8.000000e-01</Option>
    <Option name="UseExclusiveVars" modified="No">False</Option>
    <Option name="DoPreselection" modified="No">False</Option>
    <Option name="SigToBkgFraction" modified="No">1.000000e+00</Option>
    <Option name="PruneMethod" modified="No">nopruning</Option>
    <Option name="PruneStrength" modified="No">0.000000e+00</Option>
    <Option name="PruningValFraction" modified="No">5.000000e-01</Option>
    <Option name="SkipNormalization" modified="No">False</Option>
    <Option name="nEventsMin" modified="No">0</Option>
    <Option name="UseBaggedGrad" modified="No">False</Option>
    <Option name="GradBaggingFraction" modified="No">6.000000e-01</Option>
    <Option name="UseNTrainEvents" modified="No">0</Option>
    <Option name="NNodesMax" modified="No">0</Option>
  </Options>
  <Variables NVar="12">
    <Variable VarIndex="0" Expression="nvtx" Label="nvtx" Title="nvtx" Unit="" Internal="nvtx" Type="I" Min="1.00000000e+00" Max="1.12000000e+02"/>
    <Variable VarIndex="1" Expression="dR2Mean" Label="dR2Mean" Title="dR2Mean" Unit="" Internal="dR2Mean" Type="F" Min="1.06930325e-04" Max="1.16080336e-01"/>
    <Variable VarIndex="2" Expression="frac01" Label="frac01" Title="frac01" Unit="" Internal="frac01" Type="F" Min="0.00000000e+00" Max="9.19720948e-01"/>
    <Variable VarIndex="3" Expression="frac02" Label="frac02" Title="frac02" Unit="" Internal="frac02" Type="F" Min="0.00000000e+00" Max="9.48255837e-01"/>
    <Variable VarIndex="4" Expression="frac03" Label="frac03" Title="frac03" Unit="" Internal="frac03" Type="F" Min="0.00000000e+00" Max="9.27842021e-01"/>
    <Variable VarIndex="5" Expression="frac04" Label="frac04" Title="frac04" Unit="" Internal="frac04" Type="F" Min="0.00000000e+00" Max="7.04559028e-01"/>
    <Variable VarIndex="6" Expression="majW" Label="majW" Title="majW" Unit="" Internal="majW" Type="F" Min="7.47311534e-03" Max="3.20784926e-01"/>
    <Variable VarIndex="7" Expression="minW" Label="minW" Title="minW" Unit="" Internal="minW" Type="F" Min="5.20478375e-03" Max="2.09817544e-01"/>
    <Variable VarIndex="8" Expression="jetR" Label="jetR" Title="jetR" Unit="" Internal="jetR" Type="F" Min="8.26820508e-02" Max="9.18166161e-01"/>
    <Variable VarIndex="9" Expression="nParticles" Label="nParticles" Title="nParticles" Unit="" Internal="nParticles" Type="F" Min="1.10000000e+01" Max="2.80000000e+01"/>
    <Variable VarIndex="10" Expression="ptD" Label="ptD" Title="ptD" Unit="" Internal="ptD" Type="F" Min="2.36478582e-01" Max="9.18648720e-01"/>
    <Variable VarIndex="11" Expression="pull" Label="pull" Title="pull" Unit="" Internal="pull" Type="F" Min="1.95434131e-06" Max="2.49802414e-02"/>
  </Variables>
  <Spectators NSpec="2">
    <Spectator SpecIndex="0" Expression="jetPt" Label="jetPt" Title="F" Unit="" Internal="jetPt" Type="F" Min="1.00003738e+01" Max="9.99971008e+01"/>
    <Spectator SpecIndex="1" Expression="jetEta" Label="jetEta" Title="F" Unit="" Internal="jetEta" Type="F" Min="-4.96881056e+00" Max="4.93585300e+00"/>
  </Spectators>
  <Classes NClass="2">
    <Class Name="Signal" Index="0"/>
    <Class Name="Background" Index="1"/>
  </Classes>
  <Transformations NTransformations="0"/>
  <MVAPdfs/>
  <Weights NTrees="800" AnalysisType="1">
    <BinaryTree type="DecisionTree" boostWeight="1.0000000000000000e+00" itree="0">
      <Node pos="s" depth="0" NCoef="0" IVar="1" Cut="3.8764733821153641e-02" cType="1" res="3.8776498287916183e-02" rms="2.6109603047370911e-01" purity="5.0000000000000000e-01" nType="0">
        <Node pos="l" depth="1" NCoef="0" IVar="1" Cut="2.5878796353936195e-02" cType="1" res="7.7078938484191895e-02" rms="2.8950744867324829e-01" purity="6.3866496086120605e-01" nType="0">
          <Node pos="l" depth="2" NCoef="0" IVar="1" Cut="1.4833672903478146e-02" cType="1" res="1.1374596506357193e-01" rms="3.0232870578765869e-01" purity="7.2844111919403076e-01" nType="0">
            <Node pos="l" depth="3" NCoef="0" IVar="-1" Cut="0.0000000000000000e+00" cType="1" res="6.1697229743003845e-02" rms="3.9349243044853210e-01" purity="8.0848616361618042e-01" nType="-99"/>
            <Node pos="r" depth="3" NCoef="0" IVar="-1" Cut="0.0000000000000000e+00" cType="1" res="3.8276251405477524e-02" rms="4.6192339062690735e-01" purity="6.9138127565383911e-01" nType="-99"/>
          </Node>
          <Node pos="r" depth="2" NCoef="0" IVar="0" Cut="2.3000000000000000e+01" cType="1" res="6.3020467758178711e-02" rms="4.9601250886917114e-01" purity="5.6302046775817871e-01" nType="0">
            <Node pos="l" depth="3" NCoef="0" IVar="-1" Cut="0.0000000000000000e+00" cType="1" res="2.8297625482082367e-02" rms="4.7956344485282898e-01" purity="6.4148813486099243e-01" nType="-99"/>
            <Node pos="r" depth="3" NCoef="0" IVar="-1" Cut="0.0000000000000000e+00" cType="1" res="3.9373044855892658e-03" rms="4.9961230158805847e-01" purity="5.1968652009963989e-01" nType="-99"/>
          </Node>
        </Node>
        <Node pos="r" depth="1" NCoef="0" IVar="0" Cut="2.6000000000000000e+01" cType="1" res="-1.3117684423923492e-01" rms="4.8248589038848877e-01" purity="3.6882317066192627e-01" nType="0">
          <Node pos="l" depth="2" NCoef="0" IVar="0" Cut="1.9000000000000000e+01" cType="1" res="-2.9894303530454636e-02" rms="4.9910554289817810e-01" purity="4.7010570764541626e-01" nType="0">
            <Node pos="l" depth="3" NCoef="0" IVar="-1" Cut="0.0000000000000000e+00" cType="1" res="1.1120487004518509e-02" rms="4.9689874053001404e-01" purity="5.5560243129730225e-01" nType="-99"/>
            <Node pos="r" depth="3" NCoef="0" IVar="-1" Cut="0.0000000000000000e+00" cType="1" res="-1.3693176209926605e-02" rms="4.9529024958610535e-01" purity="4.3153411149978638e-01" nType="-99"/>
          </Node>
          <Node pos="r" depth="2" NCoef="0" IVar="1" Cut="4.9809936434030533e-02" cType="1" res="-1.6612118482589722e-01" rms="4.4940474629402161e-01" purity="3.1281638145446777e-01" nType="0">
            <Node pos="l" depth="3" NCoef="0" IVar="-1" Cut="0.0000000000000000e+00" cType="1" res="-2.5207916274666786e-02" rms="4.8385331034660339e-01" purity="3.7396040558815002e-01" nType="-99"/>
            <Node pos="r" depth="3" NCoef="0" IVar="-1" Cut="0.0000000000000000e+00" cType="1" res="-4.8274487257003784e-02" rms="4.3788051605224609e-01" purity="2.5862756371498108e-01" nType="-99"/>
          </Node>
        </Node>
      </Node>
    </BinaryTree>
    <BinaryTree type="DecisionTree" boostWeight="1.0000000000000000e+00" itree="1">
      <Node pos="s" depth="0" NCoef="0" IVar="1" Cut="3.3242188394069672e-02" cType="1" res="3.5471517592668533e-02" rms="2.5858515501022339e-01" purity="5.0000000000000000e-01" nType="0">
        <Node pos="l" depth="1" NCoef="0" IVar="1" Cut="2.0619196817278862e-02" cType="1" res="8.3801068365573883e-02" rms="2.9207834601402283e-01" purity="6.7784518003463745e-01" nType="0">
          <Node pos="l" depth="2" NCoef="0" IVar="5" Cut="1.6350026428699493e-01" cType="1" res="1.1976099014282227e-01" rms="2.9802930355072021e-01" purity="7.6447081565856934e-01" nType="0">
            <Node pos="l" depth="3" NCoef="0" IVar="-1" Cut="0.0000000000000000e+00" cType="1" res="5.6012410670518875e-02" rms="3.9548623561859131e-01" purity="8.0515438318252563e-01" nType="-99"/>
            <Node pos="r" depth="3" NCoef="0" IVar="-1" Cut="0.0000000000000000e+00" cType="1" res="3.7724774330854416e-02" rms="4.5252367854118347e-01" purity="7.1199518442153931e-01" nType="-99"/>
          </Node>
          <Node pos="r" depth="2" NCoef="0" IVar="0" Cut="2.0000000000000000e+01" cType="1" res="1.1193896830081940e-01" rms="4.8384886980056763e-01" purity="6.2314808368682861e-01" nType="0">
            <Node pos="l" depth="3" NCoef="0" IVar="-1" Cut="0.0000000000000000e+00" cType="1" res="3.8278106600046158e-02" rms="4.5485591888427734e-01" purity="7.0735073089599609e-01" nType="-99"/>
            <Node pos="r" depth="3" NCoef="0" IVar="-1" Cut="0.0000000000000000e+00" cType="1" res="1.6907669603824615e-02" rms="4.9051883816719055e-01" purity="5.9397804737091064e-01" nType="-99"/>
          </Node>
        </Node>
        <Node pos="r" depth="1" NCoef="0" IVar="0" Cut="2.7000000000000000e+01" cType="1" res="-9.1808781027793884e-02" rms="4.8721787333488464e-01" purity="3.9877605438232422e-01" nType="0">
          <Node pos="l" depth="2" NCoef="0" IVar="1" Cut="4.6868514269590378e-02" cType="1" res="1.9050883129239082e-02" rms="3.6005905270576477e-01" purity="4.8984616994857788e-01" nType="0">
            <Node pos="l" depth="3" NCoef="0" IVar="-1" Cut="0.0000000000000000e+00" cType="1" res="8.9974608272314072e-03" rms="4.9683481454849243e-01" purity="5.4700654745101929e-01" nType="-99"/>
            <Node pos="r" depth="3" NCoef="0" IVar="-1" Cut="0.0000000000000000e+00" cType="1" res="-1.5330286696553230e-02" rms="4.9244162440299988e-01" purity="4.1824576258659363e-01" nType="-99"/>
          </Node>
          <Node pos="r" depth="2" NCoef="0" IVar="1" Cut="4.5076258480548859e-02" cType="1" res="-1.3633349537849426e-01" rms="4.5707038044929504e-01" purity="3.3336028456687927e-01" nType="0">
            <Node pos="l" depth="3" NCoef="0" IVar="-1" Cut="0.0000000000000000e+00" cType="1" res="-1.4028236269950867e-02" rms="4.9366313219070435e-01" purity="4.2349973320960999e-01" nType="-99"/>
            <Node pos="r" depth="3" NCoef="0" IVar="-1" Cut="0.0000000000000000e+00" cType="1" res="-4.0445361286401749e-02" rms="4.4722443819046021e-01" purity="2.7720671892166138e-01" nType="-99"/>
          </Node>
        </Node>
      </Node>
    </BinaryTree>
    <BinaryTree type="DecisionTree" boostWeight="1.0000000000000000e+00" itree="2">
      <Node pos="s" depth="0" NCoef="0" IVar="1" Cut="3.8764733821153641e-02" cType="1" res="3.2792650163173676e-02" rms="2.5636410713195801e-01" purity="5.0000000000000000e-01" nType="0">
        <Node pos="l" depth="1" NCoef="0" IVar="1" Cut="2.4037949740886688e-02" cType="1" res="6.4246974885463715e-02" rms="2.8271988034248352e-01" purity="6.3866496086120605e-01" nType="0">
          <Node pos="l" depth="2" NCoef="0" IVar="1" Cut="1.3781785964965820e-02" cType="1" res="9.9242724478244781e-02" rms="2.9275894165039062e-01" purity="7.4044102430343628e-01" nType="0">
            <Node pos="l" depth="3" NCoef="0" IVar="-1" Cut="0.0000000000000000e+00" cType="1" res="5.3008776158094406e-02" rms="3.8590878248214722e-01" purity="8.1734764575958252e-01" nType="-99"/>
            <Node pos="r" depth="3" NCoef="0" IVar="-1" Cut="0.0000000000000000e+00" cType="1" res="3.3500265330076218e-02" rms="4.5532011985778809e-01" purity="7.0507687330245972e-01" nType="-99"/>
          </Node>
          <Node pos="r" depth="2" NCoef="0" IVar="0" Cut="2.4000000000000000e+01" cType="1" res="5.8822903782129288e-02" rms="4.9298420548439026e-01" purity="5.7241058349609375e-01" nType="0">
            <Node pos="l" depth="3" NCoef="0" IVar="-1" Cut="0.0000000000000000e+00" cType="1" res="2.3656401783227921e-02" rms="4.7863733768463135e-01" purity="6.4215362071990967e-01" nType="-99"/>
            <Node pos="r" depth="3" NCoef="0" IVar="-1" Cut="0.0000000000000000e+00" cType="1" res="3.5582794807851315e-03" rms="4.9859198927879333e-01" purity="5.2401769161224365e-01" nType="-99"/>
          </Node>
        </Node>
        <Node pos="r" depth="1" NCoef="0" IVar="0" Cut="2.4000000000000000e+01" cType="1" res="-1.0698245465755463e-01" rms="4.7922432422637939e-01" purity="3.6882317066192627e-01" nType="0">
          <Node pos="l" depth="2" NCoef="0" IVar="1" Cut="5.1308903843164444e-02" cType="1" res="1.0980016551911831e-02" rms="4.2702940106391907e-01" purity="4.8956587910652161e-01" nType="0">
            <Node pos="l" depth="3" NCoef="0" IVar="-1" Cut="0.0000000000000000e+00" cType="1" res="6.3454941846430302e-03" rms="4.9821531772613525e-01" purity="5.3081935644149780e-01" nType="-99"/>
            <Node pos="r" depth="3" NCoef="0" IVar="-1" Cut="0.0000000000000000e+00" cType="1" res="-1.3274807482957840e-02" rms="4.9356591701507568e-01" purity="4.2388430237770081e-01" nType="-99"/>
          </Node>
          <Node pos="r" depth="2" NCoef="0" IVar="1" Cut="5.3491622209548950e-02" cType="1" res="-1.2295192480087280e-01" rms="4.4585970044136047e-01" purity="3.2265934348106384e-01" nType="0">
            <Node pos="l" depth="3" NCoef="0" IVar="-1" Cut="0.0000000000000000e+00" cType="1" res="-2.1347291767597198e-02" rms="4.8101106286048889e-01" purity="3.6736598610877991e-01" nType="-99"/>
            <Node pos="r" depth="3" NCoef="0" IVar="-1" Cut="0.0000000000000000e+00" cType="1" res="-4.2022906243801117e-02" rms="4.3286025524139404e-01" purity="2.5063738226890564e-01" nType="-99"/>
          </Node>
        </Node>
      </Node>
    </BinaryTree>
    <BinaryTree type="DecisionTree" boostWeight="1.0000000000000000e+00" itree="3">
      <Node pos="s" depth="0" NCoef="0" IVar="1" Cut="3.3242188394069672e-02" cType="1" res="3.0137661844491959e-02" rms="2.5460916757583618e-01" purity="5.0000000000000000e-01" nType="0">
        <Node pos="l" depth="1" NCoef="0" IVar="1" Cut="1.9041329622268677e-02" cType="1" res="6.9832906126976013e-02" rms="2.8536778688430786e-01" purity="6.7784518003463745e-01" nType="0">
          <Node pos="l" depth="2" NCoef="0" IVar="5" Cut="1.4306272566318512e-01" cType="1" res="1.0461243242025375e-01" rms="2.8740531206130981e-01" purity="7.7613306045532227e-01" nType="0">
            <Node pos="l" depth="3" NCoef="0" IVar="-1" Cut="0.0000000000000000e+00" cType="1" res="5.1154442131519318e-02" rms="3.7772569060325623e-01" purity="8.2648587226867676e-01" nType="-99"/>
            <Node pos="r" depth="3" NCoef="0" IVar="-1" Cut="0.0000000000000000e+00" cType="1" res="3.4118741750717163e-02" rms="4.4096726179122925e-01" purity="7.3432654142379761e-01" nType="-99"/>
          </Node>
          <Node pos="r" depth="2" NCoef="0" IVar="0" Cut="2.0000000000000000e+01" cType="1" res="9.6393100917339325e-02" rms="4.8101252317428589e-01" purity="6.2975311279296875e-01" nType="0">
            <Node pos="l" depth="3" NCoef="0" IVar="-1" Cut="0.0000000000000000e+00" cType="1" res="3.2867059111595154e-02" rms="4.5250636339187622e-01" purity="7.1207928657531738e-01" nType="-99"/>
            <Node pos="r" depth="3" NCoef="0" IVar="-1" Cut="0.0000000000000000e+00" cType="1" res="1.4645791612565517e-02" rms="4.8854967951774597e-01" purity="6.0062813758850098e-01" nType="-99"/>
          </Node>
        </Node>
        <Node pos="r" depth="1" NCoef="0" IVar="0" Cut="2.9000000000000000e+01" cType="1" res="-7.5111933052539825e-02" rms="4.8379248380661011e-01" purity="3.9877605438232422e-01" nType="0">
          <Node pos="l" depth="2" NCoef="0" IVar="0" Cut="1.8000000000000000e+01" cType="1" res="-1.6316711902618408e-02" rms="4.9540105462074280e-01" purity="4.7436612844467163e-01" nType="0">
            <Node pos="l" depth="3" NCoef="0" IVar="-1" Cut="0.0000000000000000e+00" cType="1" res="1.7272243276238441e-02" rms="4.8903521895408630e-01" purity="5.9660005569458008e-01" nType="-99"/>
            <Node pos="r" depth="3" NCoef="0" IVar="-1" Cut="0.0000000000000000e+00" cType="1" res="-8.1557258963584900e-03" rms="4.9378269910812378e-01" purity="4.4536957144737244e-01" nType="-99"/>
          </Node>
          <Node pos="r" depth="2" NCoef="0" IVar="1" Cut="4.9020927399396896e-02" cType="1" res="-1.2334438413381577e-01" rms="4.5460692048072815e-01" purity="3.2356411218643188e-01" nType="0">
            <Node pos="l" depth="3" NCoef="0" IVar="-1" Cut="0.0000000000000000e+00" cType="1" res="-1.6519561409950256e-02" rms="4.8696109652519226e-01" purity="3.9208108186721802e-01" nType="-99"/>
            <Node pos="r" depth="3" NCoef="0" IVar="-1" Cut="0.0000000000000000e+00" cType="1" res="-3.8276985287666321e-02" rms="4.3282133340835571e-01" purity="2.5029474496841431e-01" nType="-99"/>
          </Node>
        </Node>
      </Node>
    </BinaryTree>
    <BinaryTree type="DecisionTree" boostWeight="1.0000000000000000e+00" itree="4">
      <Node pos="s" depth="0" NCoef="0" IVar="1" Cut="3.8764733821153641e-02" cType="1" res="2.7629971504211426e-02" rms="2.5301948189735413e-01" purity="5.0000000000000000e-01" nType="0">
        <Node pos="l" depth="1" NCoef="0" IVar="1" Cut="2.7719644829630852e-02" cType="1" res="5.3803630173206329e-02" rms="2.7790284156799316e-01" purity="6.3866496086120605e-01" nType="0">
          <Node pos="l" depth="2" NCoef="0" IVar="1" Cut="1.3255810365080833e-02" cType="1" res="7.5735434889793396e-02" rms="2.8538751602172852e-01" purity="7.1609348058700562e-01" nType="0">
            <Node pos="l" depth="3" NCoef="0" IVar="-1" Cut="0.0000000000000000e+00" cType="1" res="4.5790426433086395e-02" rms="3.8174307346343994e-01" purity="8.2186406850814819e-01" nType="-99"/>
            <Node pos="r" depth="3" NCoef="0" IVar="-1" Cut="0.0000000000000000e+00" cType="1" res="2.5529947131872177e-02" rms="4.6186608076095581e-01" purity="6.8654567003250122e-01" nType="-99"/>
          </Node>
          <Node pos="r" depth="2" NCoef="0" IVar="0" Cut="2.5000000000000000e+01" cType="1" res="3.4858323633670807e-02" rms="4.9440038204193115e-01" purity="5.5350619554519653e-01" nType="0">
            <Node pos="l" depth="3" NCoef="0" IVar="-1" Cut="0.0000000000000000e+00" cType="1" res="1.6492467373609543e-02" rms="4.8428288102149963e-01" purity="6.1911749839782715e-01" nType="-99"/>
            <Node pos="r" depth="3" NCoef="0" IVar="-1" Cut="0.0000000000000000e+00" cType="1" res="-4.6810781350359321e-04" rms="4.9912467598915100e-01" purity="5.0163966417312622e-01" nType="-99"/>
          </Node>
        </Node>
        <Node pos="r" depth="1" NCoef="0" IVar="0" Cut="2.3000000000000000e+01" cType="1" res="-8.8017567992210388e-02" rms="4.7680637240409851e-01" purity="3.6882317066192627e-01" nType="0">
          <Node pos="l" depth="2" NCoef="0" IVar="1" Cut="4.8173058778047562e-02" cType="1" res="1.2017904780805111e-02" rms="4.5866110920906067e-01" purity="5.0045228004455566e-01" nType="0">
            <Node pos="l" depth="3" NCoef="0" IVar="-1" Cut="0.0000000000000000e+00" cType="1" res="9.3172183260321617e-03" rms="4.9602505564689636e-01" purity="5.5259233713150024e-01" nType="-99"/>
            <Node pos="r" depth="3" NCoef="0" IVar="-1" Cut="0.0000000000000000e+00" cType="1" res="-7.4494429863989353e-03" rms="4.9615985155105591e-01" purity="4.5002004504203796e-01" nType="-99"/>
          </Node>
          <Node pos="r" depth="2" NCoef="0" IVar="1" Cut="5.7173311710357666e-02" cType="1" res="-9.5031753182411194e-02" rms="4.4289174675941467e-01" purity="3.2753190398216248e-01" nType="0">
            <Node pos="l" depth="3" NCoef="0" IVar="-1" Cut="0.0000000000000000e+00" cType="1" res="-1.8529422581195831e-02" rms="4.7777315974235535e-01" purity="3.5952076315879822e-01" nType="-99"/>
            <Node pos="r" depth="3" NCoef="0" IVar="-1" Cut="0.0000000000000000e+00" cType="1" res="-3.8490012288093567e-02" rms="4.2434969544410706e-01" purity="2.3758526146411896e-01" nType="-99"/>
          </Node>
        </Node>
      </Node>
    </BinaryTree>
    <BinaryTree type="DecisionTree" boostWeight="1.0000000000000000e+00" itree="5">
      <Node pos="s" depth="0" NCoef="0" IVar="1" Cut="3.8764733821153641e-02" cType="1" res="2.5471426546573639e-02" rms="2.5183337926864624e-01" purity="5.0000000000000000e-01" nType="0">
        <Node pos="l" depth="1" NCoef="0" IVar="1" Cut="2.5878796353936195e-02" cType="1" res="4.9454510211944580e-02" rms="2.7619835734367371e-01" purity="6.3866496086120605e-01" nType="0">
          <Node pos="l" depth="2" NCoef="0" IVar="7" Cut="6.1722591519355774e-02" cType="1" res="7.3401518166065216e-02" rms="2.8295320272445679e-01" purity="7.2844111919403076e-01" nType="0">
            <Node pos="l" depth="3" NCoef="0" IVar="-1" Cut="0.0000000000000000e+00" cType="1" res="4.1286103427410126e-02" rms="3.8951557874679565e-01" purity="8.1089144945144653e-01" nType="-99"/>
            <Node pos="r" depth="3" NCoef="0" IVar="-1" Cut="0.0000000000000000e+00" cType="1" res="2.3998152464628220e-02" rms="4.5777362585067749e-01" purity="6.9703823328018188e-01" nType="-99"/>
          </Node>
          <Node pos="r" depth="2" NCoef="0" IVar="0" Cut="2.1000000000000000e+01" cType="1" res="3.7865526974201202e-02" rms="4.9278879165649414e-01" purity="5.6302046775817871e-01" nType="0">
            <Node pos="l" depth="3" NCoef="0" IVar="-1" Cut="0.0000000000000000e+00" cType="1" res="2.0602101460099220e-02" rms="4.7355389595031738e-01" purity="6.5797770023345947e-01" nType="-99"/>
            <Node pos="r" depth="3" NCoef="0" IVar="-1" Cut="0.0000000000000000e+00" cType="1" res="2.9674984980374575e-03" rms="4.9755719304084778e-01" purity="5.2866756916046143e-01" nType="-99"/>
          </Node>
        </Node>
        <Node pos="r" depth="1" NCoef="0" IVar="0" Cut="3.1000000000000000e+01" cType="1" res="-7.9248853027820587e-02" rms="4.7593066096305847e-01" purity="3.6882317066192627e-01" nType="0">
          <Node pos="l" depth="2" NCoef="0" IVar="0" Cut="2.0000000000000000e+01" cType="1" res="-3.6070652306079865e-02" rms="4.9050772190093994e-01" purity="4.3185853958129883e-01" nType="0">
            <Node pos="l" depth="3" NCoef="0" IVar="-1" Cut="0.0000000000000000e+00" cType="1" res="7.2843586094677448e-03" rms="4.9635237455368042e-01" purity="5.4112082719802856e-01" nType="-99"/>
            <Node pos="r" depth="3" NCoef="0" IVar="-1" Cut="0.0000000000000000e+00" cType="1" res="-1.2176657095551491e-02" rms="4.8615145683288574e-01" purity="3.9544272422790527e-01" nType="-99"/>
          </Node>
          <Node pos="r" depth="2" NCoef="0" IVar="9" Cut="1.4238095283508301e+01" cType="1" res="-1.2490236759185791e-01" rms="4.4365197420120239e-01" purity="2.9075369238853455e-01" nType="0">
            <Node pos="l" depth="3" NCoef="0" IVar="-1" Cut="0.0000000000000000e+00" cType="1" res="-3.9354059845209122e-02" rms="4.1953715682029724e-01" purity="2.3218300938606262e-01" nType="-99"/>
            <Node pos="r" depth="3" NCoef="0" IVar="-1" Cut="0.0000000000000000e+00" cType="1" res="-2.2078091278672218e-02" rms="4.6220511198043823e-01" purity="3.1566497683525085e-01" nType="-99"/>
          </Node>
        </Node>
      </Node>
    </BinaryTree>
    <BinaryTree type="DecisionTree" boostWeight="1.0000000000000000e+00" itree="6">
      <Node pos="s" depth="0" NCoef="0" IVar="7" Cut="1.1238289624452591e-01" cType="1" res="2.3382328450679779e-02" rms="2.5079277157783508e-01" purity="5.0000000000000000e-01" nType="0">
        <Node pos="l" depth="1" NCoef="0" IVar="1" Cut="2.7390185743570328e-02" cType="1" res="4.4738885015249252e-02" rms="2.7949050068855286e-01" purity="6.2112301588058472e-01" nType="0">
          <Node pos="l" depth="2" NCoef="0" IVar="1" Cut="1.6996521502733231e-02" cType="1" res="6.4690142869949341e-02" rms="2.8101804852485657e-01" purity="7.1855944395065308e-01" nType="0">
            <Node pos="l" depth="3" NCoef="0" IVar="-1" Cut="0.0000000000000000e+00" cType="1" res="3.4860529005527496e-02" rms="4.0424185991287231e-01" purity="7.9145550727844238e-01" nType="-99"/>
            <Node pos="r" depth="3" NCoef="0" IVar="-1" Cut="0.0000000000000000e+00" cType="1" res="1.9420431926846504e-02" rms="4.6709382534027100e-01" purity="6.7416208982467651e-01" nType="-99"/>
          </Node>
          <Node pos="r" depth="2" NCoef="0" IVar="0" Cut="2.8000000000000000e+01" cType="1" res="2.6835633441805840e-02" rms="4.9167415499687195e-01" purity="5.2912819385528564e-01" nType="0">
            <Node pos="l" depth="3" NCoef="0" IVar="-1" Cut="0.0000000000000000e+00" cType="1" res="1.1686105281114578e-02" rms="4.8872959613800049e-01" purity="5.8092319965362549e-01" nType="-99"/>
            <Node pos="r" depth="3" NCoef="0" IVar="-1" Cut="0.0000000000000000e+00" cType="1" res="-3.8001430220901966e-03" rms="4.9242118000984192e-01" purity="4.5315989851951599e-01" nType="-99"/>
          </Node>
        </Node>
        <Node pos="r" depth="1" NCoef="0" IVar="1" Cut="4.6982124447822571e-02" cType="1" res="1.0652136988937855e-03" rms="2.1452261507511139e-01" purity="3.7342920899391174e-01" nType="0">
          <Node pos="l" depth="2" NCoef="0" IVar="0" Cut="3.0000000000000000e+01" cType="1" res="-2.6381615549325943e-02" rms="4.9276685714721680e-01" purity="4.5504650473594666e-01" nType="0">
            <Node pos="l" depth="3" NCoef="0" IVar="-1" Cut="0.0000000000000000e+00" cType="1" res="1.4138342812657356e-03" rms="4.9619466066360474e-01" purity="5.0861763954162598e-01" nType="-99"/>
            <Node pos="r" depth="3" NCoef="0" IVar="-1" Cut="0.0000000000000000e+00" cType="1" res="-1.3405513018369675e-02" rms="4.8563921451568604e-01" purity="3.9107084274291992e-01" nType="-99"/>
          </Node>
          <Node pos="r" depth="2" NCoef="0" IVar="0" Cut="3.4000000000000000e+01" cType="1" res="-1.1303745210170746e-01" rms="4.5716440677642822e-01" purity="3.1072288751602173e-01" nType="0">
            <Node pos="l" depth="3" NCoef="0" IVar="-1" Cut="0.0000000000000000e+00" cType="1" res="-1.6866466030478477e-02" rms="4.7476160526275635e-01" purity="3.5779902338981628e-01" nType="-99"/>
            <Node pos="r" depth="3" NCoef="0" IVar="-1" Cut="0.0000000000000000e+00" cType="1" res="-3.3653609454631805e-02" rms="4.2345809936523438e-01" purity="2.3631238937377930e-01" nType="-99"/>
          </Node>
        </Node>
      </Node>
    </BinaryTree>
    <BinaryTree type="DecisionTree" boostWeight="1.0000000000000000e+00" itree="7">
      <Node pos="s" depth="0" NCoef="0" IVar="1" Cut="3.3242188394069672e-02" cType="1" res="2.2006493061780930e-02" rms="2.4994213879108429e-01" purity="5.0000000000000000e-01" nType="0">
        <Node pos="l" depth="1" NCoef="0" IVar="7" Cut="8.1330932676792145e-02" cType="1" res="4.9783308058977127e-02" rms="2.7758383750915527e-01" purity="6.7784518003463745e-01" nType="0">
          <Node pos="l" depth="2" NCoef="0" IVar="5" Cut="1.5517443418502808e-01" cType="1" res="7.1153633296489716e-02" rms="2.8469929099082947e-01" purity="7.5076401233673096e-01" nType="0">
            <Node pos="l" depth="3" NCoef="0" IVar="-1" Cut="0.0000000000000000e+00" cType="1" res="3.3592853695154190e-02" rms="4.0543457865715027e-01" purity="7.8533399105072021e-01" nType="-99"/>
            <Node pos="r" depth="3" NCoef="0" IVar="-1" Cut="0.0000000000000000e+00" cType="1" res="2.0548902451992035e-02" rms="4.5162555575370789e-01" purity="7.1010690927505493e-01" nType="-99"/>
          </Node>
          <Node pos="r" depth="2" NCoef="0" IVar="0" Cut="2.2000000000000000e+01" cType="1" res="5.8462835848331451e-02" rms="4.8150637745857239e-01" purity="6.2235587835311890e-01" nType="0">
            <Node pos="l" depth="3" NCoef="0" IVar="-1" Cut="0.0000000000000000e+00" cType="1" res="2.0751005038619041e-02" rms="4.6159002184867859e-01" purity="6.8926268815994263e-01" nType="-99"/>
            <Node pos="r" depth="3" NCoef="0" IVar="-1" Cut="0.0000000000000000e+00" cType="1" res="7.6000015251338482e-03" rms="4.8984077572822571e-01" purity="5.8880811929702759e-01" nType="-99"/>
          </Node>
        </Node>
        <Node pos="r" depth="1" NCoef="0" IVar="1" Cut="4.9020893871784210e-02" cType="1" res="6.1967917717993259e-03" rms="2.3126289248466492e-01" purity="3.9877605438232422e-01" nType="0">
          <Node pos="l" depth="2" NCoef="0" IVar="0" Cut="2.1000000000000000e+01" cType="1" res="-1.2645522132515907e-02" rms="4.9264901876449585e-01" purity="4.6471482515335083e-01" nType="0">
            <Node pos="l" depth="3" NCoef="0" IVar="-1" Cut="0.0000000000000000e+00" cType="1" res="1.2756015174090862e-02" rms="4.8897409439086914e-01" purity="5.9566831588745117e-01" nType="-99"/>
            <Node pos="r" depth="3" NCoef="0" IVar="-1" Cut="0.0000000000000000e+00" cType="1" res="-6.6543077118694782e-03" rms="4.9164253473281860e-01" purity="4.2977961897850037e-01" nType="-99"/>
          </Node>
          <Node pos="r" depth="2" NCoef="0" IVar="0" Cut="2.3000000000000000e+01" cType="1" res="-1.0057143121957779e-01" rms="4.5692393183708191e-01" purity="3.1171423196792603e-01" nType="0">
            <Node pos="l" depth="3" NCoef="0" IVar="-1" Cut="0.0000000000000000e+00" cType="1" res="-5.9909666888415813e-03" rms="4.9530774354934692e-01" purity="4.4674646854400635e-01" nType="-99"/>
            <Node pos="r" depth="3" NCoef="0" IVar="-1" Cut="0.0000000000000000e+00" cType="1" res="-2.5063654407858849e-02" rms="4.4419080018997192e-01" purity="2.7558946609497070e-01" nType="-99"/>
          </Node>
        </Node>
      </Node>
    </BinaryTree>
    <BinaryTree type="DecisionTree" boostWeight="1.0000000000000000e+00" itree="8">
      <Node pos="s" depth="0" NCoef="0" IVar="7" Cut="1.1238289624452591e-01" cType="1" res="2.0108867436647415e-02" rms="2.4914002418518066e-01" purity="5.0000000000000000e-01" nType="0">
        <Node pos="l" depth="1" NCoef="0" IVar="1" Cut="2.1933533251285553e-02" cType="1" res="3.7945330142974854e-02" rms="2.7729055285453796e-01" purity="6.2112301588058472e-01" nType="0">
          <Node pos="l" depth="2" NCoef="0" IVar="5" Cut="1.2337940186262131e-01" cType="1" res="6.3622020184993744e-02" rms="2.7572306990623474e-01" purity="7.5528323650360107e-01" nType="0">
            <Node pos="l" depth="3" NCoef="0" IVar="-1" Cut="0.0000000000000000e+00" cType="1" res="3.6416742950677872e-02" rms="3.8263204693794250e-01" purity="8.1813830137252808e-01" nType="-99"/>
            <Node pos="r" depth="3" NCoef="0" IVar="-1" Cut="0.0000000000000000e+00" cType="1" res="2.0315378904342651e-02" rms="4.4355881214141846e-01" purity="7.2643095254898071e-01" nType="-99"/>
          </Node>
          <Node pos="r" depth="2" NCoef="0" IVar="0" Cut="1.8000000000000000e+01" cType="1" res="3.4110061824321747e-02" rms="4.8714843392372131e-01" purity="5.6026351451873779e-01" nType="0">
            <Node pos="l" depth="3" NCoef="0" IVar="-1" Cut="0.0000000000000000e+00" cType="1" res="2.2392619401216507e-02" rms="4.6099188923835754e-01" purity="6.8708068132400513e-01" nType="-99"/>
            <Node pos="r" depth="3" NCoef="0" IVar="-1" Cut="0.0000000000000000e+00" cType="1" res="3.9452128112316132e-03" rms="4.9080049991607666e-01" purity="5.3529000282287598e-01" nType="-99"/>
          </Node>
        </Node>
        <Node pos="r" depth="1" NCoef="0" IVar="1" Cut="5.1300760358572006e-02" cType="1" res="1.4701694017276168e-03" rms="2.1425469219684601e-01" purity="3.7342920899391174e-01" nType="0">
          <Node pos="l" depth="2" NCoef="0" IVar="0" Cut="3.3000000000000000e+01" cType="1" res="-3.2594617456197739e-02" rms="4.8836919665336609e-01" purity="4.3113499879837036e-01" nType="0">
            <Node pos="l" depth="3" NCoef="0" IVar="-1" Cut="0.0000000000000000e+00" cType="1" res="-1.5956166898831725e-03" rms="4.9393942952156067e-01" purity="4.7383013367652893e-01" nType="-99"/>
            <Node pos="r" depth="3" NCoef="0" IVar="-1" Cut="0.0000000000000000e+00" cType="1" res="-1.5745596960186958e-02" rms="4.7503685951232910e-01" purity="3.5469141602516174e-01" nType="-99"/>
          </Node>
          <Node pos="r" depth="2" NCoef="0" IVar="0" Cut="3.2000000000000000e+01" cType="1" res="-1.0500562191009521e-01" rms="4.4833043217658997e-01" purity="2.9087030887603760e-01" nType="0">
            <Node pos="l" depth="3" NCoef="0" IVar="-1" Cut="0.0000000000000000e+00" cType="1" res="-1.5383404679596424e-02" rms="4.7244086861610413e-01" purity="3.4909802675247192e-01" nType="-99"/>
            <Node pos="r" depth="3" NCoef="0" IVar="-1" Cut="0.0000000000000000e+00" cType="1" res="-3.0098205432295799e-02" rms="4.1670662164688110e-01" purity="2.2495177388191223e-01" nType="-99"/>
          </Node>
        </Node>
      </Node>
    </BinaryTree>
    <BinaryTree type="DecisionTree" boostWeight="1.0000000000000000e+00" itree="9">
      <Node pos="s" depth="0" NCoef="0" IVar="1" Cut="4.4287275522947311e-02" cType="1" res="1.8842058256268501e-02" rms="2.4844720959663391e-01" purity="5.0000000000000000e-01" nType="0">
        <Node pos="l" depth="1" NCoef="0" IVar="7" Cut="1.0059542953968048e-01" cType="1" res="3.0659589916467667e-02" rms="2.6620408892631531e-01" purity="6.0026371479034424e-01" nType="0">
          <Node pos="l" depth="2" NCoef="0" IVar="0" Cut="1.7000000000000000e+01" cType="1" res="7.9739719629287720e-02" rms="4.5699027180671692e-01" purity="6.8106776475906372e-01" nType="0">
            <Node pos="l" depth="3" NCoef="0" IVar="-1" Cut="0.0000000000000000e+00" cType="1" res="3.1171511858701706e-02" rms="4.1330635547637939e-01" purity="7.7608054876327515e-01" nType="-99"/>
            <Node pos="r" depth="3" NCoef="0" IVar="-1" Cut="0.0000000000000000e+00" cType="1" res="1.3998520560562611e-02" rms="4.6445161104202271e-01" purity="6.6127783060073853e-01" nType="-99"/>
          </Node>
          <Node pos="r" depth="2" NCoef="0" IVar="0" Cut="2.9000000000000000e+01" cType="1" res="1.3295089593157172e-03" rms="4.9347218871116638e-01" purity="5.0346755981445312e-01" nType="0">
            <Node pos="l" depth="3" NCoef="0" IVar="-1" Cut="0.0000000000000000e+00" cType="1" res="5.4761515930294991e-03" rms="4.9252238869667053e-01" purity="5.5510103702545166e-01" nType="-99"/>
            <Node pos="r" depth="3" NCoef="0" IVar="-1" Cut="0.0000000000000000e+00" cType="1" res="-6.1633517034351826e-03" rms="4.9278950691223145e-01" purity="4.3968838453292847e-01" nType="-99"/>
          </Node>
        </Node>
        <Node pos="r" depth="1" NCoef="0" IVar="0" Cut="2.1000000000000000e+01" cType="1" res="-7.1037307381629944e-02" rms="4.6494227647781372e-01" purity="3.3822748064994812e-01" nType="0">
          <Node pos="l" depth="2" NCoef="0" IVar="-1" Cut="0.0000000000000000e+00" cType="1" res="1.7720212927088141e-03" rms="4.9730864167213440e-01" purity="4.9927908182144165e-01" nType="-99"/>
          <Node pos="r" depth="2" NCoef="0" IVar="9" Cut="1.4238095283508301e+01" cType="1" res="-6.3847534358501434e-02" rms="4.2582511901855469e-01" purity="3.0848610401153564e-01" nType="0">
            <Node pos="l" depth="3" NCoef="0" IVar="-1" Cut="0.0000000000000000e+00" cType="1" res="-2.8559925034642220e-02" rms="4.3193566799163818e-01" purity="2.5849285721778870e-01" nType="-99"/>
            <Node pos="r" depth="3" NCoef="0" IVar="-1" Cut="0.0000000000000000e+00" cType="1" res="-1.3642409816384315e-02" rms="4.6589910984039307e-01" purity="3.2968282699584961e-01" nType="-99"/>
          </Node>
        </Node>
      </Node>
    </BinaryTree>
    <BinaryTree type="DecisionTree" boostWeight="1.0000000000000000e+00" itree="10">
      <Node pos="s" depth="0" NCoef="0" IVar="1" Cut="3.8764733821153641e-02" cType="1" res="1.7371963709592819e-02" rms="2.4786050617694855e-01" purity="5.0000000000000000e-01" nType="0">
        <Node pos="l" depth="1" NCoef="0" IVar="7" Cut="8.7663315236568451e-02" cType="1" res="3.2785944640636444e-02" rms="2.7061048150062561e-01" purity="6.3866496086120605e-01" nType="0">
          <Node pos="l" depth="2" NCoef="0" IVar="1" Cut="1.2992732226848602e-02" cType="1" res="5.1524791866540909e-02" rms="2.8235724568367004e-01" purity="7.2617381811141968e-01" nType="0">
            <Node pos="l" depth="3" NCoef="0" IVar="-1" Cut="0.0000000000000000e+00" cType="1" res="3.1245931982994080e-02" rms="3.7950092554092407e-01" purity="8.2359009981155396e-01" nType="-99"/>
            <Node pos="r" depth="3" NCoef="0" IVar="-1" Cut="0.0000000000000000e+00" cType="1" res="1.5858113765716553e-02" rms="4.5700120925903320e-01" purity="6.9296282529830933e-01" nType="-99"/>
          </Node>
          <Node pos="r" depth="2" NCoef="0" IVar="0" Cut="2.0000000000000000e+01" cType="1" res="2.4070244282484055e-02" rms="4.8911586403846741e-01" purity="5.7226997613906860e-01" nType="0">
            <Node pos="l" depth="3" NCoef="0" IVar="-1" Cut="0.0000000000000000e+00" cType="1" res="1.5312224626541138e-02" rms="4.6694725751876831e-01" purity="6.7408031225204468e-01" nType="-99"/>
            <Node pos="r" depth="3" NCoef="0" IVar="-1" Cut="0.0000000000000000e+00" cType="1" res="2.1560073364526033e-03" rms="4.9414426088333130e-01" purity="5.4448580741882324e-01" nType="-99"/>
          </Node>
        </Node>
        <Node pos="r" depth="1" NCoef="0" IVar="0" Cut="3.4000000000000000e+01" cType="1" res="-4.9351189285516739e-02" rms="4.7257292270660400e-01" purity="3.6882317066192627e-01" nType="0">
          <Node pos="l" depth="2" NCoef="0" IVar="1" Cut="6.0459647327661514e-02" cType="1" res="4.2264163494110107e-03" rms="2.7474138140678406e-01" purity="4.1528281569480896e-01" nType="0">
            <Node pos="l" depth="3" NCoef="0" IVar="-1" Cut="0.0000000000000000e+00" cType="1" res="-2.5048118550330400e-03" rms="4.8921665549278259e-01" purity="4.3609789013862610e-01" nType="-99"/>
            <Node pos="r" depth="3" NCoef="0" IVar="-1" Cut="0.0000000000000000e+00" cType="1" res="-2.0716570317745209e-02" rms="4.5419576764106750e-01" purity="3.0319738388061523e-01" nType="-99"/>
          </Node>
          <Node pos="r" depth="2" NCoef="0" IVar="9" Cut="1.4238095283508301e+01" cType="1" res="-9.1027118265628815e-02" rms="4.3845739960670471e-01" purity="2.7854871749877930e-01" nType="0">
            <Node pos="l" depth="3" NCoef="0" IVar="-1" Cut="0.0000000000000000e+00" cType="1" res="-3.2289218157529831e-02" rms="4.0864413976669312e-01" purity="2.1772816777229309e-01" nType="-99"/>
            <Node pos="r" depth="3" NCoef="0" IVar="-1" Cut="0.0000000000000000e+00" cType="1" res="-1.5446154400706291e-02" rms="4.5636638998985291e-01" purity="3.0444547533988953e-01" nType="-99"/>
          </Node>
        </Node>
      </Node>
    </BinaryTree>
    <BinaryTree type="DecisionTree" boostWeight="1.0000000000000000e+00" itree="11">
      <Node pos="s" depth="0" NCoef="0" IVar="7" Cut="1.1238289624452591e-01" cType="1" res="1.6359297558665276e-02" rms="2.4739471077919006e-01" purity="5.0000000000000000e-01" nType="0">
        <Node pos="l" depth="1" NCoef="0" IVar="1" Cut="2.7390185743570328e-02" cType="1" res="2.9936080798506737e-02" rms="2.7491116523742676e-01" purity="6.2112301588058472e-01" nType="0">
          <Node pos="l" depth="2" NCoef="0" IVar="5" Cut="1.7734220623970032e-01" cType="1" res="4.3464884161949158e-02" rms="2.7446848154067993e-01" purity="7.1855944395065308e-01" nType="0">
            <Node pos="l" depth="3" NCoef="0" IVar="-1" Cut="0.0000000000000000e+00" cType="1" res="2.2043814882636070e-02" rms="4.2447337508201599e-01" purity="7.5459337234497070e-01" nType="-99"/>
            <Node pos="r" depth="3" NCoef="0" IVar="-1" Cut="0.0000000000000000e+00" cType="1" res="9.2129446566104889e-03" rms="4.6808093786239624e-01" purity="6.6868734359741211e-01" nType="-99"/>
          </Node>
          <Node pos="r" depth="2" NCoef="0" IVar="9" Cut="1.3285714149475098e+01" cType="1" res="1.7162835225462914e-02" rms="2.7471765875816345e-01" purity="5.2912819385528564e-01" nType="0">
            <Node pos="l" depth="3" NCoef="0" IVar="-1" Cut="0.0000000000000000e+00" cType="1" res="-6.4544063061475754e-03" rms="4.8506879806518555e-01" purity="4.7903203964233398e-01" nType="-99"/>
            <Node pos="r" depth="3" NCoef="0" IVar="-1" Cut="0.0000000000000000e+00" cType="1" res="7.2279367595911026e-03" rms="4.9015605449676514e-01" purity="5.4762250185012817e-01" nType="-99"/>
          </Node>
        </Node>
        <Node pos="r" depth="1" NCoef="0" IVar="1" Cut="5.9938039630651474e-02" cType="1" res="2.1718672942370176e-03" rms="2.1399025619029999e-01" purity="3.7342920899391174e-01" nType="0">
          <Node pos="l" depth="2" NCoef="0" IVar="0" Cut="2.0000000000000000e+01" cType="1" res="-3.4079827368259430e-02" rms="4.7993883490562439e-01" purity="3.9872443675994873e-01" nType="0">
            <Node pos="l" depth="3" NCoef="0" IVar="-1" Cut="0.0000000000000000e+00" cType="1" res="7.5584808364510536e-03" rms="4.9339690804481506e-01" purity="5.5956625938415527e-01" nType="-99"/>
            <Node pos="r" depth="3" NCoef="0" IVar="-1" Cut="0.0000000000000000e+00" cType="1" res="-9.3261329457163811e-03" rms="4.7696784138679504e-01" purity="3.7463909387588501e-01" nType="-99"/>
          </Node>
          <Node pos="r" depth="2" NCoef="0" IVar="-1" Cut="0.0000000000000000e+00" cType="1" res="-2.4501144886016846e-02" rms="4.2718130350112915e-01" purity="2.5147610902786255e-01" nType="-99"/>
        </Node>
      </Node>
    </BinaryTree>
    <BinaryTree type="DecisionTree" boostWeight="1.0000000000000000e+00" itree="12">
      <Node pos="s" depth="0" NCoef="0" IVar="1" Cut="4.4287275522947311e-02" cType="1" res="1.5532928518950939e-02" rms="2.4699746072292328e-01" purity="5.0000000000000000e-01" nType="0">
        <Node pos="l" depth="1" NCoef="0" IVar="7" Cut="9.3781813979148865e-02" cType="1" res="2.4693271145224571e-02" rms="2.6445287466049194e-01" purity="6.0026371479034424e-01" nType="0">
          <Node pos="l" depth="2" NCoef="0" IVar="0" Cut="2.0000000000000000e+01" cType="1" res="6.6519014537334442e-02" rms="4.4894337654113770e-01" purity="7.0066535472869873e-01" nType="0">
            <Node pos="l" depth="3" NCoef="0" IVar="-1" Cut="0.0000000000000000e+00" cType="1" res="2.3295933380723000e-02" rms="4.2042729258537292e-01" purity="7.6345419883728027e-01" nType="-99"/>
            <Node pos="r" depth="3" NCoef="0" IVar="-1" Cut="0.0000000000000000e+00" cType="1" res="1.0615522973239422e-02" rms="4.6078673005104065e-01" purity="6.7093300819396973e-01" nType="-99"/>
          </Node>
          <Node pos="r" depth="2" NCoef="0" IVar="0" Cut="2.8000000000000000e+01" cType="1" res="7.9335281625390053e-03" rms="4.9146261811256409e-01" purity="5.2164256572723389e-01" nType="0">
            <Node pos="l" depth="3" NCoef="0" IVar="-1" Cut="0.0000000000000000e+00" cType="1" res="6.1185094527900219e-03" rms="4.8884904384613037e-01" purity="5.7651394605636597e-01" nType="-99"/>
            <Node pos="r" depth="3" NCoef="0" IVar="-1" Cut="0.0000000000000000e+00" cType="1" res="-3.4521252382546663e-03" rms="4.9321308732032776e-01" purity="4.5963320136070251e-01" nType="-99"/>
          </Node>
        </Node>
        <Node pos="r" depth="1" NCoef="0" IVar="0" Cut="2.8000000000000000e+01" cType="1" res="-5.4260037839412689e-02" rms="4.6376147866249084e-01" purity="3.3822748064994812e-01" nType="0">
          <Node pos="l" depth="2" NCoef="0" IVar="0" Cut="2.1000000000000000e+01" cType="1" res="-1.9878158345818520e-02" rms="4.8847901821136475e-01" purity="4.2464905977249146e-01" nType="0">
            <Node pos="l" depth="3" NCoef="0" IVar="-1" Cut="0.0000000000000000e+00" cType="1" res="2.3341206833720207e-03" rms="4.9677103757858276e-01" purity="4.9927908182144165e-01" nType="-99"/>
            <Node pos="r" depth="3" NCoef="0" IVar="-1" Cut="0.0000000000000000e+00" cType="1" res="-8.0206664279103279e-03" rms="4.8241886496543884e-01" purity="3.7965470552444458e-01" nType="-99"/>
          </Node>
          <Node pos="r" depth="2" NCoef="0" IVar="9" Cut="1.5047618865966797e+01" cType="1" res="-6.9992706179618835e-02" rms="4.3118861317634583e-01" purity="2.7706143260002136e-01" nType="0">
            <Node pos="l" depth="3" NCoef="0" IVar="-1" Cut="0.0000000000000000e+00" cType="1" res="-2.3655146360397339e-02" rms="4.2647013068199158e-01" purity="2.4577544629573822e-01" nType="-99"/>
            <Node pos="r" depth="3" NCoef="0" IVar="-1" Cut="0.0000000000000000e+00" cType="1" res="-1.0311177000403404e-02" rms="4.5985519886016846e-01" purity="3.1096211075782776e-01" nType="-99"/>
          </Node>
        </Node>
      </Node>
    </BinaryTree>
    <BinaryTree type="DecisionTree" boostWeight="1.0000000000000000e+00" itree="13">
      <Node pos="s" depth="0" NCoef="0" IVar="7" Cut="1.2212636321783066e-01" cType="1" res="1.4210084453225136e-02" rms="2.4663040041923523e-01" purity="5.0000000000000000e-01" nType="0">
        <Node pos="l" depth="1" NCoef="0" IVar="0" Cut="1.6000000000000000e+01" cType="1" res="2.9478823766112328e-02" rms="4.7283867001533508e-01" purity="5.8792287111282349e-01" nType="0">
          <Node pos="l" depth="2" NCoef="0" IVar="-1" Cut="0.0000000000000000e+00" cType="1" res="2.4159645661711693e-02" rms="4.2775020003318787e-01" purity="7.4728375673294067e-01" nType="-99"/>
          <Node pos="r" depth="2" NCoef="0" IVar="1" Cut="2.7450809255242348e-02" cType="1" res="2.3509237915277481e-02" rms="4.4004833698272705e-01" purity="5.6930625438690186e-01" nType="0">
            <Node pos="l" depth="3" NCoef="0" IVar="-1" Cut="0.0000000000000000e+00" cType="1" res="1.1718324385583401e-02" rms="4.5121198892593384e-01" purity="7.0351672172546387e-01" nType="-99"/>
            <Node pos="r" depth="3" NCoef="0" IVar="-1" Cut="0.0000000000000000e+00" cType="1" res="1.0748422937467694e-04" rms="4.9070483446121216e-01" purity="4.8877885937690735e-01" nType="-99"/>
          </Node>
        </Node>
        <Node pos="r" depth="1" NCoef="0" IVar="1" Cut="6.2872506678104401e-02" cType="1" res="3.3889104088302702e-05" rms="2.0329155027866364e-01" purity="3.4330737590789795e-01" nType="0">
          <Node pos="l" depth="2" NCoef="0" IVar="0" Cut="3.5000000000000000e+01" cType="1" res="-4.1884839534759521e-02" rms="4.7169438004493713e-01" purity="3.6277079582214355e-01" nType="0">
            <Node pos="l" depth="3" NCoef="0" IVar="-1" Cut="0.0000000000000000e+00" cType="1" res="-5.1373518072068691e-03" rms="4.8321953415870667e-01" purity="4.0342375636100769e-01" nType="-99"/>
            <Node pos="r" depth="3" NCoef="0" IVar="-1" Cut="0.0000000000000000e+00" cType="1" res="-1.6528874635696411e-02" rms="4.4638368487358093e-01" purity="2.8320625424385071e-01" nType="-99"/>
          </Node>
          <Node pos="r" depth="2" NCoef="0" IVar="-1" Cut="0.0000000000000000e+00" cType="1" res="-2.5056768208742142e-02" rms="4.1639816761016846e-01" purity="2.3374706506729126e-01" nType="-99"/>
        </Node>
      </Node>
    </BinaryTree>
    <BinaryTree type="DecisionTree" boostWeight="1.0000000000000000e+00" itree="14">
      <Node pos="s" depth="0" NCoef="0" IVar="1" Cut="4.4287275522947311e-02" cType="1" res="1.3360800221562386e-02" rms="2.4625691771507263e-01" purity="5.0000000000000000e-01" nType="0">
        <Node pos="l" depth="1" NCoef="0" IVar="0" Cut="1.6000000000000000e+01" cType="1" res="2.7960004284977913e-02" rms="4.7356691956520081e-01" purity="6.0026371479034424e-01" nType="0">
          <Node pos="l" depth="2" NCoef="0" IVar="-1" Cut="0.0000000000000000e+00" cType="1" res="2.2861650213599205e-02" rms="4.2328718304634094e-01" purity="7.5795495510101318e-01" nType="-99"/>
          <Node pos="r" depth="2" NCoef="0" IVar="1" Cut="2.9586914926767349e-02" cType="1" res="2.2716518491506577e-02" rms="4.3935495615005493e-01" purity="5.8220016956329346e-01" nType="0">
            <Node pos="l" depth="3" NCoef="0" IVar="-1" Cut="0.0000000000000000e+00" cType="1" res="1.0056309401988983e-02" rms="4.5676970481872559e-01" purity="6.8805813789367676e-01" nType="-99"/>
            <Node pos="r" depth="3" NCoef="0" IVar="-1" Cut="0.0000000000000000e+00" cType="1" res="-4.0617460035718977e-04" rms="4.9427089095115662e-01" purity="4.9481093883514404e-01" nType="-99"/>
          </Node>
        </Node>
        <Node pos="r" depth="1" NCoef="0" IVar="0" Cut="3.1000000000000000e+01" cType="1" res="-4.5072764158248901e-02" rms="4.6312290430068970e-01" purity="3.3822748064994812e-01" nType="0">
          <Node pos="l" depth="2" NCoef="0" IVar="1" Cut="5.7698603719472885e-02" cType="1" res="1.8345386488363147e-03" rms="2.9479834437370300e-01" purity="4.0281459689140320e-01" nType="0">
            <Node pos="l" depth="3" NCoef="0" IVar="-1" Cut="0.0000000000000000e+00" cType="1" res="-1.3417178997769952e-03" rms="4.8970165848731995e-01" purity="4.3203389644622803e-01" nType="-99"/>
            <Node pos="r" depth="3" NCoef="0" IVar="-1" Cut="0.0000000000000000e+00" cType="1" res="-1.2156767770648003e-02" rms="4.6563303470611572e-01" purity="3.3269786834716797e-01" nType="-99"/>
          </Node>
          <Node pos="r" depth="2" NCoef="0" IVar="9" Cut="1.4238095283508301e+01" cType="1" res="-6.6834233701229095e-02" rms="4.2888575792312622e-01" purity="2.6501092314720154e-01" nType="0">
            <Node pos="l" depth="3" NCoef="0" IVar="-1" Cut="0.0000000000000000e+00" cType="1" res="-2.6615986600518227e-02" rms="4.0153110027313232e-01" purity="2.0660246908664703e-01" nType="-99"/>
            <Node pos="r" depth="3" NCoef="0" IVar="-1" Cut="0.0000000000000000e+00" cType="1" res="-1.1952810920774937e-02" rms="4.5047584176063538e-01" purity="2.8928321599960327e-01" nType="-99"/>
          </Node>
        </Node>
      </Node>
    </BinaryTree>
    <BinaryTree type="DecisionTree" boostWeight="1.0000000000000000e+00" itree="15">
      <Node pos="s" depth="0" NCoef="0" IVar="7" Cut="1.2212636321783066e-01" cType="1" res="1.2544870376586914e-02" rms="2.4595449864864349e-01" purity="5.0000000000000000e-01" nType="0">
        <Node pos="l" depth="1" NCoef="0" IVar="7" Cut="7.7584765851497650e-02" cType="1" res="1.9090501591563225e-02" rms="2.6675999164581299e-01" purity="5.8792287111282349e-01" nType="0">
          <Node pos="l" depth="2" NCoef="0" IVar="4" Cut="1.7673180997371674e-01" cType="1" res="4.0668401867151260e-02" rms="2.7734649181365967e-01" purity="7.4294626712799072e-01" nType="0">
            <Node pos="l" depth="3" NCoef="0" IVar="-1" Cut="0.0000000000000000e+00" cType="1" res="2.2852879017591476e-02" rms="3.9533522725105286e-01" purity="7.9829800128936768e-01" nType="-99"/>
            <Node pos="r" depth="3" NCoef="0" IVar="-1" Cut="0.0000000000000000e+00" cType="1" res="1.0350956581532955e-02" rms="4.4847753643989563e-01" purity="7.0017582178115845e-01" nType="-99"/>
          </Node>
          <Node pos="r" depth="2" NCoef="0" IVar="9" Cut="1.3285714149475098e+01" cType="1" res="1.2653073295950890e-02" rms="2.6317688822746277e-01" purity="5.4167407751083374e-01" nType="0">
            <Node pos="l" depth="3" NCoef="0" IVar="-1" Cut="0.0000000000000000e+00" cType="1" res="-6.8419384770095348e-03" rms="4.7948259115219116e-01" purity="4.9719989299774170e-01" nType="-99"/>
            <Node pos="r" depth="3" NCoef="0" IVar="-1" Cut="0.0000000000000000e+00" cType="1" res="5.1879514940083027e-03" rms="4.8493650555610657e-01" purity="5.5467516183853149e-01" nType="-99"/>
          </Node>
        </Node>
        <Node pos="r" depth="1" NCoef="0" IVar="9" Cut="1.4238095283508301e+01" cType="1" res="8.7950821034610271e-04" rms="2.0315116643905640e-01" purity="3.4330737590789795e-01" nType="0">
          <Node pos="l" depth="2" NCoef="0" IVar="-1" Cut="0.0000000000000000e+00" cType="1" res="-1.7924472689628601e-02" rms="4.4385623931884766e-01" purity="3.0094575881958008e-01" nType="-99"/>
          <Node pos="r" depth="2" NCoef="0" IVar="10" Cut="2.9964104294776917e-01" cType="1" res="2.6476597413420677e-03" rms="1.9668759405612946e-01" purity="3.5949823260307312e-01" nType="0">
            <Node pos="l" depth="3" NCoef="0" IVar="-1" Cut="0.0000000000000000e+00" cType="1" res="-1.2606512755155563e-02" rms="4.5484444499015808e-01" purity="3.0610638856887817e-01" nType="-99"/>
            <Node pos="r" depth="3" NCoef="0" IVar="-1" Cut="0.0000000000000000e+00" cType="1" res="1.9313117954879999e-03" rms="4.8827430605888367e-01" purity="4.3087318539619446e-01" nType="-99"/>
          </Node>
        </Node>
      </Node>
    </BinaryTree>
    <BinaryTree type="DecisionTree" boostWeight="1.0000000000000000e+00" itree="16">
      <Node pos="s" depth="0" NCoef="0" IVar="7" Cut="1.0263942927122116e-01" cType="1" res="1.2217292562127113e-02" rms="2.4573896825313568e-01" purity="5.0000000000000000e-01" nType="0">
        <Node pos="l" depth="1" NCoef="0" IVar="0" Cut="2.5000000000000000e+01" cType="1" res="3.8030009716749191e-02" rms="4.5988172292709351e-01" purity="6.5592288970947266e-01" nType="0">
          <Node pos="l" depth="2" NCoef="0" IVar="0" Cut="1.6000000000000000e+01" cType="1" res="5.8255169540643692e-02" rms="4.4665029644966125e-01" purity="7.0413142442703247e-01" nType="0">
            <Node pos="l" depth="3" NCoef="0" IVar="-1" Cut="0.0000000000000000e+00" cType="1" res="2.1450564265251160e-02" rms="4.1257962584495544e-01" purity="7.7469873428344727e-01" nType="-99"/>
            <Node pos="r" depth="3" NCoef="0" IVar="-1" Cut="0.0000000000000000e+00" cType="1" res="1.0520189069211483e-02" rms="4.5643904805183411e-01" purity="6.8170171976089478e-01" nType="-99"/>
          </Node>
          <Node pos="r" depth="2" NCoef="0" IVar="9" Cut="1.4047618865966797e+01" cType="1" res="1.6070449724793434e-02" rms="4.6358740329742432e-01" purity="6.0000222921371460e-01" nType="0">
            <Node pos="l" depth="3" NCoef="0" IVar="-1" Cut="0.0000000000000000e+00" cType="1" res="-4.2966553010046482e-03" rms="4.7790181636810303e-01" purity="5.4807734489440918e-01" nType="-99"/>
            <Node pos="r" depth="3" NCoef="0" IVar="-1" Cut="0.0000000000000000e+00" cType="1" res="8.1874001771211624e-03" rms="4.6938025951385498e-01" purity="6.3510835170745850e-01" nType="-99"/>
          </Node>
        </Node>
        <Node pos="r" depth="1" NCoef="0" IVar="1" Cut="5.7382330298423767e-02" cType="1" res="3.8735989946871996e-03" rms="2.2325922548770905e-01" purity="4.0156960487365723e-01" nType="0">
          <Node pos="l" depth="2" NCoef="0" IVar="9" Cut="1.4571428298950195e+01" cType="1" res="5.6117852218449116e-03" rms="2.2905702888965607e-01" purity="4.3394008278846741e-01" nType="0">
            <Node pos="l" depth="3" NCoef="0" IVar="-1" Cut="0.0000000000000000e+00" cType="1" res="-9.2421444132924080e-03" rms="4.7467213869094849e-01" purity="4.0514370799064636e-01" nType="-99"/>
            <Node pos="r" depth="3" NCoef="0" IVar="-1" Cut="0.0000000000000000e+00" cType="1" res="2.6927929138764739e-04" rms="4.8651790618896484e-01" purity="4.4709318876266479e-01" nType="-99"/>
          </Node>
          <Node pos="r" depth="2" NCoef="0" IVar="9" Cut="1.5047618865966797e+01" cType="1" res="-7.1516176685690880e-03" rms="2.3105338215827942e-01" purity="2.6573652029037476e-01" nType="0">
            <Node pos="l" depth="3" NCoef="0" IVar="-1" Cut="0.0000000000000000e+00" cType="1" res="-2.3032566532492638e-02" rms="4.1121566295623779e-01" purity="2.2940781712532043e-01" nType="-99"/>
            <Node pos="r" depth="3" NCoef="0" IVar="-1" Cut="0.0000000000000000e+00" cType="1" res="-9.9165476858615875e-03" rms="4.5129913091659546e-01" purity="2.9768523573875427e-01" nType="-99"/>
          </Node>
        </Node>
      </Node>
    </BinaryTree>
    <BinaryTree type="DecisionTree" boostWeight="1.0000000000000000e+00" itree="17">
      <Node pos="s" depth="0" NCoef="0" IVar="10" Cut="3.3393144607543945e-01" cType="1" res="1.1610036715865135e-02" rms="2.4550859630107880e-01" purity="5.0000000000000000e-01" nType="0">
        <Node pos="l" depth="1" NCoef="0" IVar="9" Cut="1.4238095283508301e+01" cType="1" res="2.2166809067130089e-03" rms="2.0597320795059204e-01" purity="3.8107961416244507e-01" nType="0">
          <Node pos="l" depth="2" NCoef="0" IVar="0" Cut="3.1000000000000000e+01" cType="1" res="-7.9658560454845428e-02" rms="4.4708928465843201e-01" purity="3.0874139070510864e-01" nType="0">
            <Node pos="l" depth="3" NCoef="0" IVar="-1" Cut="0.0000000000000000e+00" cType="1" res="-1.1930232867598534e-02" rms="4.7555121779441833e-01" purity="3.8320171833038330e-01" nType="-99"/>
            <Node pos="r" depth="3" NCoef="0" IVar="-1" Cut="0.0000000000000000e+00" cType="1" res="-2.3615414276719093e-02" rms="4.1408467292785645e-01" purity="2.3112384974956512e-01" nType="-99"/>
          </Node>
          <Node pos="r" depth="2" NCoef="0" IVar="10" Cut="2.9680618643760681e-01" cType="1" res="4.0714805945754051e-03" rms="2.0578506588935852e-01" purity="4.0078216791152954e-01" nType="0">
            <Node pos="l" depth="3" NCoef="0" IVar="-1" Cut="0.0000000000000000e+00" cType="1" res="-1.1448984965682030e-02" rms="4.5380139350891113e-01" purity="3.0375012755393982e-01" nType="-99"/>
            <Node pos="r" depth="3" NCoef="0" IVar="-1" Cut="0.0000000000000000e+00" cType="1" res="1.4994284138083458e-03" rms="4.9009943008422852e-01" purity="4.5717203617095947e-01" nType="-99"/>
          </Node>
        </Node>
        <Node pos="r" depth="1" NCoef="0" IVar="9" Cut="1.3142857551574707e+01" cType="1" res="2.0728273317217827e-02" rms="2.7826675772666931e-01" purity="6.1543738842010498e-01" nType="0">
          <Node pos="l" depth="2" NCoef="0" IVar="0" Cut="2.3000000000000000e+01" cType="1" res="-8.2115093246102333e-03" rms="4.6764203906059265e-01" purity="5.5108416080474854e-01" nType="0">
            <Node pos="l" depth="3" NCoef="0" IVar="-1" Cut="0.0000000000000000e+00" cType="1" res="6.6023017279803753e-03" rms="4.5989444851875305e-01" purity="6.5354204177856445e-01" nType="-99"/>
            <Node pos="r" depth="3" NCoef="0" IVar="-1" Cut="0.0000000000000000e+00" cType="1" res="-9.1519160196185112e-03" rms="4.7189906239509583e-01" purity="4.5867633819580078e-01" nType="-99"/>
          </Node>
          <Node pos="r" depth="2" NCoef="0" IVar="5" Cut="1.9382360577583313e-01" cType="1" res="2.3963559418916702e-02" rms="2.6708817481994629e-01" purity="6.4767229557037354e-01" nType="0">
            <Node pos="l" depth="3" NCoef="0" IVar="-1" Cut="0.0000000000000000e+00" cType="1" res="1.4478781260550022e-02" rms="4.4620111584663391e-01" purity="6.9110083580017090e-01" nType="-99"/>
            <Node pos="r" depth="3" NCoef="0" IVar="-1" Cut="0.0000000000000000e+00" cType="1" res="4.9236640334129333e-03" rms="4.8115161061286926e-01" purity="5.9773492813110352e-01" nType="-99"/>
          </Node>
        </Node>
      </Node>
    </BinaryTree>
    <BinaryTree type="DecisionTree" boostWeight="1.0000000000000000e+00" itree="18">
      <Node pos="s" depth="0" NCoef="0" IVar="1" Cut="4.4287275522947311e-02" cType="1" res="1.0996415279805660e-02" rms="2.4533118307590485e-01" purity="5.0000000000000000e-01" nType="0">
        <Node pos="l" depth="1" NCoef="0" IVar="0" Cut="2.9000000000000000e+01" cType="1" res="1.9944529980421066e-02" rms="4.7251290082931519e-01" purity="6.0026371479034424e-01" nType="0">
          <Node pos="l" depth="2" NCoef="0" IVar="0" Cut="1.6000000000000000e+01" cType="1" res="3.5510364919900894e-02" rms="4.6514511108398438e-01" purity="6.4659947156906128e-01" nType="0">
            <Node pos="l" depth="3" NCoef="0" IVar="-1" Cut="0.0000000000000000e+00" cType="1" res="1.8573502078652382e-02" rms="4.2313411831855774e-01" purity="7.5795495510101318e-01" nType="-99"/>
            <Node pos="r" depth="3" NCoef="0" IVar="-1" Cut="0.0000000000000000e+00" cType="1" res="5.8066295459866524e-03" rms="4.7228777408599854e-01" purity="6.2529212236404419e-01" nType="-99"/>
          </Node>
          <Node pos="r" depth="2" NCoef="0" IVar="9" Cut="1.4047618865966797e+01" cType="1" res="-6.5104668028652668e-03" rms="4.7619113326072693e-01" purity="5.1792311668395996e-01" nType="0">
            <Node pos="l" depth="3" NCoef="0" IVar="-1" Cut="0.0000000000000000e+00" cType="1" res="-8.9048426598310471e-03" rms="4.8159515857696533e-01" purity="4.7467383742332458e-01" nType="-99"/>
            <Node pos="r" depth="3" NCoef="0" IVar="-1" Cut="0.0000000000000000e+00" cType="1" res="1.9464027136564255e-03" rms="4.8441129922866821e-01" purity="5.3912258148193359e-01" nType="-99"/>
          </Node>
        </Node>
        <Node pos="r" depth="1" NCoef="0" IVar="0" Cut="3.7000000000000000e+01" cType="1" res="-3.2159056514501572e-02" rms="4.6199306845664978e-01" purity="3.3822748064994812e-01" nType="0">
          <Node pos="l" depth="2" NCoef="0" IVar="9" Cut="1.5285714149475098e+01" cType="1" res="3.1166051048785448e-03" rms="2.4981458485126495e-01" purity="3.7161892652511597e-01" nType="0">
            <Node pos="l" depth="3" NCoef="0" IVar="-1" Cut="0.0000000000000000e+00" cType="1" res="-8.1410231068730354e-03" rms="4.6658787131309509e-01" purity="3.5242280364036560e-01" nType="-99"/>
            <Node pos="r" depth="3" NCoef="0" IVar="-1" Cut="0.0000000000000000e+00" cType="1" res="4.6790495980530977e-04" rms="4.8074048757553101e-01" purity="3.9352706074714661e-01" nType="-99"/>
          </Node>
          <Node pos="r" depth="2" NCoef="0" IVar="-1" Cut="0.0000000000000000e+00" cType="1" res="-1.6092555597424507e-02" rms="4.2529398202896118e-01" purity="2.4426613748073578e-01" nType="-99"/>
        </Node>
      </Node>
    </BinaryTree>
    <BinaryTree type="DecisionTree" boostWeight="1.0000000000000000e+00" itree="19">
      <Node pos="s" depth="0" NCoef="0" IVar="10" Cut="3.3393144607543945e-01" cType="1" res="1.0272243991494179e-02" rms="2.4515973031520844e-01" purity="5.0000000000000000e-01" nType="0">
        <Node pos="l" depth="1" NCoef="0" IVar="9" Cut="1.4238095283508301e+01" cType="1" res="2.4088758509606123e-03" rms="2.0585684478282928e-01" purity="3.8107961416244507e-01" nType="0">
          <Node pos="l" depth="2" NCoef="0" IVar="10" Cut="3.1621250510215759e-01" cType="1" res="-6.8383240140974522e-03" rms="2.4187143146991730e-01" purity="3.0874139070510864e-01" nType="0">
            <Node pos="l" depth="3" NCoef="0" IVar="-1" Cut="0.0000000000000000e+00" cType="1" res="-1.9907506182789803e-02" rms="4.2526230216026306e-01" purity="2.5514999032020569e-01" nType="-99"/>
            <Node pos="r" depth="3" NCoef="0" IVar="-1" Cut="0.0000000000000000e+00" cType="1" res="-1.0634601116180420e-02" rms="4.6705555915832520e-01" purity="3.6332485079765320e-01" nType="-99"/>
          </Node>
          <Node pos="r" depth="2" NCoef="0" IVar="10" Cut="3.0144676566123962e-01" cType="1" res="4.0091942064464092e-03" rms="2.0569269359111786e-01" purity="4.0078216791152954e-01" nType="0">
            <Node pos="l" depth="3" NCoef="0" IVar="-1" Cut="0.0000000000000000e+00" cType="1" res="-8.6419349536299706e-03" rms="4.5908927917480469e-01" purity="3.1892013549804688e-01" nType="-99"/>
            <Node pos="r" depth="3" NCoef="0" IVar="-1" Cut="0.0000000000000000e+00" cType="1" res="2.2021466866135597e-03" rms="4.9153640866279602e-01" purity="4.6991419792175293e-01" nType="-99"/>
          </Node>
        </Node>
        <Node pos="r" depth="1" NCoef="0" IVar="9" Cut="1.2428571701049805e+01" cType="1" res="1.7905304208397865e-02" rms="2.7783462405204773e-01" purity="6.1543738842010498e-01" nType="0">
          <Node pos="l" depth="2" NCoef="0" IVar="-1" Cut="0.0000000000000000e+00" cType="1" res="-5.3842230699956417e-03" rms="4.6409770846366882e-01" purity="5.2915948629379272e-01" nType="-99"/>
          <Node pos="r" depth="2" NCoef="0" IVar="7" Cut="6.4336732029914856e-02" cType="1" res="2.0347736775875092e-02" rms="2.7166330814361572e-01" purity="6.3468647003173828e-01" nType="0">
            <Node pos="l" depth="3" NCoef="0" IVar="-1" Cut="0.0000000000000000e+00" cType="1" res="1.9663492217659950e-02" rms="3.9313954114913940e-01" purity="8.0112177133560181e-01" nType="-99"/>
            <Node pos="r" depth="3" NCoef="0" IVar="-1" Cut="0.0000000000000000e+00" cType="1" res="5.7350196875631809e-03" rms="4.7517132759094238e-01" purity="6.0620576143264771e-01" nType="-99"/>
          </Node>
        </Node>
      </Node>
    </BinaryTree>
    <BinaryTree type="DecisionTree" boostWeight="1.0000000000000000e+00" itree="20">
      <Node pos="s" depth="0" NCoef="0" IVar="0" Cut="2.6000000000000000e+01" cType="1" res="5.8097575674764812e-06" rms="4.6861448884010315e-01" purity="5.0000000000000000e-01" nType="0">
        <Node pos="l" depth="1" NCoef="0" IVar="0" Cut="1.5000000000000000e+01" cType="1" res="2.4893116205930710e-02" rms="4.6961310505867004e-01" purity="5.9951782226562500e-01" nType="0">
          <Node pos="l" depth="2" NCoef="0" IVar="-1" Cut="0.0000000000000000e+00" cType="1" res="1.9865687936544418e-02" rms="4.3045607209205627e-01" purity="7.3769366741180420e-01" nType="-99"/>
          <Node pos="r" depth="2" NCoef="0" IVar="1" Cut="3.5051114857196808e-02" cType="1" res="0.0000000000000000e+00" rms="0.0000000000000000e+00" purity="5.7829642295837402e-01" nType="0">
            <Node pos="l" depth="3" NCoef="0" IVar="-1" Cut="0.0000000000000000e+00" cType="1" res="7.8101768158376217e-03" rms="4.5515850186347961e-01" purity="6.9043523073196411e-01" nType="-99"/>
            <Node pos="r" depth="3" NCoef="0" IVar="-1" Cut="0.0000000000000000e+00" cType="1" res="-5.9269944904372096e-04" rms="4.9179887771606445e-01" purity="4.7128328680992126e-01" nType="-99"/>
          </Node>
        </Node>
        <Node pos="r" depth="1" NCoef="0" IVar="9" Cut="1.3428571701049805e+01" cType="1" res="-1.5936346724629402e-02" rms="4.5292049646377563e-01" purity="4.1923353075981140e-01" nType="0">
          <Node pos="l" depth="2" NCoef="0" IVar="-1" Cut="0.0000000000000000e+00" cType="1" res="-1.4849131926894188e-02" rms="4.4930219650268555e-01" purity="3.6300450563430786e-01" nType="-99"/>
          <Node pos="r" depth="2" NCoef="0" IVar="10" Cut="2.9505640268325806e-01" cType="1" res="-7.0657636970281601e-03" rms="4.5522090792655945e-01" purity="4.3085160851478577e-01" nType="0">
            <Node pos="l" depth="3" NCoef="0" IVar="-1" Cut="0.0000000000000000e+00" cType="1" res="-1.2337232939898968e-02" rms="4.3789240717887878e-01" purity="2.6553156971931458e-01" nType="-99"/>
            <Node pos="r" depth="3" NCoef="0" IVar="-1" Cut="0.0000000000000000e+00" cType="1" res="6.1195989837870002e-04" rms="4.7858750820159912e-01" purity="4.8278477787971497e-01" nType="-99"/>
          </Node>
        </Node>
      </Node>
    </BinaryTree>
    <BinaryTree type="DecisionTree" boostWeight="1.0000000000000000e+00" itree="21">
      <Node pos="s" depth="0" NCoef="0" IVar="0" Cut="3.1000000000000000e+01" cType="1" res="5.8919504226651043e-06" rms="4.6833586692810059e-01" purity="5.0000000000000000e-01" nType="0">
        <Node pos="l" depth="1" NCoef="0" IVar="0" Cut="1.5000000000000000e+01" cType="1" res="1.5439425595104694e-02" rms="4.7177827358245850e-01" purity="5.6320917606353760e-01" nType="0">
          <Node pos="l" depth="2" NCoef="0" IVar="-1" Cut="0.0000000000000000e+00" cType="1" res="1.8097583204507828e-02" rms="4.3045103549957275e-01" purity="7.3769366741180420e-01" nType="-99"/>
          <Node pos="r" depth="2" NCoef="0" IVar="1" Cut="3.2903671264648438e-02" cType="1" res="2.7217844501137733e-02" rms="2.8573817014694214e-01" purity="5.4531574249267578e-01" nType="0">
            <Node pos="l" depth="3" NCoef="0" IVar="-1" Cut="0.0000000000000000e+00" cType="1" res="6.8906499072909355e-03" rms="4.5625254511833191e-01" purity="6.8732726573944092e-01" nType="-99"/>
            <Node pos="r" depth="3" NCoef="0" IVar="-1" Cut="0.0000000000000000e+00" cType="1" res="-1.1606480693444610e-03" rms="4.8741143941879272e-01" purity="4.4839507341384888e-01" nType="-99"/>
          </Node>
        </Node>
        <Node pos="r" depth="1" NCoef="0" IVar="9" Cut="1.3428571701049805e+01" cType="1" res="-2.5262659415602684e-02" rms="4.5342501997947693e-01" purity="3.8701540231704712e-01" nType="0">
          <Node pos="l" depth="2" NCoef="0" IVar="-1" Cut="0.0000000000000000e+00" cType="1" res="-1.7267126590013504e-02" rms="4.3491679430007935e-01" purity="3.1502440571784973e-01" nType="-99"/>
          <Node pos="r" depth="2" NCoef="0" IVar="7" Cut="1.3964112102985382e-01" cType="1" res="-1.6327936202287674e-02" rms="4.5744875073432922e-01" purity="4.0101483464241028e-01" nType="0">
            <Node pos="l" depth="3" NCoef="0" IVar="-1" Cut="0.0000000000000000e+00" cType="1" res="-1.2925497721880674e-03" rms="4.7689646482467651e-01" purity="4.5314040780067444e-01" nType="-99"/>
            <Node pos="r" depth="3" NCoef="0" IVar="-1" Cut="0.0000000000000000e+00" cType="1" res="-1.3360173441469669e-02" rms="4.2505386471748352e-01" purity="2.4199552834033966e-01" nType="-99"/>
          </Node>
        </Node>
      </Node>
    </BinaryTree>
    <BinaryTree type="DecisionTree" boostWeight="1.0000000000000000e+00" itree="22">
      <Node pos="s" depth="0" NCoef="0" IVar="10" Cut="3.3393144607543945e-01" cType="1" res="8.4265656769275665e-03" rms="2.4468146264553070e-01" purity="5.0000000000000000e-01" nType="0">
        <Node pos="l" depth="1" NCoef="0" IVar="9" Cut="1.5047618865966797e+01" cType="1" res="2.2946866229176521e-03" rms="2.0561257004737854e-01" purity="3.8107961416244507e-01" nType="0">
          <Node pos="l" depth="2" NCoef="0" IVar="1" Cut="5.4087307304143906e-02" cType="1" res="-2.6402096264064312e-03" rms="2.4517720937728882e-01" purity="3.5387641191482544e-01" nType="0">
            <Node pos="l" depth="3" NCoef="0" IVar="-1" Cut="0.0000000000000000e+00" cType="1" res="-6.5165455453097820e-03" rms="4.7657302021980286e-01" purity="3.9398646354675293e-01" nType="-99"/>
            <Node pos="r" depth="3" NCoef="0" IVar="-1" Cut="0.0000000000000000e+00" cType="1" res="-1.7376197502017021e-02" rms="4.1513773798942566e-01" purity="2.3652893304824829e-01" nType="-99"/>
          </Node>
          <Node pos="r" depth="2" NCoef="0" IVar="10" Cut="2.8752499818801880e-01" cType="1" res="5.0182831473648548e-03" rms="2.0324891805648804e-01" purity="4.0640926361083984e-01" nType="0">
            <Node pos="l" depth="3" NCoef="0" IVar="-1" Cut="0.0000000000000000e+00" cType="1" res="-8.7385755032300949e-03" rms="4.4625687599182129e-01" purity="2.8426927328109741e-01" nType="-99"/>
            <Node pos="r" depth="3" NCoef="0" IVar="-1" Cut="0.0000000000000000e+00" cType="1" res="2.9087124858051538e-03" rms="4.8808309435844421e-01" purity="4.4653478264808655e-01" nType="-99"/>
          </Node>
        </Node>
        <Node pos="r" depth="1" NCoef="0" IVar="9" Cut="1.2428571701049805e+01" cType="1" res="1.4378850348293781e-02" rms="2.7726218104362488e-01" purity="6.1543738842010498e-01" nType="0">
          <Node pos="l" depth="2" NCoef="0" IVar="-1" Cut="0.0000000000000000e+00" cType="1" res="-4.8060738481581211e-03" rms="4.6315491199493408e-01" purity="5.2915948629379272e-01" nType="-99"/>
          <Node pos="r" depth="2" NCoef="0" IVar="11" Cut="3.5534049384295940e-03" cType="1" res="1.6508242115378380e-02" rms="2.7106943726539612e-01" purity="6.3468647003173828e-01" nType="0">
            <Node pos="l" depth="3" NCoef="0" IVar="-1" Cut="0.0000000000000000e+00" cType="1" res="1.2713604606688023e-02" rms="4.3488007783889771e-01" purity="7.1512633562088013e-01" nType="-99"/>
            <Node pos="r" depth="3" NCoef="0" IVar="-1" Cut="0.0000000000000000e+00" cType="1" res="3.7774026859551668e-03" rms="4.7477093338966370e-01" purity="6.0286605358123779e-01" nType="-99"/>
          </Node>
        </Node>
      </Node>
    </BinaryTree>
    <BinaryTree type="DecisionTree" boostWeight="1.0000000000000000e+00" itree="23">
      <Node pos="s" depth="0" NCoef="0" IVar="0" Cut="2.2000000000000000e+01" cType="1" res="3.6991086744819768e-06" rms="4.6789380908012390e-01" purity="5.0000000000000000e-01" nType="0">
        <Node pos="l" depth="1" NCoef="0" IVar="0" Cut="1.5000000000000000e+01" cType="1" res="2.9565047472715378e-02" rms="4.6263357996940613e-01" purity="6.3913398981094360e-01" nType="0">
          <Node pos="l" depth="2" NCoef="0" IVar="-1" Cut="0.0000000000000000e+00" cType="1" res="1.6328878700733185e-02" rms="4.3041679263114929e-01" purity="7.3769366741180420e-01" nType="-99"/>
          <Node pos="r" depth="2" NCoef="0" IVar="7" Cut="8.2812584936618805e-02" cType="1" res="0.0000000000000000e+00" rms="0.0000000000000000e+00" purity="6.1229830980300903e-01" nType="0">
            <Node pos="l" depth="3" NCoef="0" IVar="-1" Cut="0.0000000000000000e+00" cType="1" res="1.1230089701712132e-02" rms="4.2496922612190247e-01" purity="7.5249505043029785e-01" nType="-99"/>
            <Node pos="r" depth="3" NCoef="0" IVar="-1" Cut="0.0000000000000000e+00" cType="1" res="1.8017195397987962e-03" rms="4.8592996597290039e-01" purity="5.5999547243118286e-01" nType="-99"/>
          </Node>
        </Node>
        <Node pos="r" depth="1" NCoef="0" IVar="1" Cut="6.0892794281244278e-02" cType="1" res="-6.0995346866548061e-03" rms="4.4674763083457947e-01" purity="4.4624090194702148e-01" nType="0">
          <Node pos="l" depth="2" NCoef="0" IVar="9" Cut="1.5571428298950195e+01" cType="1" res="-1.5367609448730946e-03" rms="4.5253255963325500e-01" purity="4.6999931335449219e-01" nType="0">
            <Node pos="l" depth="3" NCoef="0" IVar="-1" Cut="0.0000000000000000e+00" cType="1" res="-4.1960282251238823e-03" rms="4.7230562567710876e-01" purity="4.5932921767234802e-01" nType="-99"/>
            <Node pos="r" depth="3" NCoef="0" IVar="-1" Cut="0.0000000000000000e+00" cType="1" res="3.0776050407439470e-03" rms="4.7764593362808228e-01" purity="4.8571559786796570e-01" nType="-99"/>
          </Node>
          <Node pos="r" depth="2" NCoef="0" IVar="-1" Cut="0.0000000000000000e+00" cType="1" res="-1.5759389847517014e-02" rms="4.1252875328063965e-01" purity="2.2465604543685913e-01" nType="-99"/>
        </Node>
      </Node>
    </BinaryTree>
    <BinaryTree type="DecisionTree" boostWeight="1.0000000000000000e+00" itree="24">
      <Node pos="s" depth="0" NCoef="0" IVar="0" Cut="3.3000000000000000e+01" cType="1" res="3.5824887163471431e-06" rms="4.6771341562271118e-01" purity="5.0000000000000000e-01" nType="0">
        <Node pos="l" depth="1" NCoef="0" IVar="0" Cut="1.5000000000000000e+01" cType="1" res="1.1269826442003250e-02" rms="4.7137323021888733e-01" purity="5.5171322822570801e-01" nType="0">
          <Node pos="l" depth="2" NCoef="0" IVar="-1" Cut="0.0000000000000000e+00" cType="1" res="1.4858701266348362e-02" rms="4.3041336536407471e-01" purity="7.3769366741180420e-01" nType="-99"/>
          <Node pos="r" depth="2" NCoef="0" IVar="4" Cut="2.2091476619243622e-01" cType="1" res="6.7155510187149048e-03" rms="9.4651453197002411e-02" purity="5.3456681966781616e-01" nType="0">
            <Node pos="l" depth="3" NCoef="0" IVar="-1" Cut="0.0000000000000000e+00" cType="1" res="7.6679466292262077e-03" rms="4.5059829950332642e-01" purity="6.6714280843734741e-01" nType="-99"/>
            <Node pos="r" depth="3" NCoef="0" IVar="-1" Cut="0.0000000000000000e+00" cType="1" res="-4.3528640526346862e-04" rms="4.8183164000511169e-01" purity="4.9214991927146912e-01" nType="-99"/>
          </Node>
        </Node>
        <Node pos="r" depth="1" NCoef="0" IVar="9" Cut="1.5047618865966797e+01" cType="1" res="-2.5343842804431915e-02" rms="4.5188596844673157e-01" purity="3.7547072768211365e-01" nType="0">
          <Node pos="l" depth="2" NCoef="0" IVar="1" Cut="5.0004310905933380e-02" cType="1" res="-4.2004533112049103e-02" rms="4.4471412897109985e-01" purity="3.5339769721031189e-01" nType="0">
            <Node pos="l" depth="3" NCoef="0" IVar="-1" Cut="0.0000000000000000e+00" cType="1" res="-7.0313089527189732e-03" rms="4.7452098131179810e-01" purity="4.2885032296180725e-01" nType="-99"/>
            <Node pos="r" depth="3" NCoef="0" IVar="-1" Cut="0.0000000000000000e+00" cType="1" res="-1.7811929807066917e-02" rms="3.9241793751716614e-01" purity="1.9474324584007263e-01" nType="-99"/>
          </Node>
          <Node pos="r" depth="2" NCoef="0" IVar="7" Cut="1.3078708946704865e-01" cType="1" res="-4.4470392167568207e-03" rms="4.5987093448638916e-01" purity="4.0315604209899902e-01" nType="0">
            <Node pos="l" depth="3" NCoef="0" IVar="-1" Cut="0.0000000000000000e+00" cType="1" res="2.3517706431448460e-03" rms="4.8080894351005554e-01" purity="4.9598583579063416e-01" nType="-99"/>
            <Node pos="r" depth="3" NCoef="0" IVar="-1" Cut="0.0000000000000000e+00" cType="1" res="-6.5444903448224068e-03" rms="4.4480654597282410e-01" purity="2.7896618843078613e-01" nType="-99"/>
          </Node>
        </Node>
      </Node>
    </BinaryTree>
    <BinaryTree type="DecisionTree" boostWeight="1.0000000000000000e+00" itree="25">
      <Node pos="s" depth="0" NCoef="0" IVar="10" Cut="3.6641573905944824e-01" cType="1" res="6.8778214044868946e-03" rms="2.4435226619243622e-01" purity="5.0000000000000000e-01" nType="0">
        <Node pos="l" depth="1" NCoef="0" IVar="9" Cut="1.3428571701049805e+01" cType="1" res="2.8993422165513039e-03" rms="2.2667203843593597e-01" purity="4.2495575547218323e-01" nType="0">
          <Node pos="l" depth="2" NCoef="0" IVar="-1" Cut="0.0000000000000000e+00" cType="1" res="-1.3207871466875076e-02" rms="4.5199808478355408e-01" purity="3.4608635306358337e-01" nType="-99"/>
          <Node pos="r" depth="2" NCoef="0" IVar="10" Cut="3.1072801351547241e-01" cType="1" res="4.3668569996953011e-03" rms="2.2358885407447815e-01" purity="4.3704068660736084e-01" nType="0">
            <Node pos="l" depth="3" NCoef="0" IVar="-1" Cut="0.0000000000000000e+00" cType="1" res="-5.4164668545126915e-03" rms="4.6296018362045288e-01" purity="3.3772033452987671e-01" nType="-99"/>
            <Node pos="r" depth="3" NCoef="0" IVar="-1" Cut="0.0000000000000000e+00" cType="1" res="2.9757972806692123e-03" rms="4.8876959085464478e-01" purity="5.2002978324890137e-01" nType="-99"/>
          </Node>
        </Node>
        <Node pos="r" depth="1" NCoef="0" IVar="5" Cut="1.8750730156898499e-01" cType="1" res="1.6114290803670883e-02" rms="2.8092685341835022e-01" purity="6.7422330379486084e-01" nType="0">
          <Node pos="l" depth="2" NCoef="0" IVar="4" Cut="1.7673180997371674e-01" cType="1" res="2.2365596145391464e-02" rms="2.7943360805511475e-01" purity="7.0499271154403687e-01" nType="0">
            <Node pos="l" depth="3" NCoef="0" IVar="-1" Cut="0.0000000000000000e+00" cType="1" res="2.2152859717607498e-02" rms="3.7251687049865723e-01" purity="8.2677441835403442e-01" nType="-99"/>
            <Node pos="r" depth="3" NCoef="0" IVar="-1" Cut="0.0000000000000000e+00" cType="1" res="5.4133995436131954e-03" rms="4.5599949359893799e-01" purity="6.6078746318817139e-01" nType="-99"/>
          </Node>
          <Node pos="r" depth="2" NCoef="0" IVar="3" Cut="2.1997860074043274e-01" cType="1" res="5.1277410238981247e-03" rms="2.8319796919822693e-01" purity="6.2014675140380859e-01" nType="0">
            <Node pos="l" depth="3" NCoef="0" IVar="-1" Cut="0.0000000000000000e+00" cType="1" res="-3.3317171037197113e-03" rms="4.6988904476165771e-01" purity="6.2496465444564819e-01" nType="-99"/>
            <Node pos="r" depth="3" NCoef="0" IVar="-1" Cut="0.0000000000000000e+00" cType="1" res="2.8134987223893404e-03" rms="4.7239524126052856e-01" purity="6.1559426784515381e-01" nType="-99"/>
          </Node>
        </Node>
      </Node>
    </BinaryTree>
    <BinaryTree type="DecisionTree" boostWeight="1.0000000000000000e+00" itree="26">
      <Node pos="s" depth="0" NCoef="0" IVar="0" Cut="3.5000000000000000e+01" cType="1" res="5.1008446462219581e-06" rms="4.6735277771949768e-01" purity="5.0000000000000000e-01" nType="0">
        <Node pos="l" depth="1" NCoef="0" IVar="0" Cut="1.7000000000000000e+01" cType="1" res="8.5280332714319229e-03" rms="4.7089195251464844e-01" purity="5.4151391983032227e-01" nType="0">
          <Node pos="l" depth="2" NCoef="0" IVar="9" Cut="1.4428571701049805e+01" cType="1" res="0.0000000000000000e+00" rms="0.0000000000000000e+00" purity="7.0457512140274048e-01" nType="0">
            <Node pos="l" depth="3" NCoef="0" IVar="-1" Cut="0.0000000000000000e+00" cType="1" res="8.4325233474373817e-03" rms="4.4135105609893799e-01" purity="7.0969641208648682e-01" nType="-99"/>
            <Node pos="r" depth="3" NCoef="0" IVar="-1" Cut="0.0000000000000000e+00" cType="1" res="1.1576683260500431e-02" rms="4.4595041871070862e-01" purity="6.9906336069107056e-01" nType="-99"/>
          </Node>
          <Node pos="r" depth="2" NCoef="0" IVar="1" Cut="5.4715119302272797e-02" cType="1" res="0.0000000000000000e+00" rms="9.0033687651157379e-02" purity="5.1561450958251953e-01" nType="0">
            <Node pos="l" depth="3" NCoef="0" IVar="-1" Cut="0.0000000000000000e+00" cType="1" res="1.8881916766986251e-03" rms="4.7779500484466553e-01" purity="5.5168497562408447e-01" nType="-99"/>
            <Node pos="r" depth="3" NCoef="0" IVar="-1" Cut="0.0000000000000000e+00" cType="1" res="-6.6390349529683590e-03" rms="4.5634865760803223e-01" purity="3.0968666076660156e-01" nType="-99"/>
          </Node>
        </Node>
        <Node pos="r" depth="1" NCoef="0" IVar="9" Cut="1.4238095283508301e+01" cType="1" res="-2.6278879493474960e-02" rms="4.5002755522727966e-01" purity="3.6487993597984314e-01" nType="0">
          <Node pos="l" depth="2" NCoef="0" IVar="-1" Cut="0.0000000000000000e+00" cType="1" res="-1.3090495951473713e-02" rms="4.3302696943283081e-01" purity="3.0852305889129639e-01" nType="-99"/>
          <Node pos="r" depth="2" NCoef="0" IVar="10" Cut="2.9735654592514038e-01" cType="1" res="-1.4752745628356934e-02" rms="4.5828533172607422e-01" purity="3.8928350806236267e-01" nType="0">
            <Node pos="l" depth="3" NCoef="0" IVar="-1" Cut="0.0000000000000000e+00" cType="1" res="-9.2491507530212402e-03" rms="4.3353158235549927e-01" purity="2.5652030110359192e-01" nType="-99"/>
            <Node pos="r" depth="3" NCoef="0" IVar="-1" Cut="0.0000000000000000e+00" cType="1" res="-3.7581802462227643e-04" rms="4.8015555739402771e-01" purity="4.7290071845054626e-01" nType="-99"/>
          </Node>
        </Node>
      </Node>
    </BinaryTree>
    <BinaryTree type="DecisionTree" boostWeight="1.0000000000000000e+00" itree="27">
      <Node pos="s" depth="0" NCoef="0" IVar="10" Cut="3.6641573905944824e-01" cType="1" res="6.1420537531375885e-03" rms="2.4416932463645935e-01" purity="5.0000000000000000e-01" nType="0">
        <Node pos="l" depth="1" NCoef="0" IVar="9" Cut="1.3428571701049805e+01" cType="1" res="2.6909760199487209e-03" rms="2.2656138241291046e-01" purity="4.2495575547218323e-01" nType="0">
          <Node pos="l" depth="2" NCoef="0" IVar="-1" Cut="0.0000000000000000e+00" cType="1" res="-1.1759241111576557e-02" rms="4.5184588432312012e-01" purity="3.4608635306358337e-01" nType="-99"/>
          <Node pos="r" depth="2" NCoef="0" IVar="10" Cut="3.1072801351547241e-01" cType="1" res="3.9420826360583305e-03" rms="2.2349834442138672e-01" purity="4.3704068660736084e-01" nType="0">
            <Node pos="l" depth="3" NCoef="0" IVar="-1" Cut="0.0000000000000000e+00" cType="1" res="-4.6263127587735653e-03" rms="4.6288347244262695e-01" purity="3.3772033452987671e-01" nType="-99"/>
            <Node pos="r" depth="3" NCoef="0" IVar="-1" Cut="0.0000000000000000e+00" cType="1" res="2.5570124853402376e-03" rms="4.8871806263923645e-01" purity="5.2002978324890137e-01" nType="-99"/>
          </Node>
        </Node>
        <Node pos="r" depth="1" NCoef="0" IVar="11" Cut="4.7597233206033707e-03" cType="1" res="1.4154103584587574e-02" rms="2.8065940737724304e-01" purity="6.7422330379486084e-01" nType="0">
          <Node pos="l" depth="2" NCoef="0" IVar="5" Cut="1.3044027984142303e-01" cType="1" res="2.1115668118000031e-02" rms="2.7279290556907654e-01" purity="7.4577248096466064e-01" nType="0">
            <Node pos="l" depth="3" NCoef="0" IVar="-1" Cut="0.0000000000000000e+00" cType="1" res="1.8387977033853531e-02" rms="3.9115947484970093e-01" purity="7.9404217004776001e-01" nType="-99"/>
            <Node pos="r" depth="3" NCoef="0" IVar="-1" Cut="0.0000000000000000e+00" cType="1" res="5.1505574956536293e-03" rms="4.4337037205696106e-01" purity="7.1378618478775024e-01" nType="-99"/>
          </Node>
          <Node pos="r" depth="2" NCoef="0" IVar="3" Cut="2.6581338047981262e-01" cType="1" res="8.0423951148986816e-03" rms="2.8724908828735352e-01" purity="6.1140877008438110e-01" nType="0">
            <Node pos="l" depth="3" NCoef="0" IVar="-1" Cut="0.0000000000000000e+00" cType="1" res="-2.9982167761772871e-03" rms="4.6952351927757263e-01" purity="5.9571731090545654e-01" nType="-99"/>
            <Node pos="r" depth="3" NCoef="0" IVar="-1" Cut="0.0000000000000000e+00" cType="1" res="4.0013534016907215e-03" rms="4.6968182921409607e-01" purity="6.2309032678604126e-01" nType="-99"/>
          </Node>
        </Node>
      </Node>
    </BinaryTree>
    <BinaryTree type="DecisionTree" boostWeight="1.0000000000000000e+00" itree="28">
      <Node pos="s" depth="0" NCoef="0" IVar="0" Cut="3.6000000000000000e+01" cType="1" res="4.8187557695200667e-06" rms="4.6707758307456970e-01" purity="5.0000000000000000e-01" nType="0">
        <Node pos="l" depth="1" NCoef="0" IVar="0" Cut="1.5000000000000000e+01" cType="1" res="6.9615081883966923e-03" rms="4.7047248482704163e-01" purity="5.3694957494735718e-01" nType="0">
          <Node pos="l" depth="2" NCoef="0" IVar="-1" Cut="0.0000000000000000e+00" cType="1" res="1.2170387431979179e-02" rms="4.3028539419174194e-01" purity="7.3769366741180420e-01" nType="-99"/>
          <Node pos="r" depth="2" NCoef="0" IVar="9" Cut="1.3142857551574707e+01" cType="1" res="3.4537625033408403e-03" rms="4.7342532873153687e-01" purity="5.2058768272399902e-01" nType="0">
            <Node pos="l" depth="3" NCoef="0" IVar="-1" Cut="0.0000000000000000e+00" cType="1" res="-4.6322448179125786e-03" rms="4.6821454167366028e-01" purity="5.0667381286621094e-01" nType="-99"/>
            <Node pos="r" depth="3" NCoef="0" IVar="-1" Cut="0.0000000000000000e+00" cType="1" res="2.1731329616159201e-03" rms="4.7459962964057922e-01" purity="5.2432024478912354e-01" nType="-99"/>
          </Node>
        </Node>
        <Node pos="r" depth="1" NCoef="0" IVar="9" Cut="1.5047618865966797e+01" cType="1" res="-2.5240899994969368e-02" rms="4.4892889261245728e-01" purity="3.5980400443077087e-01" nType="0">
          <Node pos="l" depth="2" NCoef="0" IVar="0" Cut="4.1000000000000000e+01" cType="1" res="-4.1643142700195312e-02" rms="4.4407007098197937e-01" purity="3.3594319224357605e-01" nType="0">
            <Node pos="l" depth="3" NCoef="0" IVar="-1" Cut="0.0000000000000000e+00" cType="1" res="-6.4712134189903736e-03" rms="4.5277699828147888e-01" purity="3.6500096321105957e-01" nType="-99"/>
            <Node pos="r" depth="3" NCoef="0" IVar="-1" Cut="0.0000000000000000e+00" cType="1" res="-1.3034983538091183e-02" rms="4.3467125296592712e-01" purity="3.0659034848213196e-01" nType="-99"/>
          </Node>
          <Node pos="r" depth="2" NCoef="0" IVar="-1" Cut="0.0000000000000000e+00" cType="1" res="-1.7191424267366529e-03" rms="4.6307733654975891e-01" purity="3.8924169540405273e-01" nType="-99"/>
        </Node>
      </Node>
    </BinaryTree>
    <BinaryTree type="DecisionTree" boostWeight="1.0000000000000000e+00" itree="29">
      <Node pos="s" depth="0" NCoef="0" IVar="1" Cut="5.5332362651824951e-02" cType="1" res="5.6125833652913570e-03" rms="2.4402081966400146e-01" purity="5.0000000000000000e-01" nType="0">
        <Node pos="l" depth="1" NCoef="0" IVar="9" Cut="1.6333333969116211e+01" cType="1" res="6.8027409724891186e-03" rms="2.5115436315536499e-01" purity="5.4032284021377563e-01" nType="0">
          <Node pos="l" depth="2" NCoef="0" IVar="10" Cut="3.2532992959022522e-01" cType="1" res="5.9805219061672688e-03" rms="2.5229647755622864e-01" purity="5.3664082288742065e-01" nType="0">
            <Node pos="l" depth="3" NCoef="0" IVar="-1" Cut="0.0000000000000000e+00" cType="1" res="-3.5307167563587427e-03" rms="4.7767490148544312e-01" purity="3.9364787936210632e-01" nType="-99"/>
            <Node pos="r" depth="3" NCoef="0" IVar="-1" Cut="0.0000000000000000e+00" cType="1" res="2.4938064161688089e-03" rms="4.6847486495971680e-01" purity="6.1125922203063965e-01" nType="-99"/>
          </Node>
          <Node pos="r" depth="2" NCoef="0" IVar="-1" Cut="0.0000000000000000e+00" cType="1" res="1.1225095018744469e-02" rms="4.6878361701965332e-01" purity="5.8331954479217529e-01" nType="-99"/>
        </Node>
        <Node pos="r" depth="1" NCoef="0" IVar="9" Cut="1.5047618865966797e+01" cType="1" res="-1.7666433705016971e-03" rms="2.1798986196517944e-01" purity="2.8095531463623047e-01" nType="0">
          <Node pos="l" depth="2" NCoef="0" IVar="-1" Cut="0.0000000000000000e+00" cType="1" res="-1.2512595392763615e-02" rms="4.1961339116096497e-01" purity="2.4779963493347168e-01" nType="-99"/>
          <Node pos="r" depth="2" NCoef="0" IVar="-1" Cut="0.0000000000000000e+00" cType="1" res="-2.6310060638934374e-03" rms="4.5529440045356750e-01" purity="3.1248822808265686e-01" nType="-99"/>
        </Node>
      </Node>
    </BinaryTree>
    <BinaryTree type="DecisionTree" boostWeight="1.0000000000000000e+00" itree="30">
      <Node pos="s" depth="0" NCoef="0" IVar="4" Cut="2.2091476619243622e-01" cType="1" res="5.4863248951733112e-03" rms="2.4398101866245270e-01" purity="5.0000000000000000e-01" nType="0">
        <Node pos="l" depth="1" NCoef="0" IVar="5" Cut="1.6775214672088623e-01" cType="1" res="1.3666092418134212e-02" rms="2.6134821772575378e-01" purity="6.5552294254302979e-01" nType="0">
          <Node pos="l" depth="2" NCoef="0" IVar="-1" Cut="0.0000000000000000e+00" cType="1" res="1.6864884644746780e-02" rms="3.8497823476791382e-01" purity="8.0952662229537964e-01" nType="-99"/>
          <Node pos="r" depth="2" NCoef="0" IVar="5" Cut="2.4443897604942322e-01" cType="1" res="5.8939494192600250e-03" rms="2.6185429096221924e-01" purity="5.8894950151443481e-01" nType="0">
            <Node pos="l" depth="3" NCoef="0" IVar="-1" Cut="0.0000000000000000e+00" cType="1" res="4.9613248556852341e-03" rms="4.5402005314826965e-01" purity="6.9269239902496338e-01" nType="-99"/>
            <Node pos="r" depth="3" NCoef="0" IVar="-1" Cut="0.0000000000000000e+00" cType="1" res="-8.3694624481722713e-04" rms="4.8176681995391846e-01" purity="5.1604175567626953e-01" nType="-99"/>
          </Node>
        </Node>
        <Node pos="r" depth="1" NCoef="0" IVar="1" Cut="6.2485322356224060e-02" cType="1" res="3.1424323096871376e-03" rms="2.3872008919715881e-01" purity="4.5543527603149414e-01" nType="0">
          <Node pos="l" depth="2" NCoef="0" IVar="9" Cut="1.6333333969116211e+01" cType="1" res="3.7782024592161179e-03" rms="2.4220180511474609e-01" purity="4.7411105036735535e-01" nType="0">
            <Node pos="l" depth="3" NCoef="0" IVar="-1" Cut="0.0000000000000000e+00" cType="1" res="-1.5650683781132102e-03" rms="4.7565871477127075e-01" purity="4.7268924117088318e-01" nType="-99"/>
            <Node pos="r" depth="3" NCoef="0" IVar="-1" Cut="0.0000000000000000e+00" cType="1" res="8.4905941039323807e-03" rms="4.8080223798751831e-01" purity="4.8860165476799011e-01" nType="-99"/>
          </Node>
          <Node pos="r" depth="2" NCoef="0" IVar="-1" Cut="0.0000000000000000e+00" cType="1" res="-1.1900551617145538e-02" rms="4.1968259215354919e-01" purity="2.4359646439552307e-01" nType="-99"/>
        </Node>
      </Node>
    </BinaryTree>
    <BinaryTree type="DecisionTree" boostWeight="1.0000000000000000e+00" itree="31">
      <Node pos="s" depth="0" NCoef="0" IVar="0" Cut="2.5000000000000000e+01" cType="1" res="3.9826363718020730e-06" rms="4.6676850318908691e-01" purity="5.0000000000000000e-01" nType="0">
        <Node pos="l" depth="1" NCoef="0" IVar="0" Cut="1.5000000000000000e+01" cType="1" res="1.4562008902430534e-02" rms="4.6712848544120789e-01" purity="6.0837948322296143e-01" nType="0">
          <Node pos="l" depth="2" NCoef="0" IVar="-1" Cut="0.0000000000000000e+00" cType="1" res="1.0799614712595940e-02" rms="4.3022739887237549e-01" purity="7.3769366741180420e-01" nType="-99"/>
          <Node pos="r" depth="2" NCoef="0" IVar="9" Cut="1.3285714149475098e+01" cType="1" res="1.9554904103279114e-01" rms="6.5400242805480957e-01" purity="5.8608281612396240e-01" nType="0">
            <Node pos="l" depth="3" NCoef="0" IVar="-1" Cut="0.0000000000000000e+00" cType="1" res="-2.2608248982578516e-03" rms="4.7172406315803528e-01" purity="5.7935029268264771e-01" nType="-99"/>
            <Node pos="r" depth="3" NCoef="0" IVar="-1" Cut="0.0000000000000000e+00" cType="1" res="3.4633714240044355e-03" rms="4.7325956821441650e-01" purity="5.8826410770416260e-01" nType="-99"/>
          </Node>
        </Node>
        <Node pos="r" depth="1" NCoef="0" IVar="9" Cut="1.3428571701049805e+01" cType="1" res="-6.7579415626823902e-03" rms="4.5063179731369019e-01" purity="4.2605715990066528e-01" nType="0">
          <Node pos="l" depth="2" NCoef="0" IVar="4" Cut="3.5083198547363281e-01" cType="1" res="-3.3647373318672180e-02" rms="4.3850895762443542e-01" purity="3.7341147661209106e-01" nType="0">
            <Node pos="l" depth="3" NCoef="0" IVar="-1" Cut="0.0000000000000000e+00" cType="1" res="-5.5010798387229443e-03" rms="4.6449923515319824e-01" purity="4.6131950616836548e-01" nType="-99"/>
            <Node pos="r" depth="3" NCoef="0" IVar="-1" Cut="0.0000000000000000e+00" cType="1" res="-1.2986951507627964e-02" rms="4.3397098779678345e-01" purity="2.8174281120300293e-01" nType="-99"/>
          </Node>
          <Node pos="r" depth="2" NCoef="0" IVar="10" Cut="2.9505640268325806e-01" cType="1" res="-1.1063324054703116e-03" rms="4.5293554663658142e-01" purity="4.3712222576141357e-01" nType="0">
            <Node pos="l" depth="3" NCoef="0" IVar="-1" Cut="0.0000000000000000e+00" cType="1" res="-7.0373117923736572e-03" rms="4.3857714533805847e-01" purity="2.6846492290496826e-01" nType="-99"/>
            <Node pos="r" depth="3" NCoef="0" IVar="-1" Cut="0.0000000000000000e+00" cType="1" res="8.5250806296244264e-04" rms="4.7797492146492004e-01" purity="4.8792174458503723e-01" nType="-99"/>
          </Node>
        </Node>
      </Node>
    </BinaryTree>
    <BinaryTree type="DecisionTree" boostWeight="1.0000000000000000e+00" itree="32">
      <Node pos="s" depth="0" NCoef="0" IVar="4" Cut="1.3254885375499725e-01" cType="1" res="4.9146874807775021e-03" rms="2.4386203289031982e-01" purity="5.0000000000000000e-01" nType="0">
        <Node pos="l" depth="1" NCoef="0" IVar="-1" Cut="0.0000000000000000e+00" cType="1" res="1.1453075334429741e-02" rms="4.1520735621452332e-01" purity="7.2667807340621948e-01" nType="-99"/>
        <Node pos="r" depth="1" NCoef="0" IVar="0" Cut="4.0000000000000000e+01" cType="1" res="-2.7928419876843691e-03" rms="4.6951234340667725e-01" purity="4.8605877161026001e-01" nType="0">
          <Node pos="l" depth="2" NCoef="0" IVar="9" Cut="1.5285714149475098e+01" cType="1" res="4.4238446280360222e-03" rms="2.5964835286140442e-01" purity="5.0800305604934692e-01" nType="0">
            <Node pos="l" depth="3" NCoef="0" IVar="-1" Cut="0.0000000000000000e+00" cType="1" res="-1.5238813357427716e-03" rms="4.7043538093566895e-01" purity="5.1041293144226074e-01" nType="-99"/>
            <Node pos="r" depth="3" NCoef="0" IVar="-1" Cut="0.0000000000000000e+00" cType="1" res="3.2621724531054497e-03" rms="4.7552281618118286e-01" purity="5.0401937961578369e-01" nType="-99"/>
          </Node>
          <Node pos="r" depth="2" NCoef="0" IVar="9" Cut="1.5047618865966797e+01" cType="1" res="-3.0717043206095695e-02" rms="4.4447794556617737e-01" purity="3.3327135443687439e-01" nType="0">
            <Node pos="l" depth="3" NCoef="0" IVar="-1" Cut="0.0000000000000000e+00" cType="1" res="-1.0830911807715893e-02" rms="4.3643206357955933e-01" purity="3.0661886930465698e-01" nType="-99"/>
            <Node pos="r" depth="3" NCoef="0" IVar="-1" Cut="0.0000000000000000e+00" cType="1" res="-3.3685415983200073e-03" rms="4.5966914296150208e-01" purity="3.6608269810676575e-01" nType="-99"/>
          </Node>
        </Node>
      </Node>
    </BinaryTree>
    <BinaryTree type="DecisionTree" boostWeight="1.0000000000000000e+00" itree="33">
      <Node pos="s" depth="0" NCoef="0" IVar="10" Cut="3.6641573905944824e-01" cType="1" res="4.8112249933183193e-03" rms="2.4383531510829926e-01" purity="5.0000000000000000e-01" nType="0">
        <Node pos="l" depth="1" NCoef="0" IVar="9" Cut="1.3428571701049805e+01" cType="1" res="2.1684537641704082e-03" rms="2.2634670138359070e-01" purity="4.2495575547218323e-01" nType="0">
          <Node pos="l" depth="2" NCoef="0" IVar="-1" Cut="0.0000000000000000e+00" cType="1" res="-9.0120779350399971e-03" rms="4.5144945383071899e-01" purity="3.4608635306358337e-01" nType="-99"/>
          <Node pos="r" depth="2" NCoef="0" IVar="10" Cut="3.1072801351547241e-01" cType="1" res="3.0349444132298231e-03" rms="2.2332142293453217e-01" purity="4.3704068660736084e-01" nType="0">
            <Node pos="l" depth="3" NCoef="0" IVar="-1" Cut="0.0000000000000000e+00" cType="1" res="-3.6297887563705444e-03" rms="4.6255549788475037e-01" purity="3.3772033452987671e-01" nType="-99"/>
            <Node pos="r" depth="3" NCoef="0" IVar="-1" Cut="0.0000000000000000e+00" cType="1" res="1.9586395937949419e-03" rms="4.8850494623184204e-01" purity="5.2002978324890137e-01" nType="-99"/>
          </Node>
        </Node>
        <Node pos="r" depth="1" NCoef="0" IVar="5" Cut="1.2500487267971039e-01" cType="1" res="1.0946703143417835e-02" rms="2.8016424179077148e-01" purity="6.7422330379486084e-01" nType="0">
          <Node pos="l" depth="2" NCoef="0" IVar="-1" Cut="0.0000000000000000e+00" cType="1" res="1.0394847020506859e-02" rms="4.2267268896102905e-01" purity="7.2417914867401123e-01" nType="-99"/>
          <Node pos="r" depth="2" NCoef="0" IVar="9" Cut="1.3666666984558105e+01" cType="1" res="5.7085864245891571e-03" rms="2.8145840764045715e-01" purity="6.5222632884979248e-01" nType="0">
            <Node pos="l" depth="3" NCoef="0" IVar="-1" Cut="0.0000000000000000e+00" cType="1" res="-2.8752244543284178e-03" rms="4.7093969583511353e-01" purity="5.7425987720489502e-01" nType="-99"/>
